<?xml version="1.0"?>
<opencv_storage>
<cascade>
  <stageType>BOOST</stageType>
  <featureType>LBP</featureType>
  <height>40</height>
  <width>80</width>
  <stageParams>
    <boostType>GAB</boostType>
    <minHitRate>9.9900001287460327e-01</minHitRate>
    <maxFalseAlarm>5.0000000000000000e-01</maxFalseAlarm>
    <weightTrimRate>9.4999999999999996e-01</weightTrimRate>
    <maxDepth>1</maxDepth>
    <maxWeakCount>100</maxWeakCount></stageParams>
  <featureParams>
    <maxCatCount>256</maxCatCount>
    <featSize>1</featSize></featureParams>
  <stageNum>20</stageNum>
  <stages>
    <!-- stage 0 -->
    <_>
      <maxWeakCount>6</maxWeakCount>
      <stageThreshold>-9.5263504981994629e-01</stageThreshold>
      <weakClassifiers>
        <_>
          <internalNodes>
            0 -1 40 -308100904 -1121804264 772296795 321011268
            -421128470 -15147288 33589486 -1709178182</internalNodes>
          <leafValues>
            -6.0950762033462524e-01 7.5074183940887451e-01</leafValues></_>
        <_>
          <internalNodes>
            0 -1 62 -251625256 2064875656 16657 1562050580 134251198
            -1979154432 18586 251793422</internalNodes>
          <leafValues>
            -6.9215518236160278e-01 5.9751397371292114e-01</leafValues></_>
        <_>
          <internalNodes>
            0 -1 130 1426079888 -41533904 409649361 1366310512
            -2077831992 -1974806576 -2143643704 -899148160</internalNodes>
          <leafValues>
            -5.4031896591186523e-01 7.1020978689193726e-01</leafValues></_>
        <_>
          <internalNodes>
            0 -1 27 1596513010 -15388872 1846062683 -754831616
            -545858838 -231448 -1526010663 -1354519406</internalNodes>
          <leafValues>
            -5.4108697175979614e-01 7.2499251365661621e-01</leafValues></_>
        <_>
          <internalNodes>
            0 -1 124 -1098903360 -1750894708 852488851 956527947
            -822293878 -2005115049 997858730 -1693573429</internalNodes>
          <leafValues>
            -5.1257210969924927e-01 7.9628229141235352e-01</leafValues></_>
        <_>
          <internalNodes>
            0 -1 117 -1715463972 -8322960 -8847659 1603559000 519069384
            -285278210 249057466 -1154961136</internalNodes>
          <leafValues>
            -5.9719204902648926e-01 6.9376027584075928e-01</leafValues></_></weakClassifiers></_>
    <!-- stage 1 -->
    <_>
      <maxWeakCount>6</maxWeakCount>
      <stageThreshold>-6.9899773597717285e-01</stageThreshold>
      <weakClassifiers>
        <_>
          <internalNodes>
            0 -1 144 -198850424 -180270976 1995506760 826345632
            834191530 390069058 367544302 327877643</internalNodes>
          <leafValues>
            -5.2117264270782471e-01 7.3022311925888062e-01</leafValues></_>
        <_>
          <internalNodes>
            0 -1 175 -30869504 2099868812 827603240 934352320
            -2003792452 1135368524 336602362 957548954</internalNodes>
          <leafValues>
            -5.0901550054550171e-01 6.7343103885650635e-01</leafValues></_>
        <_>
          <internalNodes>
            0 -1 155 -249511760 -77000984 946674608 1974810465
            -2087409272 436281164 140553255 -1219554037</internalNodes>
          <leafValues>
            -4.8865219950675964e-01 7.0953422784805298e-01</leafValues></_>
        <_>
          <internalNodes>
            0 -1 152 -1723295536 1004163696 780009725 1362171057
            -1433087848 -1963166160 -2035240565 420154577</internalNodes>
          <leafValues>
            -5.3979361057281494e-01 6.5903335809707642e-01</leafValues></_>
        <_>
          <internalNodes>
            0 -1 85 -771637248 1400963072 3 1360068696 402686344
            -2147483648 268470696 -1685454839</internalNodes>
          <leafValues>
            -5.2740019559860229e-01 7.4526226520538330e-01</leafValues></_>
        <_>
          <internalNodes>
            0 -1 148 1385708720 -1625268224 793753401 892173393
            1055640312 -767795212 70794651 -1693510613</internalNodes>
          <leafValues>
            -4.9359652400016785e-01 7.6165378093719482e-01</leafValues></_></weakClassifiers></_>
    <!-- stage 2 -->
    <_>
      <maxWeakCount>6</maxWeakCount>
      <stageThreshold>-8.9178490638732910e-01</stageThreshold>
      <weakClassifiers>
        <_>
          <internalNodes>
            0 -1 28 -570106934 -74061888 1844350048 2074189824
            -557403922 1374993338 -955340566 -208416070</internalNodes>
          <leafValues>
            -3.9644971489906311e-01 7.2294372320175171e-01</leafValues></_>
        <_>
          <internalNodes>
            0 -1 12 -70333464 -452853758 9486355 320618632 -1048524402
            1376911360 -1878949421 1124323795</internalNodes>
          <leafValues>
            -5.3890591859817505e-01 5.7917618751525879e-01</leafValues></_>
        <_>
          <internalNodes>
            0 -1 69 -1323241270 1343897728 -1862201267 1426653185
            -1475837201 -2111635448 52629919 1460656171</internalNodes>
          <leafValues>
            -5.7767432928085327e-01 5.4966157674789429e-01</leafValues></_>
        <_>
          <internalNodes>
            0 -1 102 -1157500728 1464930304 -1862270950 1902248960
            -1475821398 33554434 -2146858600 1099143306</internalNodes>
          <leafValues>
            -6.3716334104537964e-01 4.8195436596870422e-01</leafValues></_>
        <_>
          <internalNodes>
            0 -1 109 -72232752 -604869055 56764629 393175125 -1726480758
            -553433964 5947130 -620114721</internalNodes>
          <leafValues>
            -4.9823167920112610e-01 7.4227792024612427e-01</leafValues></_>
        <_>
          <internalNodes>
            0 -1 171 -54802847 1370518641 -272663771 -713556115
            -1405682232 884077684 753071418 826012591</internalNodes>
          <leafValues>
            -4.8083549737930298e-01 6.7073345184326172e-01</leafValues></_></weakClassifiers></_>
    <!-- stage 3 -->
    <_>
      <maxWeakCount>8</maxWeakCount>
      <stageThreshold>-4.6576771140098572e-01</stageThreshold>
      <weakClassifiers>
        <_>
          <internalNodes>
            0 -1 70 -16722696 -8495942 -1316448193 1057685520 444134648
            2147411900 706908159 705300488</internalNodes>
          <leafValues>
            -4.7861507534980774e-01 5.7258790731430054e-01</leafValues></_>
        <_>
          <internalNodes>
            0 -1 111 -1195444496 -1618089408 -1695289101 1429029921
            -1603954994 -1975205364 115119067 -1692726849</internalNodes>
          <leafValues>
            -3.1201517581939697e-01 7.7607196569442749e-01</leafValues></_>
        <_>
          <internalNodes>
            0 -1 138 -262614872 -203406795 585910336 1904290857
            -1099004230 1344931951 747948762 -2129931093</internalNodes>
          <leafValues>
            -4.1193673014640808e-01 6.2116593122482300e-01</leafValues></_>
        <_>
          <internalNodes>
            0 -1 153 -80217263 -67274300 -37814403 -704778251 -178000782
            -1997218444 1484500154 1342963711</internalNodes>
          <leafValues>
            -5.0356298685073853e-01 5.6941419839859009e-01</leafValues></_>
        <_>
          <internalNodes>
            0 -1 30 -1017206182 -788398067 1073745945 134289428
            806920412 1773144090 671500938 1215005101</internalNodes>
          <leafValues>
            -5.9473460912704468e-01 4.8979943990707397e-01</leafValues></_>
        <_>
          <internalNodes>
            0 -1 129 -1124039648 -42656032 1610055673 -581614603
            -1720478774 -210807307 -1797704518 -1282734840</internalNodes>
          <leafValues>
            -4.5270419120788574e-01 6.3741075992584229e-01</leafValues></_>
        <_>
          <internalNodes>
            0 -1 151 -621231910 -545521560 34530101 286864209 494716554
            -809185476 12733595 -1885635881</internalNodes>
          <leafValues>
            -3.7512794137001038e-01 7.6048600673675537e-01</leafValues></_>
        <_>
          <internalNodes>
            0 -1 105 371773641 1568440176 -1208058561 -714244772
            -1094026838 -1346469890 678877423 444601423</internalNodes>
          <leafValues>
            -5.0591075420379639e-01 5.9647589921951294e-01</leafValues></_></weakClassifiers></_>
    <!-- stage 4 -->
    <_>
      <maxWeakCount>8</maxWeakCount>
      <stageThreshold>-8.7550127506256104e-01</stageThreshold>
      <weakClassifiers>
        <_>
          <internalNodes>
            0 -1 34 1602936776 -202482084 -1879044476 -717356152
            -1615098662 -1257513361 304654508 -341275956</internalNodes>
          <leafValues>
            -4.2486086487770081e-01 5.9283697605133057e-01</leafValues></_>
        <_>
          <internalNodes>
            0 -1 137 -66410520 -87344894 215953563 -721016969
            -1838238022 -993085626 12039822 -701000482</internalNodes>
          <leafValues>
            -3.9126864075660706e-01 6.0223037004470825e-01</leafValues></_>
        <_>
          <internalNodes>
            0 -1 42 -207105542 1806634059 806295381 285289570 62433467
            -326963256 256263817 -928347997</internalNodes>
          <leafValues>
            -4.4764453172683716e-01 5.6429153680801392e-01</leafValues></_>
        <_>
          <internalNodes>
            0 -1 113 -860622184 33656916 268439828 -183402239 204095624
            -1450114911 268604315 589001387</internalNodes>
          <leafValues>
            -5.7154512405395508e-01 4.8192706704139709e-01</leafValues></_>
        <_>
          <internalNodes>
            0 -1 108 1869141244 2143112240 1604203621 1462442739
            -1231387510 -2130561616 -809544961 -1618280225</internalNodes>
          <leafValues>
            -4.5988720655441284e-01 6.2639242410659790e-01</leafValues></_>
        <_>
          <internalNodes>
            0 -1 43 1497387224 -641642238 -805224289 -1122631656
            -2147305268 1535255552 134267098 -341802288</internalNodes>
          <leafValues>
            -5.9060752391815186e-01 4.9612647294998169e-01</leafValues></_>
        <_>
          <internalNodes>
            0 -1 35 -763167550 1368653840 -2130634638 458821656
            143446510 -1361051512 545831306 -1969061750</internalNodes>
          <leafValues>
            -5.4102420806884766e-01 5.2566581964492798e-01</leafValues></_>
        <_>
          <internalNodes>
            0 -1 65 -4673476 -1662325000 -28123329 -511570060
            -1867063042 -1879179819 104762623 -1675211500</internalNodes>
          <leafValues>
            -5.1333224773406982e-01 5.7981282472610474e-01</leafValues></_></weakClassifiers></_>
    <!-- stage 5 -->
    <_>
      <maxWeakCount>10</maxWeakCount>
      <stageThreshold>-9.5772993564605713e-01</stageThreshold>
      <weakClassifiers>
        <_>
          <internalNodes>
            0 -1 0 -1053462 1080223398 -12580 -832390490 2137372286
            1819442998 -1653452802 1397979127</internalNodes>
          <leafValues>
            -3.8033396005630493e-01 5.7021677494049072e-01</leafValues></_>
        <_>
          <internalNodes>
            0 -1 6 -762842906 118653978 1476428038 -243564157 1887778976
            1098907808 -767515587 -1307454597</internalNodes>
          <leafValues>
            -4.7819596529006958e-01 4.4464647769927979e-01</leafValues></_>
        <_>
          <internalNodes>
            0 -1 100 1393655992 -782696429 -704376766 54736984
            -1879010630 285739034 -746028593 1531666571</internalNodes>
          <leafValues>
            -5.4043185710906982e-01 4.2733639478683472e-01</leafValues></_>
        <_>
          <internalNodes>
            0 -1 94 -45842220 -549778252 242130705 2139192480 170437830
            -62980040 1600564863 -1349780257</internalNodes>
          <leafValues>
            -4.1040626168251038e-01 5.8570694923400879e-01</leafValues></_>
        <_>
          <internalNodes>
            0 -1 51 -769142646 -1869398013 134217827 -520072639
            1896048778 -643816936 1527878852 -135281202</internalNodes>
          <leafValues>
            -4.9265345931053162e-01 4.9304014444351196e-01</leafValues></_>
        <_>
          <internalNodes>
            0 -1 180 1777857930 1420295537 -38028311 -1930627107
            -203072040 284454900 -839449524 -2064401057</internalNodes>
          <leafValues>
            -4.6303251385688782e-01 5.6095534563064575e-01</leafValues></_>
        <_>
          <internalNodes>
            0 -1 135 -779415390 1354989571 16785472 1090994179
            -784206142 1401434368 -2130605848 1535873674</internalNodes>
          <leafValues>
            -5.8035719394683838e-01 4.3077057600021362e-01</leafValues></_>
        <_>
          <internalNodes>
            0 -1 22 -882462896 2142039615 -1073877067 -202691174
            241368945 1994849279 2004297460 1204225447</internalNodes>
          <leafValues>
            -4.9894517660140991e-01 5.3265511989593506e-01</leafValues></_>
        <_>
          <internalNodes>
            0 -1 168 -256288236 -743221321 2055175358 2146656241
            -11626224 -1329627145 358528904 -1264663205</internalNodes>
          <leafValues>
            -4.8402911424636841e-01 5.5230140686035156e-01</leafValues></_>
        <_>
          <internalNodes>
            0 -1 114 350212160 412205320 1346396289 1367412881
            1384431766 1048577 167870947 1140570446</internalNodes>
          <leafValues>
            -6.2120944261550903e-01 4.2328348755836487e-01</leafValues></_></weakClassifiers></_>
    <!-- stage 6 -->
    <_>
      <maxWeakCount>10</maxWeakCount>
      <stageThreshold>-9.0354293584823608e-01</stageThreshold>
      <weakClassifiers>
        <_>
          <internalNodes>
            0 -1 36 -277033868 2140376138 -1096253464 724065960
            -574296838 2132549370 120737787 -1154838384</internalNodes>
          <leafValues>
            -3.8492062687873840e-01 5.4197078943252563e-01</leafValues></_>
        <_>
          <internalNodes>
            0 -1 16 -889771 -139690389 -288430490 -52170824 -852822284
            1073042804 1852684287 1867994982</internalNodes>
          <leafValues>
            -4.1125604510307312e-01 4.8016455769538879e-01</leafValues></_>
        <_>
          <internalNodes>
            0 -1 127 1494374649 -618915824 323573045 1536753956
            -1819639214 -292011768 1365416447 453017761</internalNodes>
          <leafValues>
            -4.7166696190834045e-01 4.4952577352523804e-01</leafValues></_>
        <_>
          <internalNodes>
            0 -1 13 2134768974 -2269 1645014593 2065756130 1197070569
            -674109450 -696846709 -145521229</internalNodes>
          <leafValues>
            -4.3469634652137756e-01 5.1941543817520142e-01</leafValues></_>
        <_>
          <internalNodes>
            0 -1 53 1501294427 2133031964 -1220011537 -48423907
            1319890799 1554952264 -1627121573 1326172367</internalNodes>
          <leafValues>
            -3.8711175322532654e-01 6.3544291257858276e-01</leafValues></_>
        <_>
          <internalNodes>
            0 -1 141 841538264 1999347392 1384006577 419790333
            -2073257236 -1132011958 -1771805253 188435641</internalNodes>
          <leafValues>
            -4.2968311905860901e-01 5.3893196582794189e-01</leafValues></_>
        <_>
          <internalNodes>
            0 -1 48 -775285706 420528132 145002903 -1106005928 12165278
            -92059648 -1553313749 -1736162849</internalNodes>
          <leafValues>
            -5.9654343128204346e-01 4.2929440736770630e-01</leafValues></_>
        <_>
          <internalNodes>
            0 -1 173 324614014 -1861248128 -2146891499 1191379153
            -2121735958 -1299709808 822083802 150605824</internalNodes>
          <leafValues>
            -5.4449594020843506e-01 4.7392457723617554e-01</leafValues></_>
        <_>
          <internalNodes>
            0 -1 143 -754154848 2036857006 1324951112 -441895427
            -1621426995 461250461 1157465403 -657741037</internalNodes>
          <leafValues>
            -4.8914703726768494e-01 5.7285243272781372e-01</leafValues></_>
        <_>
          <internalNodes>
            0 -1 58 -745301104 446251204 -1065233963 -200687277
            -1870459649 -1945558853 -356515818 165660033</internalNodes>
          <leafValues>
            -5.1936429738998413e-01 5.0794601440429688e-01</leafValues></_></weakClassifiers></_>
    <!-- stage 7 -->
    <_>
      <maxWeakCount>9</maxWeakCount>
      <stageThreshold>-1.2074512243270874e+00</stageThreshold>
      <weakClassifiers>
        <_>
          <internalNodes>
            0 -1 57 -214 1613496040 -52702184 1352493948 -319882342
            -660799842 1289814096 282588244</internalNodes>
          <leafValues>
            -4.6282973885536194e-01 5.0126796960830688e-01</leafValues></_>
        <_>
          <internalNodes>
            0 -1 8 -813244818 -506916672 1100399304 -1182711232
            -1962385384 -259882968 277594254 1648420147</internalNodes>
          <leafValues>
            -5.7943838834762573e-01 3.4462600946426392e-01</leafValues></_>
        <_>
          <internalNodes>
            0 -1 91 -517879313 -204474943 871811587 899897095 -944077093
            -348987399 1578139391 -570391539</internalNodes>
          <leafValues>
            -3.2133087515830994e-01 6.6741573810577393e-01</leafValues></_>
        <_>
          <internalNodes>
            0 -1 92 -242106312 2130899396 17843351 1359548753 1224782572
            -41220081 -2046781221 -115256821</internalNodes>
          <leafValues>
            -4.5808207988739014e-01 4.6464452147483826e-01</leafValues></_>
        <_>
          <internalNodes>
            0 -1 23 -2002861069 -947347212 -1878897583 -1625681885
            27361375 134283266 151077044 2010370126</internalNodes>
          <leafValues>
            -5.1177996397018433e-01 4.4551613926887512e-01</leafValues></_>
        <_>
          <internalNodes>
            0 -1 159 -1393373999 -580265551 2053078391 -102900388
            -1363272517 654307039 158768522 -1356101600</internalNodes>
          <leafValues>
            -4.1398349404335022e-01 5.6437426805496216e-01</leafValues></_>
        <_>
          <internalNodes>
            0 -1 37 1233621082 -985378560 58848465 1494450241 14725563
            -1331560376 1174647604 -846468892</internalNodes>
          <leafValues>
            -4.6981105208396912e-01 4.9327102303504944e-01</leafValues></_>
        <_>
          <internalNodes>
            0 -1 128 329826459 -9736223 855319355 425033077 -1378215468
            -588018463 897371386 1125672047</internalNodes>
          <leafValues>
            -4.2217704653739929e-01 5.3886437416076660e-01</leafValues></_>
        <_>
          <internalNodes>
            0 -1 146 -713594398 1533803147 585851592 1433873990
            -1278216337 -360379815 427546393 -209564468</internalNodes>
          <leafValues>
            -4.4492733478546143e-01 5.4612135887145996e-01</leafValues></_></weakClassifiers></_>
    <!-- stage 8 -->
    <_>
      <maxWeakCount>10</maxWeakCount>
      <stageThreshold>-5.6921714544296265e-01</stageThreshold>
      <weakClassifiers>
        <_>
          <internalNodes>
            0 -1 163 -96805360 -576590560 522124629 522844273
            -1693731088 451442632 918295708 189399320</internalNodes>
          <leafValues>
            -3.6862745881080627e-01 5.3944951295852661e-01</leafValues></_>
        <_>
          <internalNodes>
            0 -1 2 -89144066 -578269455 -1166619393 -819575310
            -273815565 -9404617 -162332929 2069095419</internalNodes>
          <leafValues>
            -3.4399390220642090e-01 5.4081356525421143e-01</leafValues></_>
        <_>
          <internalNodes>
            0 -1 63 -651657008 1476491686 -1226285443 287322327
            1843300098 -251246012 74274223 446426601</internalNodes>
          <leafValues>
            -4.3028166890144348e-01 4.7124370932579041e-01</leafValues></_>
        <_>
          <internalNodes>
            0 -1 120 -542978874 1350247968 411009512 -245140482
            -507665750 -796429484 292553135 -1844584830</internalNodes>
          <leafValues>
            -3.6591142416000366e-01 5.5187594890594482e-01</leafValues></_>
        <_>
          <internalNodes>
            0 -1 32 -844697898 1398973130 1315956669 -1725442326
            259481342 1618695158 260046823 536346203</internalNodes>
          <leafValues>
            -4.2419561743736267e-01 5.4279386997222900e-01</leafValues></_>
        <_>
          <internalNodes>
            0 -1 150 -136261415 -695362368 2042230513 1465896149
            1025826976 -644174763 477673151 -1083470405</internalNodes>
          <leafValues>
            -3.0816882848739624e-01 7.7390134334564209e-01</leafValues></_>
        <_>
          <internalNodes>
            0 -1 76 -1682388982 -36044415 319291416 364454529
            -1593648952 -1970094070 1166442635 -905819880</internalNodes>
          <leafValues>
            -4.6396091580390930e-01 5.1811438798904419e-01</leafValues></_>
        <_>
          <internalNodes>
            0 -1 89 -779630604 332047362 1409340691 856700306
            -1433223028 -1458564951 303170109 -351292909</internalNodes>
          <leafValues>
            -5.0511002540588379e-01 4.7336605191230774e-01</leafValues></_>
        <_>
          <internalNodes>
            0 -1 170 270045416 -805207664 1208025309 1566937357 8421440
            -2013265904 142643339 1594397007</internalNodes>
          <leafValues>
            -5.2143400907516479e-01 4.9014160037040710e-01</leafValues></_>
        <_>
          <internalNodes>
            0 -1 147 -886205560 -743736403 2126019057 1976276473
            849475219 -140458500 809080703 -643885142</internalNodes>
          <leafValues>
            -4.4973051548004150e-01 6.0664182901382446e-01</leafValues></_></weakClassifiers></_>
    <!-- stage 9 -->
    <_>
      <maxWeakCount>8</maxWeakCount>
      <stageThreshold>-5.5269670486450195e-01</stageThreshold>
      <weakClassifiers>
        <_>
          <internalNodes>
            0 -1 24 -13120442 -16720652 1323068607 1795354516 -143205134
            2137030649 907156990 372254519</internalNodes>
          <leafValues>
            -4.1309255361557007e-01 5.0388938188552856e-01</leafValues></_>
        <_>
          <internalNodes>
            0 -1 162 -759185198 -633687976 846680349 1560361009
            -942887496 -2075899282 354074091 -1962173285</internalNodes>
          <leafValues>
            -2.8603985905647278e-01 6.1043179035186768e-01</leafValues></_>
        <_>
          <internalNodes>
            0 -1 119 -143703805 -680176009 1063255997 1433752821
            -20972356 -282335266 -1539811398 -1086702189</internalNodes>
          <leafValues>
            -3.1542786955833435e-01 5.7311308383941650e-01</leafValues></_>
        <_>
          <internalNodes>
            0 -1 75 1386333415 -214228006 572996230 2086379479
            -722841686 -369307857 508727159 -350460575</internalNodes>
          <leafValues>
            -4.1797834634780884e-01 4.8435327410697937e-01</leafValues></_>
        <_>
          <internalNodes>
            0 -1 166 -1792474992 1141047425 -2145910637 1941962770
            1343258792 -1605894136 38122 454709909</internalNodes>
          <leafValues>
            -4.7349444031715393e-01 4.5252099633216858e-01</leafValues></_>
        <_>
          <internalNodes>
            0 -1 67 318822515 -772669376 4243549 1490752644 -1962876781
            -1316945535 25434950 -1677033390</internalNodes>
          <leafValues>
            -4.3460094928741455e-01 4.9014219641685486e-01</leafValues></_>
        <_>
          <internalNodes>
            0 -1 19 -2147303410 -719896320 371389056 -1827441903
            1519094927 674235413 25407901 1663295897</internalNodes>
          <leafValues>
            -5.5608743429183960e-01 4.1345828771591187e-01</leafValues></_>
        <_>
          <internalNodes>
            0 -1 133 -72668834 -1653382 1514004349 -32368011 -17433981
            -833683900 57837547 -1738344994</internalNodes>
          <leafValues>
            -3.5796985030174255e-01 6.4847230911254883e-01</leafValues></_></weakClassifiers></_>
    <!-- stage 10 -->
    <_>
      <maxWeakCount>10</maxWeakCount>
      <stageThreshold>-8.9249265193939209e-01</stageThreshold>
      <weakClassifiers>
        <_>
          <internalNodes>
            0 -1 90 -264602140 2048597221 1803235303 1428621244
            245774845 -1934163976 1693855871 319426276</internalNodes>
          <leafValues>
            -3.7365010380744934e-01 5.0395780801773071e-01</leafValues></_>
        <_>
          <internalNodes>
            0 -1 106 1136867 -1795047399 -2080124785 89330181 671413984
            -1161277310 470949963 1386086614</internalNodes>
          <leafValues>
            -4.4697543978691101e-01 4.0097394585609436e-01</leafValues></_>
        <_>
          <internalNodes>
            0 -1 41 -1723985699 2052708610 -2142579777 -2096294483
            -1612257030 -1111785495 1246152919 -338784802</internalNodes>
          <leafValues>
            -2.9658183455467224e-01 6.4599955081939697e-01</leafValues></_>
        <_>
          <internalNodes>
            0 -1 31 -286335625 -1422262 -1451192577 1461722838
            1460100337 -68733966 54455945 -342703385</internalNodes>
          <leafValues>
            -3.6396744847297668e-01 5.1037621498107910e-01</leafValues></_>
        <_>
          <internalNodes>
            0 -1 95 731959530 2009661520 1141131345 2051047696 68722840
            -1080393400 -1037040236 -1962788320</internalNodes>
          <leafValues>
            -4.9321815371513367e-01 4.3009871244430542e-01</leafValues></_>
        <_>
          <internalNodes>
            0 -1 103 957210092 1397821913 1094799391 285475489
            -1174353735 -1710587704 675447691 219957417</internalNodes>
          <leafValues>
            -5.3395038843154907e-01 4.0528622269630432e-01</leafValues></_>
        <_>
          <internalNodes>
            0 -1 20 -1288774566 -418799586 -804241280 471786320
            1048847478 411566508 285615730 1732492743</internalNodes>
          <leafValues>
            -6.1967664957046509e-01 3.6267548799514771e-01</leafValues></_>
        <_>
          <internalNodes>
            0 -1 177 1401886237 1310818439 1377075206 508448785
            -196367855 -1197980797 1745027243 1145000907</internalNodes>
          <leafValues>
            -4.8123377561569214e-01 4.7227200865745544e-01</leafValues></_>
        <_>
          <internalNodes>
            0 -1 110 1471903890 1537983652 587134499 1863022625
            1484005338 -635574436 103708146 -1954118651</internalNodes>
          <leafValues>
            -4.8182889819145203e-01 5.1797878742218018e-01</leafValues></_>
        <_>
          <internalNodes>
            0 -1 96 -34303334 -40096 2080165489 1560000893 786603635
            -545329619 -1871022597 -1646665360</internalNodes>
          <leafValues>
            -3.8366305828094482e-01 6.1084347963333130e-01</leafValues></_></weakClassifiers></_>
    <!-- stage 11 -->
    <_>
      <maxWeakCount>10</maxWeakCount>
      <stageThreshold>-8.7198144197463989e-01</stageThreshold>
      <weakClassifiers>
        <_>
          <internalNodes>
            0 -1 172 -1921197072 700284857 -4227091 -1343246211
            -1376881996 142273500 1038452000 147756400</internalNodes>
          <leafValues>
            -3.6521738767623901e-01 4.9824562668800354e-01</leafValues></_>
        <_>
          <internalNodes>
            0 -1 21 -135836145 799628834 -353751382 -780808492 -76282812
            1633775447 1869902903 -144214217</internalNodes>
          <leafValues>
            -3.8414275646209717e-01 4.4016039371490479e-01</leafValues></_>
        <_>
          <internalNodes>
            0 -1 81 -377387840 857460752 -1014838749 2135490576
            619210784 -777973528 1342472911 838884111</internalNodes>
          <leafValues>
            -6.3200086355209351e-01 2.9803791642189026e-01</leafValues></_>
        <_>
          <internalNodes>
            0 -1 82 -1166684801 -159382015 939993277 523444373
            -698500930 1590120584 -1335476761 -83513637</internalNodes>
          <leafValues>
            -3.0919548869132996e-01 6.3750004768371582e-01</leafValues></_>
        <_>
          <internalNodes>
            0 -1 10 -712286034 -485490414 -796917692 -113242108
            -2012569441 -1564835326 142818767 1476952463</internalNodes>
          <leafValues>
            -5.5317848920822144e-01 3.6475279927253723e-01</leafValues></_>
        <_>
          <internalNodes>
            0 -1 167 714100847 -2008989240 -1979096461 2017919360
            -1996341060 -1366540288 -1878873659 97125250</internalNodes>
          <leafValues>
            -5.1411956548690796e-01 4.0199989080429077e-01</leafValues></_>
        <_>
          <internalNodes>
            0 -1 140 -827197447 -785147632 -1623539909 1001373193
            -279446118 826998140 250890407 -1684367063</internalNodes>
          <leafValues>
            -3.5645407438278198e-01 5.9825730323791504e-01</leafValues></_>
        <_>
          <internalNodes>
            0 -1 112 -1987214998 -803929475 1912948242 1963524911
            -1711031797 -930708480 683851911 1557666020</internalNodes>
          <leafValues>
            -5.2796959877014160e-01 4.3252170085906982e-01</leafValues></_>
        <_>
          <internalNodes>
            0 -1 73 929327659 -570755659 1071362741 1842249229
            1194911651 -79767604 -1622092171 -157036627</internalNodes>
          <leafValues>
            -3.8858258724212646e-01 5.7868599891662598e-01</leafValues></_>
        <_>
          <internalNodes>
            0 -1 122 -184634898 -1043848973 -274109223 -471435273
            -1149270387 -1947239467 50262752 -1367158532</internalNodes>
          <leafValues>
            -4.0549755096435547e-01 5.5479997396469116e-01</leafValues></_></weakClassifiers></_>
    <!-- stage 12 -->
    <_>
      <maxWeakCount>10</maxWeakCount>
      <stageThreshold>-9.0616101026535034e-01</stageThreshold>
      <weakClassifiers>
        <_>
          <internalNodes>
            0 -1 18 -771734894 1235304456 79691796 -1606010874
            -129871314 -1976433888 59116691 1648390423</internalNodes>
          <leafValues>
            -5.2095806598663330e-01 4.5339652895927429e-01</leafValues></_>
        <_>
          <internalNodes>
            0 -1 131 -13638267 -241573343 -156326271 360406524
            -1109919094 -1014575610 -2043232823 -1863322401</internalNodes>
          <leafValues>
            -2.6001575589179993e-01 6.1877906322479248e-01</leafValues></_>
        <_>
          <internalNodes>
            0 -1 50 -2102139426 172869501 200531441 155051233
            -1495056904 2111695824 801667059 -813087519</internalNodes>
          <leafValues>
            -4.0222504734992981e-01 4.4676858186721802e-01</leafValues></_>
        <_>
          <internalNodes>
            0 -1 61 -1752344065 1094520816 -553691021 1407721267
            754871964 -1361154089 -1225337345 197057917</internalNodes>
          <leafValues>
            -3.2933184504508972e-01 5.8433371782302856e-01</leafValues></_>
        <_>
          <internalNodes>
            0 -1 29 1600890602 -882212228 -1427638595 1313967237
            239263433 -394401922 1682912933 -990351569</internalNodes>
          <leafValues>
            -4.3350562453269958e-01 4.6217447519302368e-01</leafValues></_>
        <_>
          <internalNodes>
            0 -1 86 -2063544164 -1634434942 -804978477 1352368241
            -1316679560 -880113152 503349691 994888460</internalNodes>
          <leafValues>
            -5.0510966777801514e-01 4.0055000782012939e-01</leafValues></_>
        <_>
          <internalNodes>
            0 -1 44 -29708883 1438781203 742162001 -1944273643
            1819983437 -1673871664 91964903 -823705329</internalNodes>
          <leafValues>
            -4.2489168047904968e-01 5.2030074596405029e-01</leafValues></_>
        <_>
          <internalNodes>
            0 -1 77 -1781227496 -258932582 33595573 1494352152
            -793754870 -2097151855 38463809 520119476</internalNodes>
          <leafValues>
            -5.6932538747787476e-01 4.0405586361885071e-01</leafValues></_>
        <_>
          <internalNodes>
            0 -1 68 -1541551920 -266632176 -2071957163 1213923377
            -1306876768 -1802358144 142717632 102498321</internalNodes>
          <leafValues>
            -6.4931821823120117e-01 3.2729357481002808e-01</leafValues></_>
        <_>
          <internalNodes>
            0 -1 139 2008529831 -1146398019 -1452930324 829371261
            -1219430982 56389228 -2051096887 -224731203</internalNodes>
          <leafValues>
            -4.0930286049842834e-01 5.7443493604660034e-01</leafValues></_></weakClassifiers></_>
    <!-- stage 13 -->
    <_>
      <maxWeakCount>10</maxWeakCount>
      <stageThreshold>-5.7382637262344360e-01</stageThreshold>
      <weakClassifiers>
        <_>
          <internalNodes>
            0 -1 11 -324878142 1216364866 37132 -2011521022 16777355
            1086333449 1358962804 553870404</internalNodes>
          <leafValues>
            -5.2795028686523438e-01 4.4600939750671387e-01</leafValues></_>
        <_>
          <internalNodes>
            0 -1 97 -245248561 -586286686 786950821 1430009109
            -1586834449 -15208606 243001145 2071658286</internalNodes>
          <leafValues>
            -3.1619772315025330e-01 5.2611041069030762e-01</leafValues></_>
        <_>
          <internalNodes>
            0 -1 169 -551820489 -1850867808 -1073823938 900578807
            -583555496 49740791 1140034957 1548744671</internalNodes>
          <leafValues>
            -3.6159324645996094e-01 5.1066517829895020e-01</leafValues></_>
        <_>
          <internalNodes>
            0 -1 46 -189020965 -786875288 -500955450 391857730
            1753914084 -257521844 1950520775 -551031105</internalNodes>
          <leafValues>
            -3.0030679702758789e-01 6.2370228767395020e-01</leafValues></_>
        <_>
          <internalNodes>
            0 -1 136 -536901161 -1410771464 1069065898 432884185
            1463185870 1341027620 45097710 -2653777</internalNodes>
          <leafValues>
            -2.6613366603851318e-01 7.1124333143234253e-01</leafValues></_>
        <_>
          <internalNodes>
            0 -1 156 -632233443 -1462640632 1090851259 1418923214
            -798803798 -2071980031 -1069514733 144300794</internalNodes>
          <leafValues>
            -5.1722192764282227e-01 3.8664579391479492e-01</leafValues></_>
        <_>
          <internalNodes>
            0 -1 25 553775122 1937835947 -1593757631 -518811616
            556269664 -2080321517 8609894 -2125503288</internalNodes>
          <leafValues>
            -5.3307682275772095e-01 4.0646845102310181e-01</leafValues></_>
        <_>
          <internalNodes>
            0 -1 59 -2092858286 88182922 -1857993705 288278601
            -2054103496 143249553 133546 1260694239</internalNodes>
          <leafValues>
            -4.8565584421157837e-01 4.6090006828308105e-01</leafValues></_>
        <_>
          <internalNodes>
            0 -1 134 -1234710289 -536939044 -18070041 379805631
            -1485668309 -306710566 -399075445 -65342403</internalNodes>
          <leafValues>
            -3.5300382971763611e-01 6.7801165580749512e-01</leafValues></_>
        <_>
          <internalNodes>
            0 -1 4 1794344894 -471600894 100663696 -729140160 1074467203
            -1073692652 1375928367 1794299590</internalNodes>
          <leafValues>
            -5.7236707210540771e-01 4.3050813674926758e-01</leafValues></_></weakClassifiers></_>
    <!-- stage 14 -->
    <_>
      <maxWeakCount>9</maxWeakCount>
      <stageThreshold>-1.1186655759811401e+00</stageThreshold>
      <weakClassifiers>
        <_>
          <internalNodes>
            0 -1 49 -1956068262 522353292 686205567 991440108 1199719630
            523001572 1783520475 -603291944</internalNodes>
          <leafValues>
            -3.0399999022483826e-01 5.0181818008422852e-01</leafValues></_>
        <_>
          <internalNodes>
            0 -1 164 337004027 358994202 33637332 454149136 -1743615686
            -935067512 402819320 1562038733</internalNodes>
          <leafValues>
            -3.9958509802818298e-01 4.0752765536308289e-01</leafValues></_>
        <_>
          <internalNodes>
            0 -1 79 -565211838 1510287636 293831509 329099415 -670584178
            -1341554677 550504 1614412494</internalNodes>
          <leafValues>
            -4.3752610683441162e-01 3.7315717339515686e-01</leafValues></_>
        <_>
          <internalNodes>
            0 -1 66 -779891730 -1995838714 52126021 1217037010 355689088
            -133529398 -1878456203 -991103591</internalNodes>
          <leafValues>
            -4.7413504123687744e-01 3.7790074944496155e-01</leafValues></_>
        <_>
          <internalNodes>
            0 -1 39 -1857656684 -742069736 579949449 -1878257320
            -1476240502 -2080309240 -2144869734 1110330889</internalNodes>
          <leafValues>
            -5.4145574569702148e-01 3.3453920483589172e-01</leafValues></_>
        <_>
          <internalNodes>
            0 -1 165 528141531 -282624755 1517960131 -1758044835
            -1791042893 -1775443471 1595139899 -13908745</internalNodes>
          <leafValues>
            -3.1839320063591003e-01 7.0601522922515869e-01</leafValues></_>
        <_>
          <internalNodes>
            0 -1 3 -334779777 -971095656 1342177672 521592979
            -1576991809 -352190459 -905922487 1244908123</internalNodes>
          <leafValues>
            -4.4699674844741821e-01 4.5907413959503174e-01</leafValues></_>
        <_>
          <internalNodes>
            0 -1 161 -1610625613 -2138657584 503535295 219749477
            2050197230 2143468941 923658491 -852615270</internalNodes>
          <leafValues>
            -3.2428807020187378e-01 6.6906160116195679e-01</leafValues></_>
        <_>
          <internalNodes>
            0 -1 15 1881393766 -805124852 6275 76550426 134595908
            1107689473 -784252360 -1233837205</internalNodes>
          <leafValues>
            -5.1319551467895508e-01 4.3101310729980469e-01</leafValues></_></weakClassifiers></_>
    <!-- stage 15 -->
    <_>
      <maxWeakCount>11</maxWeakCount>
      <stageThreshold>-6.1993467807769775e-01</stageThreshold>
      <weakClassifiers>
        <_>
          <internalNodes>
            0 -1 121 -1660761384 1030310941 -1213149455 1527790468
            -1626862358 242801948 -567448406 -1623991279</internalNodes>
          <leafValues>
            -2.5838926434516907e-01 5.5179280042648315e-01</leafValues></_>
        <_>
          <internalNodes>
            0 -1 93 -989333456 1934835789 805504409 -577679007
            -528228951 -2129493846 -1873962796 142843095</internalNodes>
          <leafValues>
            -4.2802292108535767e-01 4.0717411041259766e-01</leafValues></_>
        <_>
          <internalNodes>
            0 -1 118 722212332 -1621540840 -2076163521 -577042256
            -1958414616 -66420534 722385033 532283560</internalNodes>
          <leafValues>
            -5.6839692592620850e-01 3.3522161841392517e-01</leafValues></_>
        <_>
          <internalNodes>
            0 -1 116 -1026452344 270148742 1497383042 -717684679
            -719216502 151126080 536889480 962050798</internalNodes>
          <leafValues>
            -5.4688322544097900e-01 3.2836085557937622e-01</leafValues></_>
        <_>
          <internalNodes>
            0 -1 38 -484454186 940755522 268748186 135464336 166962
            -197623680 -2092914223 -297285069</internalNodes>
          <leafValues>
            -4.7757911682128906e-01 4.1687047481536865e-01</leafValues></_>
        <_>
          <internalNodes>
            0 -1 1 -641271651 -1995497469 1745355141 -447315619
            -360577892 2015528961 -1895136374 1987298483</internalNodes>
          <leafValues>
            -4.5193019509315491e-01 4.7743681073188782e-01</leafValues></_>
        <_>
          <internalNodes>
            0 -1 45 -655659778 1058215120 663619609 -547670551
            1877995518 1168948559 -1659107298 -351287222</internalNodes>
          <leafValues>
            -4.2275163531303406e-01 5.0746673345565796e-01</leafValues></_>
        <_>
          <internalNodes>
            0 -1 104 -1280280101 -18388231 1048507367 -241195779
            -1084563287 -1881181182 77444605 -826746655</internalNodes>
          <leafValues>
            -3.5955190658569336e-01 6.3537353277206421e-01</leafValues></_>
        <_>
          <internalNodes>
            0 -1 98 -1063871124 2051203348 679498572 -157888493
            1016086599 168333320 812790011 1419645285</internalNodes>
          <leafValues>
            -5.7298338413238525e-01 4.0498614311218262e-01</leafValues></_>
        <_>
          <internalNodes>
            0 -1 176 1968178621 -1190657663 1074386064 -100597027 557158
            545988736 160064182 994264429</internalNodes>
          <leafValues>
            -5.3568089008331299e-01 4.4295942783355713e-01</leafValues></_>
        <_>
          <internalNodes>
            0 -1 47 -1246687225 706726508 2125135375 -362594350
            -1688208454 -1149339783 133089266 -627337871</internalNodes>
          <leafValues>
            -4.2724719643592834e-01 5.4147863388061523e-01</leafValues></_></weakClassifiers></_>
    <!-- stage 16 -->
    <_>
      <maxWeakCount>10</maxWeakCount>
      <stageThreshold>-7.2459018230438232e-01</stageThreshold>
      <weakClassifiers>
        <_>
          <internalNodes>
            0 -1 126 1065883824 -612210604 520080821 257610657
            -1413853134 -553726376 947928859 202559785</internalNodes>
          <leafValues>
            -3.6444443464279175e-01 4.9043479561805725e-01</leafValues></_>
        <_>
          <internalNodes>
            0 -1 181 -403712717 -638126107 -557998536 -1898119188
            -163304044 -2144063489 -1397871220 -1057491785</internalNodes>
          <leafValues>
            -3.3300551772117615e-01 5.0637233257293701e-01</leafValues></_>
        <_>
          <internalNodes>
            0 -1 157 -855452477 1743253091 207609659 1397325383
            -1888510834 243146606 889656003 -687372898</internalNodes>
          <leafValues>
            -3.0550798773765564e-01 5.8263450860977173e-01</leafValues></_>
        <_>
          <internalNodes>
            0 -1 54 -229620128 -247391976 -1891593775 486805509
            415392395 151761976 615514848 374213013</internalNodes>
          <leafValues>
            -6.2676835060119629e-01 3.1314250826835632e-01</leafValues></_>
        <_>
          <internalNodes>
            0 -1 33 420593918 1896173584 897639840 -230883184
            -1878874101 1242284033 1413693798 -700870936</internalNodes>
          <leafValues>
            -5.1367151737213135e-01 4.2480254173278809e-01</leafValues></_>
        <_>
          <internalNodes>
            0 -1 160 -1987427951 1503248481 -788310631 1393770753
            -1601141704 -1149106101 974694511 1503578248</internalNodes>
          <leafValues>
            -5.0121015310287476e-01 3.9038139581680298e-01</leafValues></_>
        <_>
          <internalNodes>
            0 -1 14 -881873276 721584196 1073840450 -1847924139
            137314393 -1874097516 17049670 -380120572</internalNodes>
          <leafValues>
            -4.6856465935707092e-01 4.5551931858062744e-01</leafValues></_>
        <_>
          <internalNodes>
            0 -1 179 619830293 -1945959791 -2147286189 290914572
            -1744098904 -879296432 -2105321362 270557275</internalNodes>
          <leafValues>
            -5.2585065364837646e-01 4.1498005390167236e-01</leafValues></_>
        <_>
          <internalNodes>
            0 -1 107 -115641697 -100771709 588709699 -179569039
            1062058433 -1736550504 -646680585 -1157511914</internalNodes>
          <leafValues>
            -2.7876389026641846e-01 7.8700834512710571e-01</leafValues></_>
        <_>
          <internalNodes>
            0 -1 123 -1819301354 -1173536291 138019742 -1871496021
            -1826039064 1466298943 1529763503 -382215927</internalNodes>
          <leafValues>
            -4.1362810134887695e-01 5.2446174621582031e-01</leafValues></_></weakClassifiers></_>
    <!-- stage 17 -->
    <_>
      <maxWeakCount>10</maxWeakCount>
      <stageThreshold>-8.7936276197433472e-01</stageThreshold>
      <weakClassifiers>
        <_>
          <internalNodes>
            0 -1 72 388109488 -17146092 -33534720 1909217036 -1107649124
            -50233606 2066771736 -1373089980</internalNodes>
          <leafValues>
            -4.0000000596046448e-01 4.7394958138465881e-01</leafValues></_>
        <_>
          <internalNodes>
            0 -1 74 -1316403222 1099038728 454100163 809455669
            -1962845471 14221730 35815441 1471842321</internalNodes>
          <leafValues>
            -5.1002502441406250e-01 3.3043992519378662e-01</leafValues></_>
        <_>
          <internalNodes>
            0 -1 80 1358516363 715393371 -1460179451 -147513837
            -1797734678 -1754368006 1857951447 -87409200</internalNodes>
          <leafValues>
            -2.9764619469642639e-01 6.0502660274505615e-01</leafValues></_>
        <_>
          <internalNodes>
            0 -1 158 -639528542 -645753328 276824667 -610531176 145542
            -1593702264 -1072902465 1528826499</internalNodes>
          <leafValues>
            -4.4219315052032471e-01 4.1837483644485474e-01</leafValues></_>
        <_>
          <internalNodes>
            0 -1 55 -1856129123 2071297793 2012544995 -1555574827
            -1197019256 -845381936 198393591 -978335582</internalNodes>
          <leafValues>
            -3.4162208437919617e-01 6.0152769088745117e-01</leafValues></_>
        <_>
          <internalNodes>
            0 -1 17 -926358458 -499102478 -2012217258 -1073310772
            -671087526 1721893137 -2137461731 637944666</internalNodes>
          <leafValues>
            -7.1261435747146606e-01 2.8643757104873657e-01</leafValues></_>
        <_>
          <internalNodes>
            0 -1 5 2146753419 -548933821 -16873045 -884872140 -810671055
            -614828038 -157458186 -15632407</internalNodes>
          <leafValues>
            -3.6977294087409973e-01 5.6074303388595581e-01</leafValues></_>
        <_>
          <internalNodes>
            0 -1 78 -559787311 -14713694 1659566303 1493655037
            -279136116 -404292306 1994284685 -7367393</internalNodes>
          <leafValues>
            -2.7771222591400146e-01 7.7142179012298584e-01</leafValues></_>
        <_>
          <internalNodes>
            0 -1 64 -1283455884 356746448 -1991191619 1107820816
            -518511923 -104232944 -1874837341 25296949</internalNodes>
          <leafValues>
            -6.6951614618301392e-01 3.4965893626213074e-01</leafValues></_>
        <_>
          <internalNodes>
            0 -1 115 -1279659835 -306446360 1409026661 1983356783
            971029896 -689555610 2075053546 -744819873</internalNodes>
          <leafValues>
            -4.3229505419731140e-01 5.9803819656372070e-01</leafValues></_></weakClassifiers></_>
    <!-- stage 18 -->
    <_>
      <maxWeakCount>11</maxWeakCount>
      <stageThreshold>-1.1948148012161255e+00</stageThreshold>
      <weakClassifiers>
        <_>
          <internalNodes>
            0 -1 7 -1883054722 1739317322 -903939083 -813679535
            -1938196784 -997033357 -162216589 -952907801</internalNodes>
          <leafValues>
            -2.2807016968727112e-01 5.5806785821914673e-01</leafValues></_>
        <_>
          <internalNodes>
            0 -1 9 1240105054 -1727706941 142872597 -267964234
            1090654382 1797393450 1244661899 1512229719</internalNodes>
          <leafValues>
            -4.6175020933151245e-01 3.8349783420562744e-01</leafValues></_>
        <_>
          <internalNodes>
            0 -1 174 -299840286 -818938208 2041909136 1599172703
            -1668235080 -2043965848 343199903 -1957503656</internalNodes>
          <leafValues>
            -3.6673966050148010e-01 4.7855839133262634e-01</leafValues></_>
        <_>
          <internalNodes>
            0 -1 142 -1308448254 -913687865 87523466 353718537
            1233836181 411994243 571463727 278922339</internalNodes>
          <leafValues>
            -6.1716830730438232e-01 2.9398214817047119e-01</leafValues></_>
        <_>
          <internalNodes>
            0 -1 88 736779737 -100980528 1996487551 819166817
            -1494040916 -1896980583 -1482293841 -1353125889</internalNodes>
          <leafValues>
            -3.8576549291610718e-01 5.7138109207153320e-01</leafValues></_>
        <_>
          <internalNodes>
            0 -1 99 -131942426 -1785266060 -645856071 1409291520
            -402128050 -394182568 335618690 1527706060</internalNodes>
          <leafValues>
            -4.8334905505180359e-01 4.1075581312179565e-01</leafValues></_>
        <_>
          <internalNodes>
            0 -1 84 1158730334 1101099230 25710682 -1760623824 278524042
            1393329262 -1161792809 1384426015</internalNodes>
          <leafValues>
            -5.1701486110687256e-01 4.0236914157867432e-01</leafValues></_>
        <_>
          <internalNodes>
            0 -1 149 1069203043 -17949742 76568561 1136524861
            -1208999942 -1920813294 80973325 -872409652</internalNodes>
          <leafValues>
            -4.0764001011848450e-01 5.1806908845901489e-01</leafValues></_>
        <_>
          <internalNodes>
            0 -1 132 -268168030 25233520 1342493027 1057034506 738295833
            -1952314864 143302667 973818349</internalNodes>
          <leafValues>
            -5.3812468051910400e-01 4.2300206422805786e-01</leafValues></_>
        <_>
          <internalNodes>
            0 -1 125 321439833 -1365312312 -608280971 -580920235
            -1611597746 486366964 -1651532601 -1172185828</internalNodes>
          <leafValues>
            -3.9714857935905457e-01 5.5954611301422119e-01</leafValues></_>
        <_>
          <internalNodes>
            0 -1 56 -637386252 -1871736832 285344950 -267534257 31707191
            67242018 -1862094537 948274305</internalNodes>
          <leafValues>
            -5.6806153059005737e-01 3.7853246927261353e-01</leafValues></_></weakClassifiers></_>
    <!-- stage 19 -->
    <_>
      <maxWeakCount>11</maxWeakCount>
      <stageThreshold>-1.0552303791046143e+00</stageThreshold>
      <weakClassifiers>
        <_>
          <internalNodes>
            0 -1 154 -895103904 1936684595 442954108 1400337941
            -189277076 1451505295 357758839 68401541</internalNodes>
          <leafValues>
            -3.1392931938171387e-01 4.9240392446517944e-01</leafValues></_>
        <_>
          <internalNodes>
            0 -1 26 -1475679825 1501592262 -1725589483 1876466992
            285980899 553648707 555433987 1432842359</internalNodes>
          <leafValues>
            -4.3441084027290344e-01 3.8529682159423828e-01</leafValues></_>
        <_>
          <internalNodes>
            0 -1 52 1471731974 -747504927 -1639526451 1594207187
            99332829 401591704 -1177852173 -1920350653</internalNodes>
          <leafValues>
            -3.9668747782707214e-01 4.3551030755043030e-01</leafValues></_>
        <_>
          <internalNodes>
            0 -1 71 -284453665 -1309938851 -2107648911 -13553933
            -1611889957 -1684052892 -1656240641 -838118309</internalNodes>
          <leafValues>
            -2.3903064429759979e-01 7.4870067834854126e-01</leafValues></_>
        <_>
          <internalNodes>
            0 -1 145 -15471405 -171206522 1272719856 -750674706
            -1726217623 1080522583 -230215682 -551864612</internalNodes>
          <leafValues>
            -3.1529039144515991e-01 5.9523433446884155e-01</leafValues></_>
        <_>
          <internalNodes>
            0 -1 87 -1248702246 520487042 -1861713607 402670044
            -1072781157 529039418 1082689674 252239317</internalNodes>
          <leafValues>
            -5.5120307207107544e-01 3.5421690344810486e-01</leafValues></_>
        <_>
          <internalNodes>
            0 -1 101 -509360708 1452679448 -2113576431 -1165375472
            -2146827866 1881538609 -1991145145 1985937468</internalNodes>
          <leafValues>
            -5.1333093643188477e-01 3.9528560638427734e-01</leafValues></_>
        <_>
          <internalNodes>
            0 -1 83 -711820858 -182742256 1632671793 206700572
            -1576193820 1477083576 -1725685459 -1074392630</internalNodes>
          <leafValues>
            -4.7555449604988098e-01 4.6114480495452881e-01</leafValues></_>
        <_>
          <internalNodes>
            0 -1 60 84414500 -1688532731 1216729477 -1563819824
            1614288025 1887764493 1082769621 -16158081</internalNodes>
          <leafValues>
            -4.6365150809288025e-01 4.8286262154579163e-01</leafValues></_>
        <_>
          <internalNodes>
            0 -1 178 -964098300 34619520 1092714719 -1106904717
            -1046495072 1747191937 -2013224728 -1811159032</internalNodes>
          <leafValues>
            -4.4322058558464050e-01 4.9390852451324463e-01</leafValues></_>
        <_>
          <internalNodes>
            0 -1 182 -982300765 -2079094395 362039424 416429078 329129
            193724840 1403298690 -927479515</internalNodes>
          <leafValues>
            -4.8932117223739624e-01 4.5222994685173035e-01</leafValues></_></weakClassifiers></_></stages>
  <features>
    <_>
      <rect>
        0 11 15 9</rect></_>
    <_>
      <rect>
        1 0 19 13</rect></_>
    <_>
      <rect>
        1 3 16 12</rect></_>
    <_>
      <rect>
        1 4 12 11</rect></_>
    <_>
      <rect>
        1 6 16 7</rect></_>
    <_>
      <rect>
        1 6 21 10</rect></_>
    <_>
      <rect>
        1 6 26 10</rect></_>
    <_>
      <rect>
        1 9 20 9</rect></_>
    <_>
      <rect>
        1 15 26 8</rect></_>
    <_>
      <rect>
        1 19 17 6</rect></_>
    <_>
      <rect>
        2 0 25 8</rect></_>
    <_>
      <rect>
        2 1 10 7</rect></_>
    <_>
      <rect>
        2 1 13 13</rect></_>
    <_>
      <rect>
        2 5 23 10</rect></_>
    <_>
      <rect>
        2 8 8 7</rect></_>
    <_>
      <rect>
        2 11 6 8</rect></_>
    <_>
      <rect>
        2 18 16 7</rect></_>
    <_>
      <rect>
        2 22 14 6</rect></_>
    <_>
      <rect>
        3 19 16 6</rect></_>
    <_>
      <rect>
        4 0 19 7</rect></_>
    <_>
      <rect>
        5 12 18 6</rect></_>
    <_>
      <rect>
        5 18 7 4</rect></_>
    <_>
      <rect>
        7 2 6 8</rect></_>
    <_>
      <rect>
        7 8 9 5</rect></_>
    <_>
      <rect>
        7 10 15 10</rect></_>
    <_>
      <rect>
        7 10 22 7</rect></_>
    <_>
      <rect>
        8 11 8 4</rect></_>
    <_>
      <rect>
        9 10 19 7</rect></_>
    <_>
      <rect>
        10 6 19 11</rect></_>
    <_>
      <rect>
        12 9 12 7</rect></_>
    <_>
      <rect>
        12 14 14 5</rect></_>
    <_>
      <rect>
        12 14 15 7</rect></_>
    <_>
      <rect>
        13 14 7 3</rect></_>
    <_>
      <rect>
        14 10 18 9</rect></_>
    <_>
      <rect>
        16 2 17 10</rect></_>
    <_>
      <rect>
        16 10 10 5</rect></_>
    <_>
      <rect>
        16 12 13 9</rect></_>
    <_>
      <rect>
        17 11 12 5</rect></_>
    <_>
      <rect>
        17 13 11 4</rect></_>
    <_>
      <rect>
        18 4 8 6</rect></_>
    <_>
      <rect>
        18 16 11 6</rect></_>
    <_>
      <rect>
        19 10 13 4</rect></_>
    <_>
      <rect>
        19 12 12 4</rect></_>
    <_>
      <rect>
        19 19 13 6</rect></_>
    <_>
      <rect>
        20 15 10 4</rect></_>
    <_>
      <rect>
        20 16 12 5</rect></_>
    <_>
      <rect>
        20 21 6 2</rect></_>
    <_>
      <rect>
        21 9 9 3</rect></_>
    <_>
      <rect>
        21 17 10 5</rect></_>
    <_>
      <rect>
        21 19 10 4</rect></_>
    <_>
      <rect>
        22 10 9 5</rect></_>
    <_>
      <rect>
        22 10 14 5</rect></_>
    <_>
      <rect>
        22 14 11 4</rect></_>
    <_>
      <rect>
        22 16 11 5</rect></_>
    <_>
      <rect>
        23 7 11 5</rect></_>
    <_>
      <rect>
        23 14 5 3</rect></_>
    <_>
      <rect>
        23 15 10 3</rect></_>
    <_>
      <rect>
        23 16 19 6</rect></_>
    <_>
      <rect>
        23 16 19 7</rect></_>
    <_>
      <rect>
        23 19 11 4</rect></_>
    <_>
      <rect>
        23 22 8 4</rect></_>
    <_>
      <rect>
        23 28 16 4</rect></_>
    <_>
      <rect>
        24 13 11 6</rect></_>
    <_>
      <rect>
        24 24 4 1</rect></_>
    <_>
      <rect>
        25 2 9 6</rect></_>
    <_>
      <rect>
        25 9 6 3</rect></_>
    <_>
      <rect>
        25 11 17 8</rect></_>
    <_>
      <rect>
        25 13 4 2</rect></_>
    <_>
      <rect>
        25 14 6 2</rect></_>
    <_>
      <rect>
        25 15 11 4</rect></_>
    <_>
      <rect>
        25 20 9 6</rect></_>
    <_>
      <rect>
        25 21 7 2</rect></_>
    <_>
      <rect>
        27 5 13 8</rect></_>
    <_>
      <rect>
        27 9 10 5</rect></_>
    <_>
      <rect>
        27 12 9 4</rect></_>
    <_>
      <rect>
        27 14 11 3</rect></_>
    <_>
      <rect>
        27 17 4 2</rect></_>
    <_>
      <rect>
        27 21 5 2</rect></_>
    <_>
      <rect>
        27 25 7 2</rect></_>
    <_>
      <rect>
        28 3 16 9</rect></_>
    <_>
      <rect>
        28 12 9 5</rect></_>
    <_>
      <rect>
        28 13 10 5</rect></_>
    <_>
      <rect>
        28 18 7 2</rect></_>
    <_>
      <rect>
        28 18 7 3</rect></_>
    <_>
      <rect>
        28 18 9 4</rect></_>
    <_>
      <rect>
        28 19 3 1</rect></_>
    <_>
      <rect>
        28 25 5 1</rect></_>
    <_>
      <rect>
        28 27 6 2</rect></_>
    <_>
      <rect>
        28 30 5 2</rect></_>
    <_>
      <rect>
        29 12 12 5</rect></_>
    <_>
      <rect>
        29 13 7 4</rect></_>
    <_>
      <rect>
        29 13 9 4</rect></_>
    <_>
      <rect>
        29 14 11 4</rect></_>
    <_>
      <rect>
        29 21 17 6</rect></_>
    <_>
      <rect>
        30 21 6 3</rect></_>
    <_>
      <rect>
        31 6 8 3</rect></_>
    <_>
      <rect>
        31 13 7 2</rect></_>
    <_>
      <rect>
        31 13 7 3</rect></_>
    <_>
      <rect>
        31 13 7 4</rect></_>
    <_>
      <rect>
        31 13 9 3</rect></_>
    <_>
      <rect>
        31 17 6 3</rect></_>
    <_>
      <rect>
        31 17 10 5</rect></_>
    <_>
      <rect>
        31 18 5 2</rect></_>
    <_>
      <rect>
        31 29 2 1</rect></_>
    <_>
      <rect>
        32 9 5 2</rect></_>
    <_>
      <rect>
        32 10 6 3</rect></_>
    <_>
      <rect>
        32 14 7 3</rect></_>
    <_>
      <rect>
        32 21 4 1</rect></_>
    <_>
      <rect>
        32 21 4 2</rect></_>
    <_>
      <rect>
        32 21 6 2</rect></_>
    <_>
      <rect>
        32 23 4 1</rect></_>
    <_>
      <rect>
        32 26 6 1</rect></_>
    <_>
      <rect>
        33 11 5 3</rect></_>
    <_>
      <rect>
        33 15 8 4</rect></_>
    <_>
      <rect>
        33 16 3 3</rect></_>
    <_>
      <rect>
        33 16 4 2</rect></_>
    <_>
      <rect>
        33 18 3 2</rect></_>
    <_>
      <rect>
        33 23 7 4</rect></_>
    <_>
      <rect>
        33 26 3 2</rect></_>
    <_>
      <rect>
        34 6 10 6</rect></_>
    <_>
      <rect>
        34 17 2 1</rect></_>
    <_>
      <rect>
        34 17 7 5</rect></_>
    <_>
      <rect>
        34 18 3 1</rect></_>
    <_>
      <rect>
        34 19 4 2</rect></_>
    <_>
      <rect>
        34 24 4 1</rect></_>
    <_>
      <rect>
        34 24 6 2</rect></_>
    <_>
      <rect>
        34 26 4 2</rect></_>
    <_>
      <rect>
        34 26 5 2</rect></_>
    <_>
      <rect>
        34 28 3 1</rect></_>
    <_>
      <rect>
        35 14 1 1</rect></_>
    <_>
      <rect>
        35 15 2 1</rect></_>
    <_>
      <rect>
        35 18 2 1</rect></_>
    <_>
      <rect>
        35 26 2 1</rect></_>
    <_>
      <rect>
        36 11 4 1</rect></_>
    <_>
      <rect>
        36 14 7 2</rect></_>
    <_>
      <rect>
        36 16 3 3</rect></_>
    <_>
      <rect>
        36 16 3 4</rect></_>
    <_>
      <rect>
        36 18 2 1</rect></_>
    <_>
      <rect>
        36 19 2 1</rect></_>
    <_>
      <rect>
        36 20 2 1</rect></_>
    <_>
      <rect>
        36 21 8 3</rect></_>
    <_>
      <rect>
        36 25 4 1</rect></_>
    <_>
      <rect>
        37 13 5 4</rect></_>
    <_>
      <rect>
        37 17 1 2</rect></_>
    <_>
      <rect>
        37 17 2 2</rect></_>
    <_>
      <rect>
        37 18 2 1</rect></_>
    <_>
      <rect>
        37 19 2 1</rect></_>
    <_>
      <rect>
        37 20 3 2</rect></_>
    <_>
      <rect>
        37 20 6 3</rect></_>
    <_>
      <rect>
        37 21 6 2</rect></_>
    <_>
      <rect>
        37 24 3 1</rect></_>
    <_>
      <rect>
        37 24 4 1</rect></_>
    <_>
      <rect>
        37 28 5 2</rect></_>
    <_>
      <rect>
        38 2 14 12</rect></_>
    <_>
      <rect>
        38 18 2 1</rect></_>
    <_>
      <rect>
        38 19 2 2</rect></_>
    <_>
      <rect>
        38 23 12 4</rect></_>
    <_>
      <rect>
        39 18 1 1</rect></_>
    <_>
      <rect>
        39 21 4 1</rect></_>
    <_>
      <rect>
        39 25 6 4</rect></_>
    <_>
      <rect>
        39 30 2 1</rect></_>
    <_>
      <rect>
        40 18 5 3</rect></_>
    <_>
      <rect>
        40 23 4 1</rect></_>
    <_>
      <rect>
        40 23 5 2</rect></_>
    <_>
      <rect>
        40 30 2 1</rect></_>
    <_>
      <rect>
        41 25 6 2</rect></_>
    <_>
      <rect>
        41 27 4 1</rect></_>
    <_>
      <rect>
        41 29 5 3</rect></_>
    <_>
      <rect>
        42 5 7 4</rect></_>
    <_>
      <rect>
        42 14 12 7</rect></_>
    <_>
      <rect>
        43 29 3 1</rect></_>
    <_>
      <rect>
        44 9 10 6</rect></_>
    <_>
      <rect>
        44 24 9 5</rect></_>
    <_>
      <rect>
        44 26 4 2</rect></_>
    <_>
      <rect>
        47 21 3 1</rect></_>
    <_>
      <rect>
        48 21 2 2</rect></_>
    <_>
      <rect>
        49 29 1 1</rect></_>
    <_>
      <rect>
        50 3 10 9</rect></_>
    <_>
      <rect>
        50 7 6 4</rect></_>
    <_>
      <rect>
        51 0 7 7</rect></_>
    <_>
      <rect>
        51 6 9 9</rect></_>
    <_>
      <rect>
        53 11 9 7</rect></_>
    <_>
      <rect>
        56 21 7 3</rect></_></features></cascade>
</opencv_storage>
