<?xml version="1.0"?>
<opencv_storage>
<cascade>
  <stageType>BOOST</stageType>
  <featureType>LBP</featureType>
  <height>40</height>
  <width>80</width>
  <stageParams>
    <boostType>GAB</boostType>
    <minHitRate>9.9900001287460327e-01</minHitRate>
    <maxFalseAlarm>5.0000000000000000e-01</maxFalseAlarm>
    <weightTrimRate>9.4999999999999996e-01</weightTrimRate>
    <maxDepth>1</maxDepth>
    <maxWeakCount>100</maxWeakCount></stageParams>
  <featureParams>
    <maxCatCount>256</maxCatCount>
    <featSize>1</featSize></featureParams>
  <stageNum>20</stageNum>
  <stages>
    <!-- stage 0 -->
    <_>
      <maxWeakCount>3</maxWeakCount>
      <stageThreshold>-8.3075284957885742e-01</stageThreshold>
      <weakClassifiers>
        <_>
          <internalNodes>
            0 -1 49 -753872680 -788475888 285212952 -553615344
            -2147450706 -620199288 1350582408 -1694498808</internalNodes>
          <leafValues>
            -8.6075949668884277e-01 7.1758437156677246e-01</leafValues></_>
        <_>
          <internalNodes>
            0 -1 54 -645775144 -649920376 20597 419430400 -2013228918
            -1735786496 -2113896309 -1911911285</internalNodes>
          <leafValues>
            -6.4186280965805054e-01 7.0466381311416626e-01</leafValues></_>
        <_>
          <internalNodes>
            0 -1 97 -788524840 -587137008 -1862250479 -804191951
            -519911288 -2004844408 134238367 -1912397285</internalNodes>
          <leafValues>
            -6.8000680208206177e-01 6.7186945676803589e-01</leafValues></_></weakClassifiers></_>
    <!-- stage 1 -->
    <_>
      <maxWeakCount>5</maxWeakCount>
      <stageThreshold>-1.8628385066986084e+00</stageThreshold>
      <weakClassifiers>
        <_>
          <internalNodes>
            0 -1 98 -1750542148 -3076080 -1889398913 1595087129
            154186482 -1145361930 320867487 531300489</internalNodes>
          <leafValues>
            -6.1658030748367310e-01 7.4142998456954956e-01</leafValues></_>
        <_>
          <internalNodes>
            0 -1 74 270565808 135270545 1359040605 823197953 -2147450389
            -2002089854 -2013232977 144392379</internalNodes>
          <leafValues>
            -6.4006370306015015e-01 6.3171768188476562e-01</leafValues></_>
        <_>
          <internalNodes>
            0 -1 117 -1853628392 -581238764 16908561 385978880
            -2146795384 -1996488576 436770970 2063794691</internalNodes>
          <leafValues>
            -6.7074644565582275e-01 6.2326377630233765e-01</leafValues></_>
        <_>
          <internalNodes>
            0 -1 87 1347473604 -654114672 16847069 486735944 -2013232726
            -1735753728 2631727 260702227</internalNodes>
          <leafValues>
            -6.9251531362533569e-01 5.9960097074508667e-01</leafValues></_>
        <_>
          <internalNodes>
            0 -1 5 -723266593 -763330302 65885 654573585 -1828618165
            1510019074 -1878998901 2066203491</internalNodes>
          <leafValues>
            -6.0094308853149414e-01 7.0901733636856079e-01</leafValues></_></weakClassifiers></_>
    <!-- stage 2 -->
    <_>
      <maxWeakCount>5</maxWeakCount>
      <stageThreshold>-1.6907137632369995e+00</stageThreshold>
      <weakClassifiers>
        <_>
          <internalNodes>
            0 -1 122 -35662113 1565913079 -50243601 -673742881
            -942156596 75259477 1282201756 1431003</internalNodes>
          <leafValues>
            -5.1782679557800293e-01 6.9732940196990967e-01</leafValues></_>
        <_>
          <internalNodes>
            0 -1 41 -268511030 -2941952 265086161 -14349039 -276167192
            -290585908 205686239 -821326561</internalNodes>
          <leafValues>
            -4.8928725719451904e-01 7.3329937458038330e-01</leafValues></_>
        <_>
          <internalNodes>
            0 -1 15 -607399465 -787304304 1351696653 1296167252
            -117341022 1883267072 -1056931677 1393815603</internalNodes>
          <leafValues>
            -5.5504155158996582e-01 6.4882451295852661e-01</leafValues></_>
        <_>
          <internalNodes>
            0 -1 71 -780086816 -1721171823 1360265229 -652668783
            -939486564 -92274040 185207199 1242190221</internalNodes>
          <leafValues>
            -7.1472340822219849e-01 4.8668879270553589e-01</leafValues></_>
        <_>
          <internalNodes>
            0 -1 37 -721235238 -593838006 1258340689 454083120
            -1073708408 1234174088 -2146852694 -886996773</internalNodes>
          <leafValues>
            -6.5457922220230103e-01 5.8616524934768677e-01</leafValues></_></weakClassifiers></_>
    <!-- stage 3 -->
    <_>
      <maxWeakCount>8</maxWeakCount>
      <stageThreshold>-1.1051441431045532e+00</stageThreshold>
      <weakClassifiers>
        <_>
          <internalNodes>
            0 -1 121 -1140843288 -542627840 1020167667 357639568
            799542522 -1703896360 406367967 522851549</internalNodes>
          <leafValues>
            -4.9259260296821594e-01 6.2830185890197754e-01</leafValues></_>
        <_>
          <internalNodes>
            0 -1 138 -840966689 360185599 -289542401 1978630143
            1291703509 148401487 1555910686 92274431</internalNodes>
          <leafValues>
            -5.2401673793792725e-01 6.0145860910415649e-01</leafValues></_>
        <_>
          <internalNodes>
            0 -1 135 -822551376 -1154584176 -1637852679 365713425
            -2023826728 -1958551792 105431259 -1727396645</internalNodes>
          <leafValues>
            -4.1113209724426270e-01 7.5329554080963135e-01</leafValues></_>
        <_>
          <internalNodes>
            0 -1 85 -241444832 1560564048 -2063562671 1364918533
            310943882 -1174204414 -1878947442 1594294314</internalNodes>
          <leafValues>
            -7.0780616998672485e-01 4.8673254251480103e-01</leafValues></_>
        <_>
          <internalNodes>
            0 -1 1 -146017379 -321776352 18416413 486821892 -629063407
            -524255165 293644719 1931948567</internalNodes>
          <leafValues>
            -6.9756877422332764e-01 4.6979022026062012e-01</leafValues></_>
        <_>
          <internalNodes>
            0 -1 131 -234323920 -8779846 2145189118 2100903474
            -1090210680 -884708552 1044831482 -207945462</internalNodes>
          <leafValues>
            -5.0855541229248047e-01 6.6742753982543945e-01</leafValues></_>
        <_>
          <internalNodes>
            0 -1 35 -1055702318 -44760760 285278417 151060496 700575
            1527251200 705210417 -930361246</internalNodes>
          <leafValues>
            -6.2036526203155518e-01 5.9164363145828247e-01</leafValues></_>
        <_>
          <internalNodes>
            0 -1 66 -593976100 -267157440 268501017 -1718249456
            -1610506053 -131334015 -1929268854 -635926384</internalNodes>
          <leafValues>
            -5.9185433387756348e-01 6.1052304506301880e-01</leafValues></_></weakClassifiers></_>
    <!-- stage 4 -->
    <_>
      <maxWeakCount>8</maxWeakCount>
      <stageThreshold>-1.1665369272232056e+00</stageThreshold>
      <weakClassifiers>
        <_>
          <internalNodes>
            0 -1 45 -75564 -270960 -1310728 366681232 -4391368 -266241
            -1784968004 -577075030</internalNodes>
          <leafValues>
            -4.8339483141899109e-01 6.2570887804031372e-01</leafValues></_>
        <_>
          <internalNodes>
            0 -1 10 -581480065 -787422848 1140868116 1598521348
            -2147467057 -1559232480 1761813279 1464291895</internalNodes>
          <leafValues>
            -5.8489400148391724e-01 5.2893209457397461e-01</leafValues></_>
        <_>
          <internalNodes>
            0 -1 51 -267071278 -717029240 -1861712615 -989511147
            -769621522 -1983313519 -1886883346 -1886433217</internalNodes>
          <leafValues>
            -5.5706763267517090e-01 5.5860304832458496e-01</leafValues></_>
        <_>
          <internalNodes>
            0 -1 116 -519956288 -614004566 171474425 1469665304
            188644553 -1205166292 255382971 -611089253</internalNodes>
          <leafValues>
            -4.2388382554054260e-01 7.0031172037124634e-01</leafValues></_>
        <_>
          <internalNodes>
            0 -1 28 1367724184 3441808 16863357 294715668 -1467447109
            -1909293056 -402351218 33794183</internalNodes>
          <leafValues>
            -6.7578989267349243e-01 4.6036556363105774e-01</leafValues></_>
        <_>
          <internalNodes>
            0 -1 144 -143392936 1956216820 2139092983 -872415267
            -566394920 -596713644 -1372578120 -9216493</internalNodes>
          <leafValues>
            -5.2816748619079590e-01 6.1916148662567139e-01</leafValues></_>
        <_>
          <internalNodes>
            0 -1 39 -937691108 -889094128 16861464 1192169744 268475322
            1787920440 -33437165 -1911708575</internalNodes>
          <leafValues>
            -6.3602471351623535e-01 5.4017162322998047e-01</leafValues></_>
        <_>
          <internalNodes>
            0 -1 43 1231516760 -707592126 352327967 -721317885
            -1610500594 -1969160023 -1962383298 -901003186</internalNodes>
          <leafValues>
            -6.7462515830993652e-01 5.3286206722259521e-01</leafValues></_></weakClassifiers></_>
    <!-- stage 5 -->
    <_>
      <maxWeakCount>7</maxWeakCount>
      <stageThreshold>-7.1346133947372437e-01</stageThreshold>
      <weakClassifiers>
        <_>
          <internalNodes>
            0 -1 103 -1794 -1526727179 -1073807617 -704643075
            -1660945959 10085076 471726141 350223839</internalNodes>
          <leafValues>
            -4.2253521084785461e-01 6.2015503644943237e-01</leafValues></_>
        <_>
          <internalNodes>
            0 -1 40 -1052080388 1393373200 805454205 -788004776
            -2071455493 -376831950 -1979305511 -855400289</internalNodes>
          <leafValues>
            -5.5739396810531616e-01 5.4005706310272217e-01</leafValues></_>
        <_>
          <internalNodes>
            0 -1 8 -774254193 -785514486 -520027553 -137670645
            1610689105 -1676673023 176261643 2070348967</internalNodes>
          <leafValues>
            -5.5300545692443848e-01 5.1729887723922729e-01</leafValues></_>
        <_>
          <internalNodes>
            0 -1 23 -529600042 -1013937656 268501574 1703307272
            -2004737813 42107016 33589435 1078440239</internalNodes>
          <leafValues>
            -6.4046317338943481e-01 4.3887811899185181e-01</leafValues></_>
        <_>
          <internalNodes>
            0 -1 42 -71574041 -138754347 -1618341945 1602883825
            -1146568833 -2293801 -1081419899 -56700986</internalNodes>
          <leafValues>
            -4.6842628717422485e-01 6.3773435354232788e-01</leafValues></_>
        <_>
          <internalNodes>
            0 -1 52 -1212572968 -1617182836 -421634495 1401667227
            -4219160 -1093842 1721661407 -57933858</internalNodes>
          <leafValues>
            -4.8726689815521240e-01 6.3010269403457642e-01</leafValues></_>
        <_>
          <internalNodes>
            0 -1 4 -613760929 -1807294206 -2088463230 1134596672
            1367982377 838868994 1904410642 2003954451</internalNodes>
          <leafValues>
            -7.7670621871948242e-01 4.0845504403114319e-01</leafValues></_></weakClassifiers></_>
    <!-- stage 6 -->
    <_>
      <maxWeakCount>8</maxWeakCount>
      <stageThreshold>-1.2363179922103882e+00</stageThreshold>
      <weakClassifiers>
        <_>
          <internalNodes>
            0 -1 101 -1692364200 -1793458112 340813849 2001929216
            -2112829414 -914276152 -1978230598 436209792</internalNodes>
          <leafValues>
            -6.7781156301498413e-01 4.9016523361206055e-01</leafValues></_>
        <_>
          <internalNodes>
            0 -1 19 -787328929 -551812995 402692699 -308985413
            -1035909661 -2012051407 -1845456248 1932738691</internalNodes>
          <leafValues>
            -5.1473456621170044e-01 5.0852262973785400e-01</leafValues></_>
        <_>
          <internalNodes>
            0 -1 67 -6957616 2103443034 1724920577 1095851089 870550410
            -77661528 -49572215 -83165302</internalNodes>
          <leafValues>
            -4.7919964790344238e-01 5.6708079576492310e-01</leafValues></_>
        <_>
          <internalNodes>
            0 -1 84 -1208902927 -14443240 150981885 338234473 2007816280
            -605097768 -140948163 254418794</internalNodes>
          <leafValues>
            -5.0049656629562378e-01 5.6188315153121948e-01</leafValues></_>
        <_>
          <internalNodes>
            0 -1 146 -686559139 1216603525 36965 546898706 -507502272
            -2013034336 1234029098 1076085339</internalNodes>
          <leafValues>
            -5.4933714866638184e-01 4.9294197559356689e-01</leafValues></_>
        <_>
          <internalNodes>
            0 -1 14 -495269121 -989767284 1091420170 2036748038
            -1870594009 360710144 -1029242483 1733267979</internalNodes>
          <leafValues>
            -5.5598449707031250e-01 4.9837741255760193e-01</leafValues></_>
        <_>
          <internalNodes>
            0 -1 53 -586811656 -388956159 16832853 -1396600523
            -1959690156 -2134736851 -1073673834 -1899034141</internalNodes>
          <leafValues>
            -5.5917584896087646e-01 5.0739300251007080e-01</leafValues></_>
        <_>
          <internalNodes>
            0 -1 88 -667751771 -379760307 37131 359072523 -2146916865
            -242052052 688347 503847128</internalNodes>
          <leafValues>
            -6.6419595479965210e-01 4.4016987085342407e-01</leafValues></_></weakClassifiers></_>
    <!-- stage 7 -->
    <_>
      <maxWeakCount>8</maxWeakCount>
      <stageThreshold>-1.2029231786727905e+00</stageThreshold>
      <weakClassifiers>
        <_>
          <internalNodes>
            0 -1 126 -16779145 1425274876 -787931138 1644143637
            1417630928 1155757348 -991325140 1087757812</internalNodes>
          <leafValues>
            -4.9890109896659851e-01 5.4759824275970459e-01</leafValues></_>
        <_>
          <internalNodes>
            0 -1 3 -782502821 -57589696 -515788257 -443854413 1115710033
            -383713199 -402414917 1662861522</internalNodes>
          <leafValues>
            -5.2344107627868652e-01 5.0875639915466309e-01</leafValues></_>
        <_>
          <internalNodes>
            0 -1 125 -553516804 -15967116 -1371144997 1466813673
            681628858 -1098744988 151165435 -1692678949</internalNodes>
          <leafValues>
            -3.7606307864189148e-01 6.8121135234832764e-01</leafValues></_>
        <_>
          <internalNodes>
            0 -1 118 -207501304 -1149291454 -813799299 -1794470299
            -1258837776 -868237320 752258732 -2004123512</internalNodes>
          <leafValues>
            -4.8243838548660278e-01 5.4237014055252075e-01</leafValues></_>
        <_>
          <internalNodes>
            0 -1 32 -731975192 -238399406 541103569 889323536 -251420502
            -381747055 8924148 -812653112</internalNodes>
          <leafValues>
            -6.3624936342239380e-01 4.1260960698127747e-01</leafValues></_>
        <_>
          <internalNodes>
            0 -1 137 -1843900272 1896415232 1343291485 285409280
            -1054244182 -1191182144 193888442 453673113</internalNodes>
          <leafValues>
            -6.5417385101318359e-01 4.1501429677009583e-01</leafValues></_>
        <_>
          <internalNodes>
            0 -1 91 -675619640 1599987185 -1076101137 1394299655
            866679534 1065262586 229828959 -611872869</internalNodes>
          <leafValues>
            -5.1202398538589478e-01 5.7108634710311890e-01</leafValues></_>
        <_>
          <internalNodes>
            0 -1 58 772149651 445071433 1090670613 420565266 -1375551319
            -1936195572 1237178 171643273</internalNodes>
          <leafValues>
            -6.8417888879776001e-01 4.4767528772354126e-01</leafValues></_></weakClassifiers></_>
    <!-- stage 8 -->
    <_>
      <maxWeakCount>7</maxWeakCount>
      <stageThreshold>-6.1555838584899902e-01</stageThreshold>
      <weakClassifiers>
        <_>
          <internalNodes>
            0 -1 108 1015683192 -1079712744 1588334545 488862913
            -1898790184 -2102389200 204265150 520948745</internalNodes>
          <leafValues>
            -3.5548171401023865e-01 6.1523044109344482e-01</leafValues></_>
        <_>
          <internalNodes>
            0 -1 107 -1295986536 -746254528 272110463 1360756217
            -1207055224 -309702038 130024671 -1627175777</internalNodes>
          <leafValues>
            -3.3529043197631836e-01 6.8875509500503540e-01</leafValues></_>
        <_>
          <internalNodes>
            0 -1 12 -50397185 2012666619 -135545429 -1569986821
            -218106401 -235539986 -773996355 816821038</internalNodes>
          <leafValues>
            -4.7461509704589844e-01 5.3951972723007202e-01</leafValues></_>
        <_>
          <internalNodes>
            0 -1 44 -1056901416 1543754264 -2088385536 1477365778
            1242212432 545882248 161319118 -924345942</internalNodes>
          <leafValues>
            -7.5453907251358032e-01 3.2724770903587341e-01</leafValues></_>
        <_>
          <internalNodes>
            0 -1 70 -506404515 -788135935 -2138025001 -1791617343
            -805066071 -1861338454 1795214060 -1708517160</internalNodes>
          <leafValues>
            -5.6982570886611938e-01 4.8031419515609741e-01</leafValues></_>
        <_>
          <internalNodes>
            0 -1 141 21106712 -783150944 -989847395 1502675485
            -125665110 -1157603328 176203931 527110605</internalNodes>
          <leafValues>
            -5.7486242055892944e-01 4.6644440293312073e-01</leafValues></_>
        <_>
          <internalNodes>
            0 -1 148 -1043618863 -1979600637 1091108874 1079164932
            -2130640756 19792897 -670941049 32227723</internalNodes>
          <leafValues>
            -5.7709777355194092e-01 4.7901356220245361e-01</leafValues></_></weakClassifiers></_>
    <!-- stage 9 -->
    <_>
      <maxWeakCount>8</maxWeakCount>
      <stageThreshold>-5.7876968383789062e-01</stageThreshold>
      <weakClassifiers>
        <_>
          <internalNodes>
            0 -1 0 -68485313 -1360369410 -67190786 2060495102 -143169793
            -698157578 -194677893 1399019511</internalNodes>
          <leafValues>
            -3.6860671639442444e-01 5.8954501152038574e-01</leafValues></_>
        <_>
          <internalNodes>
            0 -1 124 -47058704 -49184824 -1099502347 1974498685
            -1398814586 -832013572 1568389391 -1744059285</internalNodes>
          <leafValues>
            -3.3605054020881653e-01 6.4505183696746826e-01</leafValues></_>
        <_>
          <internalNodes>
            0 -1 7 -575568384 -572663778 823181509 -1861779166
            1888559153 -100136685 1082656833 -81588125</internalNodes>
          <leafValues>
            -5.5933701992034912e-01 4.4091433286666870e-01</leafValues></_>
        <_>
          <internalNodes>
            0 -1 142 -248786831 -917943775 -670760694 1343033633 151816
            403243016 -1601584552 1151726063</internalNodes>
          <leafValues>
            -6.6483968496322632e-01 3.4883263707160950e-01</leafValues></_>
        <_>
          <internalNodes>
            0 -1 133 -251753287 2079226618 -553756835 2138910577
            -1111702344 -1978744892 519320029 -811863590</internalNodes>
          <leafValues>
            -4.1470131278038025e-01 6.8604874610900879e-01</leafValues></_>
        <_>
          <internalNodes>
            0 -1 131 -1844740094 -56136 2143059448 -49595208 1581426344
            -1979668104 -1136592136 -1222702694</internalNodes>
          <leafValues>
            -3.9548209309577942e-01 6.1561858654022217e-01</leafValues></_>
        <_>
          <internalNodes>
            0 -1 62 -105047561 -540156351 -547594619 -132923587 -2132806
            -18416786 1192103323 -568617137</internalNodes>
          <leafValues>
            -3.8240095973014832e-01 6.9231837987899780e-01</leafValues></_>
        <_>
          <internalNodes>
            0 -1 132 -1817995208 -548418144 1006301461 -316811847
            -1088513334 -1676994460 -2020416037 454706591</internalNodes>
          <leafValues>
            -4.2942675948143005e-01 6.3481640815734863e-01</leafValues></_></weakClassifiers></_>
    <!-- stage 10 -->
    <_>
      <maxWeakCount>7</maxWeakCount>
      <stageThreshold>-5.7940298318862915e-01</stageThreshold>
      <weakClassifiers>
        <_>
          <internalNodes>
            0 -1 38 -232197864 -268089264 1073905819 -972499152
            -628324265 -620429309 -1540872706 -901220076</internalNodes>
          <leafValues>
            -6.1621624231338501e-01 5.1056909561157227e-01</leafValues></_>
        <_>
          <internalNodes>
            0 -1 56 -1316929044 -723426477 33665603 -1652080555
            -1694456918 -777379766 -2105392187 -360445499</internalNodes>
          <leafValues>
            -5.8083844184875488e-01 3.9520353078842163e-01</leafValues></_>
        <_>
          <internalNodes>
            0 -1 11 2130441271 1479098127 -16846856 -75647370 -8437995
            1970700149 2102885712 -270538881</internalNodes>
          <leafValues>
            -4.3957835435867310e-01 5.9696805477142334e-01</leafValues></_>
        <_>
          <internalNodes>
            0 -1 89 -671018504 -937881199 -2130099049 -935329407
            -1340888934 -1978789422 -1827677797 974377547</internalNodes>
          <leafValues>
            -5.6428581476211548e-01 4.6653002500534058e-01</leafValues></_>
        <_>
          <internalNodes>
            0 -1 113 -217545008 -654245316 470614485 1363313101
            -1037523716 -1702204896 293634296 -1977497479</internalNodes>
          <leafValues>
            -4.8986411094665527e-01 4.9350935220718384e-01</leafValues></_>
        <_>
          <internalNodes>
            0 -1 61 -156190215 -622970424 -1887441041 -224559383
            -1610679976 -4556572 -2030021289 1866128859</internalNodes>
          <leafValues>
            -4.7193205356597900e-01 5.3019601106643677e-01</leafValues></_>
        <_>
          <internalNodes>
            0 -1 127 -131444015 -135518651 -1346961673 -679956515
            -42170416 -35430412 974400981 -653867823</internalNodes>
          <leafValues>
            -4.0691927075386047e-01 6.4881277084350586e-01</leafValues></_></weakClassifiers></_>
    <!-- stage 11 -->
    <_>
      <maxWeakCount>9</maxWeakCount>
      <stageThreshold>-7.2869014739990234e-01</stageThreshold>
      <weakClassifiers>
        <_>
          <internalNodes>
            0 -1 96 703249653 -739631880 -967462141 1931230632
            -1141180206 -69650 154977524 1562119340</internalNodes>
          <leafValues>
            -4.6351930499076843e-01 5.4320985078811646e-01</leafValues></_>
        <_>
          <internalNodes>
            0 -1 13 -266349994 1078366211 -2147434488 -175259305
            -2142807782 -1610596287 -1038065053 1866689365</internalNodes>
          <leafValues>
            -5.2038717269897461e-01 4.1812166571617126e-01</leafValues></_>
        <_>
          <internalNodes>
            0 -1 92 -142114152 1495142535 268534805 -31915963 -91555830
            1814127018 -1073566695 -703882469</internalNodes>
          <leafValues>
            -5.2116149663925171e-01 4.2505186796188354e-01</leafValues></_>
        <_>
          <internalNodes>
            0 -1 109 88621208 1901494288 285741169 1536753684
            -2129878564 -1458499581 -1602188375 186269881</internalNodes>
          <leafValues>
            -5.9367883205413818e-01 4.0265485644340515e-01</leafValues></_>
        <_>
          <internalNodes>
            0 -1 102 -1915534703 -1223572968 -1794943677 1459863562
            440647864 -298704888 321700091 9112584</internalNodes>
          <leafValues>
            -5.7702052593231201e-01 3.8252693414688110e-01</leafValues></_>
        <_>
          <internalNodes>
            0 -1 105 -105547463 -608972696 -16784195 1466077085
            -553715526 -1684079108 1552861278 -10924917</internalNodes>
          <leafValues>
            -4.3806543946266174e-01 6.4219069480895996e-01</leafValues></_>
        <_>
          <internalNodes>
            0 -1 57 -787875756 -2130456304 536920338 1292014960
            -1308582202 302514962 -1861893706 1504942746</internalNodes>
          <leafValues>
            -5.4893964529037476e-01 4.9054217338562012e-01</leafValues></_>
        <_>
          <internalNodes>
            0 -1 2 -742408109 1113069768 1082140702 -1211723058
            -1874261912 -2046803678 654451740 -93363649</internalNodes>
          <leafValues>
            -5.0062000751495361e-01 5.1792562007904053e-01</leafValues></_>
        <_>
          <internalNodes>
            0 -1 119 -139857416 -1079039257 587090616 -170836365
            717154942 -890243220 1089008892 -1148464708</internalNodes>
          <leafValues>
            -4.0590104460716248e-01 6.4003366231918335e-01</leafValues></_></weakClassifiers></_>
    <!-- stage 12 -->
    <_>
      <maxWeakCount>8</maxWeakCount>
      <stageThreshold>-1.2100365161895752e+00</stageThreshold>
      <weakClassifiers>
        <_>
          <internalNodes>
            0 -1 145 -705696281 1165062141 -50729106 1085468620
            -1661110976 83197436 -1311583156 1089730015</internalNodes>
          <leafValues>
            -4.1949152946472168e-01 5.3014183044433594e-01</leafValues></_>
        <_>
          <internalNodes>
            0 -1 34 -822555461 -709121356 -1638859555 1345855260
            -1316428546 -808944404 -1924596517 -1891897970</internalNodes>
          <leafValues>
            -3.7898802757263184e-01 5.6393891572952271e-01</leafValues></_>
        <_>
          <internalNodes>
            0 -1 33 -250419492 -786169856 470931537 1661042965 -49632765
            1451461288 137954870 1275838955</internalNodes>
          <leafValues>
            -5.1041215658187866e-01 4.2191177606582642e-01</leafValues></_>
        <_>
          <internalNodes>
            0 -1 95 -985418824 -754939698 -1342152683 -1291747291
            680038826 -1290229616 -897552161 -184295926</internalNodes>
          <leafValues>
            -4.8175114393234253e-01 4.8437508940696716e-01</leafValues></_>
        <_>
          <internalNodes>
            0 -1 139 -1861601881 -2096395990 -1341194236 1141379909
            -2127840340 -1801198928 -1037014847 210694591</internalNodes>
          <leafValues>
            -6.3362771272659302e-01 3.5991445183753967e-01</leafValues></_>
        <_>
          <internalNodes>
            0 -1 110 126502928 2105688236 318861781 327484428 -905913672
            -1996479872 -1988044655 520637064</internalNodes>
          <leafValues>
            -6.7976129055023193e-01 3.7399533390998840e-01</leafValues></_>
        <_>
          <internalNodes>
            0 -1 63 -1857661974 387780880 -805121831 -1891041260
            -914280021 672156184 454723 -233715570</internalNodes>
          <leafValues>
            -5.9692239761352539e-01 4.0525281429290771e-01</leafValues></_>
        <_>
          <internalNodes>
            0 -1 93 -600777255 -882648991 -625154587 2073345468
            -893461260 1274991082 727274751 -1615168403</internalNodes>
          <leafValues>
            -4.5539915561676025e-01 5.9757006168365479e-01</leafValues></_></weakClassifiers></_>
    <!-- stage 13 -->
    <_>
      <maxWeakCount>8</maxWeakCount>
      <stageThreshold>-6.2611991167068481e-01</stageThreshold>
      <weakClassifiers>
        <_>
          <internalNodes>
            0 -1 77 554696912 -183827984 -2046802730 196673 -1458917190
            -1114070896 -1956507292 523911256</internalNodes>
          <leafValues>
            -6.5432101488113403e-01 4.7962382435798645e-01</leafValues></_>
        <_>
          <internalNodes>
            0 -1 115 1359346577 1363349815 -2147384368 -787939069
            -1842288165 -2137480576 1758040487 76391103</internalNodes>
          <leafValues>
            -4.6728092432022095e-01 4.2979806661605835e-01</leafValues></_>
        <_>
          <internalNodes>
            0 -1 26 -259992454 -1929313920 -2063495127 54600017
            -1878648318 25396002 -1753149070 -963982717</internalNodes>
          <leafValues>
            -5.5565935373306274e-01 4.3531730771064758e-01</leafValues></_>
        <_>
          <internalNodes>
            0 -1 76 1933234630 -199949934 -2147252477 1351828616
            -2147294830 -89112440 -1971265033 386957720</internalNodes>
          <leafValues>
            -6.6400939226150513e-01 3.2387915253639221e-01</leafValues></_>
        <_>
          <internalNodes>
            0 -1 64 -357804391 -541103064 -620831241 1909023995
            -1523701956 -867444146 209511929 2034779293</internalNodes>
          <leafValues>
            -4.5821997523307800e-01 5.0840681791305542e-01</leafValues></_>
        <_>
          <internalNodes>
            0 -1 134 -514670288 -1877634556 285233309 1300696193
            -1576281893 -1956532200 -1727512166 -1727113128</internalNodes>
          <leafValues>
            -5.0352740287780762e-01 4.6508118510246277e-01</leafValues></_>
        <_>
          <internalNodes>
            0 -1 20 1443287643 360743104 16810200 -800947648 -2147020626
            -1184823270 272385 1851227491</internalNodes>
          <leafValues>
            -5.8112746477127075e-01 4.0864473581314087e-01</leafValues></_>
        <_>
          <internalNodes>
            0 -1 47 -745045520 -712826664 1225982036 823395093
            -200972200 1095303225 466688817 -943201715</internalNodes>
          <leafValues>
            -5.8532273769378662e-01 4.1094326972961426e-01</leafValues></_></weakClassifiers></_>
    <!-- stage 14 -->
    <_>
      <maxWeakCount>9</maxWeakCount>
      <stageThreshold>-6.5602439641952515e-01</stageThreshold>
      <weakClassifiers>
        <_>
          <internalNodes>
            0 -1 78 -1127361192 -100671492 -1610625827 -587597456
            -1191195444 1557003502 232390792 -641738696</internalNodes>
          <leafValues>
            -3.0730050802230835e-01 5.7467854022979736e-01</leafValues></_>
        <_>
          <internalNodes>
            0 -1 73 861919657 87299618 1073891409 -1993797376 -477464132
            -2138402407 -604178037 138139770</internalNodes>
          <leafValues>
            -5.2449208498001099e-01 4.1630232334136963e-01</leafValues></_>
        <_>
          <internalNodes>
            0 -1 29 -787678466 943461378 -2128558975 144228406
            -804749093 1095458882 -1199381701 -877964664</internalNodes>
          <leafValues>
            -4.9880611896514893e-01 4.1133520007133484e-01</leafValues></_>
        <_>
          <internalNodes>
            0 -1 50 -1330228242 -670072739 -1802430811 -2147395303
            1361586687 1650590208 -2130046581 -626112395</internalNodes>
          <leafValues>
            -4.8699715733528137e-01 4.5628705620765686e-01</leafValues></_>
        <_>
          <internalNodes>
            0 -1 22 -134517153 -803137 -20972594 1001569738 2004100897
            -143231690 -868406 -8919181</internalNodes>
          <leafValues>
            -3.9718043804168701e-01 5.5727940797805786e-01</leafValues></_>
        <_>
          <internalNodes>
            0 -1 31 269058730 -218037100 -536839971 -1585282991
            193464658 562143520 168987107 252690539</internalNodes>
          <leafValues>
            -6.2260699272155762e-01 3.7909737229347229e-01</leafValues></_>
        <_>
          <internalNodes>
            0 -1 130 -2041433992 -1069194208 5275869 -1657700328
            -2084508952 -921165632 134262950 453757080</internalNodes>
          <leafValues>
            -5.9406882524490356e-01 4.2893308401107788e-01</leafValues></_>
        <_>
          <internalNodes>
            0 -1 140 -244395783 -95022356 591263737 -1772722204
            -269355024 -234946563 -1904934948 -585628180</internalNodes>
          <leafValues>
            -4.4695043563842773e-01 5.6233590841293335e-01</leafValues></_>
        <_>
          <internalNodes>
            0 -1 111 -116334526 1493238770 287342678 889389072
            -1568561340 -1602219891 -460282802 1333979269</internalNodes>
          <leafValues>
            -5.8073294162750244e-01 4.4074234366416931e-01</leafValues></_></weakClassifiers></_>
    <!-- stage 15 -->
    <_>
      <maxWeakCount>10</maxWeakCount>
      <stageThreshold>-8.4726148843765259e-01</stageThreshold>
      <weakClassifiers>
        <_>
          <internalNodes>
            0 -1 16 -353177606 -115284434 -1074164514 -773656639
            -145392801 -1770914951 1987177396 1394632023</internalNodes>
          <leafValues>
            -4.3310657143592834e-01 5.0992232561111450e-01</leafValues></_>
        <_>
          <internalNodes>
            0 -1 150 -100668949 -2102657411 -352325823 1081704297
            -706503251 -2007118212 1822366906 -889200897</internalNodes>
          <leafValues>
            -3.1393632292747498e-01 6.0610705614089966e-01</leafValues></_>
        <_>
          <internalNodes>
            0 -1 123 -634225350 -205820270 -1892721124 -144273614
            -1679630658 -951119873 93527580 -1685468947</internalNodes>
          <leafValues>
            -4.0022447705268860e-01 5.3679800033569336e-01</leafValues></_>
        <_>
          <internalNodes>
            0 -1 72 -787903642 1630867852 -1319827325 -770207477 24199
            1969979601 420622481 1259015055</internalNodes>
          <leafValues>
            -5.3702414035797119e-01 4.1189983487129211e-01</leafValues></_>
        <_>
          <internalNodes>
            0 -1 104 -690831286 1935966317 -1072691577 1485389841
            -2141550440 -897408888 -1073639109 -832691361</internalNodes>
          <leafValues>
            -4.9885588884353638e-01 4.7259333729743958e-01</leafValues></_>
        <_>
          <internalNodes>
            0 -1 36 1408915738 -1286574388 402903316 277889366
            -795049848 -1307737970 -2134638439 219285642</internalNodes>
          <leafValues>
            -7.2889918088912964e-01 2.9683977365493774e-01</leafValues></_>
        <_>
          <internalNodes>
            0 -1 65 -462236449 2104740220 -491061799 2132900977
            -1375959389 -72026372 -621789837 819647576</internalNodes>
          <leafValues>
            -4.4804492592811584e-01 5.2495044469833374e-01</leafValues></_>
        <_>
          <internalNodes>
            0 -1 86 -318383653 -537003646 1073698933 2063187928
            306090835 -1650554248 -2010431491 -1948527338</internalNodes>
          <leafValues>
            -3.6669790744781494e-01 6.6250842809677124e-01</leafValues></_>
        <_>
          <internalNodes>
            0 -1 24 -822677522 -1644237060 -67121153 -33804546 -50413697
            -404455426 -1057294340 -866687237</internalNodes>
          <leafValues>
            -4.7570100426673889e-01 5.2937173843383789e-01</leafValues></_>
        <_>
          <internalNodes>
            0 -1 81 -236948535 1074987136 -2113911833 277950481
            134887679 -171879495 145520635 -1249261214</internalNodes>
          <leafValues>
            -4.6926704049110413e-01 5.4797148704528809e-01</leafValues></_></weakClassifiers></_>
    <!-- stage 16 -->
    <_>
      <maxWeakCount>8</maxWeakCount>
      <stageThreshold>-6.9502198696136475e-01</stageThreshold>
      <weakClassifiers>
        <_>
          <internalNodes>
            0 -1 99 -1828694676 -1323167467 5330195 272175328 293605491
            1423120513 159384746 251723792</internalNodes>
          <leafValues>
            -6.0264903306961060e-01 4.4838213920593262e-01</leafValues></_>
        <_>
          <internalNodes>
            0 -1 18 -793750179 -1617489698 1359020176 -729570942
            -939482963 1920166660 -401964630 1730411703</internalNodes>
          <leafValues>
            -4.7528702020645142e-01 4.1554889082908630e-01</leafValues></_>
        <_>
          <internalNodes>
            0 -1 147 -16125036 1611726978 1090519315 -791674866
            1359052972 205521033 -233133178 14155198</internalNodes>
          <leafValues>
            -4.8192012310028076e-01 4.6069261431694031e-01</leafValues></_>
        <_>
          <internalNodes>
            0 -1 21 -752430898 1988233226 150999064 -1986919422
            -257247607 1746012304 25338027 1199816861</internalNodes>
          <leafValues>
            -5.8138710260391235e-01 3.3987474441528320e-01</leafValues></_>
        <_>
          <internalNodes>
            0 -1 82 1360380030 -260030456 142610608 -667942911
            -1593198487 -1408759798 285229217 -568342375</internalNodes>
          <leafValues>
            -4.8104366660118103e-01 4.3097618222236633e-01</leafValues></_>
        <_>
          <internalNodes>
            0 -1 143 -1962355816 -788151280 -1862236839 1494286357
            -1878416694 -1715470200 1897150 1269170593</internalNodes>
          <leafValues>
            -5.6097906827926636e-01 3.9905112981796265e-01</leafValues></_>
        <_>
          <internalNodes>
            0 -1 27 823608362 1217455774 1183994268 822755335
            -2146762662 -2038298552 -486006373 -2070249462</internalNodes>
          <leafValues>
            -6.1649501323699951e-01 3.8230732083320618e-01</leafValues></_>
        <_>
          <internalNodes>
            0 -1 60 577943009 -1271873279 1443955205 -1060039291
            322019807 -2146926572 -1651241182 -1165458992</internalNodes>
          <leafValues>
            -5.7940876483917236e-01 4.0665951371192932e-01</leafValues></_></weakClassifiers></_>
    <!-- stage 17 -->
    <_>
      <maxWeakCount>9</maxWeakCount>
      <stageThreshold>-7.8905218839645386e-01</stageThreshold>
      <weakClassifiers>
        <_>
          <internalNodes>
            0 -1 9 -1024793601 -1415384078 -275537 801812082 1667384559
            74643058 -176160793 1180923255</internalNodes>
          <leafValues>
            -4.0388768911361694e-01 5.1627087593078613e-01</leafValues></_>
        <_>
          <internalNodes>
            0 -1 55 -2029260419 962543638 1393570146 -511376995
            -2147397490 -1535114483 -1466721157 149801090</internalNodes>
          <leafValues>
            -4.6671536564826965e-01 4.0494152903556824e-01</leafValues></_>
        <_>
          <internalNodes>
            0 -1 80 -318605188 -669873516 604065813 -91750128
            -1600254957 -1375072118 587466840 -670166964</internalNodes>
          <leafValues>
            -5.9737658500671387e-01 3.3228224515914917e-01</leafValues></_>
        <_>
          <internalNodes>
            0 -1 25 -1973488922 -251423616 814306096 -824639278
            -2095050409 -1710092288 329281833 1237926343</internalNodes>
          <leafValues>
            -5.5838429927825928e-01 3.8794389367103577e-01</leafValues></_>
        <_>
          <internalNodes>
            0 -1 94 411046392 -792635303 16934330 1980789008 -1743076808
            -1425371070 -2079830360 1594604750</internalNodes>
          <leafValues>
            -6.2024194002151489e-01 3.4183746576309204e-01</leafValues></_>
        <_>
          <internalNodes>
            0 -1 149 -1359223401 -2035482741 -290783361 -1381849134
            -2015082516 1505664895 2105213435 -1109666563</internalNodes>
          <leafValues>
            -4.0227037668228149e-01 5.6473648548126221e-01</leafValues></_>
        <_>
          <internalNodes>
            0 -1 100 -1087786305 -285648552 -1954564497 1991318875
            -1299193626 -1433526643 -1365707521 -1680686779</internalNodes>
          <leafValues>
            -3.7567985057830811e-01 6.3041657209396362e-01</leafValues></_>
        <_>
          <internalNodes>
            0 -1 106 -1500015976 8389121 -1005891983 419497997
            2021980800 797245580 1904482553 -1993398241</internalNodes>
          <leafValues>
            -5.4887968301773071e-01 4.3946850299835205e-01</leafValues></_>
        <_>
          <internalNodes>
            0 -1 69 4391080 -40746982 -2129641447 2097880139 419684750
            -1551876096 142666650 -1694302072</internalNodes>
          <leafValues>
            -5.1583945751190186e-01 4.7222703695297241e-01</leafValues></_></weakClassifiers></_>
    <!-- stage 18 -->
    <_>
      <maxWeakCount>9</maxWeakCount>
      <stageThreshold>-6.8649142980575562e-01</stageThreshold>
      <weakClassifiers>
        <_>
          <internalNodes>
            0 -1 59 -630710008 -797958128 1745879503 83902881 1653107033
            -1607720789 -1869978936 -2012468468</internalNodes>
          <leafValues>
            -6.3066202402114868e-01 4.4249808788299561e-01</leafValues></_>
        <_>
          <internalNodes>
            0 -1 129 -207923112 -352128992 -1939097933 1498796429
            -1101334352 -1901313904 -1676635749 -1156852643</internalNodes>
          <leafValues>
            -3.5241073369979858e-01 5.2504032850265503e-01</leafValues></_>
        <_>
          <internalNodes>
            0 -1 79 -82817540 -1055947664 1073742193 -1187413975
            -988258288 -1031634304 -1467334004 -1258159072</internalNodes>
          <leafValues>
            -5.7624489068984985e-01 3.9151751995086670e-01</leafValues></_>
        <_>
          <internalNodes>
            0 -1 128 -248743728 -171759380 343587383 1937464377
            -970337142 -1689510144 -1743603521 -878977473</internalNodes>
          <leafValues>
            -3.7416878342628479e-01 5.9321433305740356e-01</leafValues></_>
        <_>
          <internalNodes>
            0 -1 151 -696818729 -963313520 591433780 -2011653433
            -1040052838 1805156801 -1072777076 -1068506141</internalNodes>
          <leafValues>
            -4.5269322395324707e-01 4.9808296561241150e-01</leafValues></_>
        <_>
          <internalNodes>
            0 -1 90 -2078725548 1511915792 -1022061179 457658521
            -1001316230 -972414782 -511009889 2030797595</internalNodes>
          <leafValues>
            -5.3353983163833618e-01 4.2440453171730042e-01</leafValues></_>
        <_>
          <internalNodes>
            0 -1 30 -1685088904 -268472255 1558131165 1554283723
            1063036753 -1118425 -1351684281 -973345410</internalNodes>
          <leafValues>
            -4.2010259628295898e-01 5.6939989328384399e-01</leafValues></_>
        <_>
          <internalNodes>
            0 -1 75 -752213376 1519845376 -2059071422 822214820
            1214447728 1949171872 1619530549 -187561894</internalNodes>
          <leafValues>
            -6.6415995359420776e-01 3.4855243563652039e-01</leafValues></_>
        <_>
          <internalNodes>
            0 -1 46 1351275736 -720949120 1352687765 -636338088
            -402597558 -1180168191 -2139061304 280643736</internalNodes>
          <leafValues>
            -5.9038549661636353e-01 4.0904131531715393e-01</leafValues></_></weakClassifiers></_>
    <!-- stage 19 -->
    <_>
      <maxWeakCount>10</maxWeakCount>
      <stageThreshold>-9.3845367431640625e-01</stageThreshold>
      <weakClassifiers>
        <_>
          <internalNodes>
            0 -1 17 -537498453 -269439109 2079780330 -1832911262
            -562661583 -143638667 -1212745858 1197962022</internalNodes>
          <leafValues>
            -3.5641548037528992e-01 5.1848512887954712e-01</leafValues></_>
        <_>
          <internalNodes>
            0 -1 114 2107233488 -7119911 171670385 1431772629 1336721150
            -7447213 438197675 -1154234895</internalNodes>
          <leafValues>
            -3.5249930620193481e-01 4.9099826812744141e-01</leafValues></_>
        <_>
          <internalNodes>
            0 -1 112 -23358115 -1791242144 788176318 2045238578
            -1498840454 -104960130 -1650590085 -12733189</internalNodes>
          <leafValues>
            -2.8831034898757935e-01 6.3656848669052124e-01</leafValues></_>
        <_>
          <internalNodes>
            0 -1 136 -1503900938 184897728 1292980497 1494246465
            -2127454068 -913145208 34134691 1477366464</internalNodes>
          <leafValues>
            -5.6926900148391724e-01 3.4219318628311157e-01</leafValues></_>
        <_>
          <internalNodes>
            0 -1 68 1372737678 -654245567 272662618 -517599161
            -767442850 -1525809147 -1498690382 143020547</internalNodes>
          <leafValues>
            -5.5068778991699219e-01 4.0748655796051025e-01</leafValues></_>
        <_>
          <internalNodes>
            0 -1 152 -267924905 1261154833 1094724053 1154621824
            -754694014 -109051893 -1608443364 -420820209</internalNodes>
          <leafValues>
            -4.5414179563522339e-01 4.8887839913368225e-01</leafValues></_>
        <_>
          <internalNodes>
            0 -1 120 -206898984 -108307855 455299484 457719776 -22086006
            -952074827 239464954 -1694132068</internalNodes>
          <leafValues>
            -4.1681641340255737e-01 5.3853040933609009e-01</leafValues></_>
        <_>
          <internalNodes>
            0 -1 6 -569305622 1656914947 4260672 -846428080 -1607792519
            1409417218 671334624 -986242249</internalNodes>
          <leafValues>
            -5.9969335794448853e-01 4.4479358196258545e-01</leafValues></_>
        <_>
          <internalNodes>
            0 -1 48 -13656482 1593421816 -1929396489 805924021
            -1100483347 -424673282 1870529781 -272009231</internalNodes>
          <leafValues>
            -4.8076504468917847e-01 5.1829332113265991e-01</leafValues></_>
        <_>
          <internalNodes>
            0 -1 83 456135905 -706203264 270893656 1381306781
            -1836883012 -2109554663 -1841088769 -382041606</internalNodes>
          <leafValues>
            -4.5506232976913452e-01 5.4371958971023560e-01</leafValues></_></weakClassifiers></_></stages>
  <features>
    <_>
      <rect>
        0 4 14 7</rect></_>
    <_>
      <rect>
        0 10 14 8</rect></_>
    <_>
      <rect>
        1 13 10 8</rect></_>
    <_>
      <rect>
        1 22 20 6</rect></_>
    <_>
      <rect>
        3 11 11 7</rect></_>
    <_>
      <rect>
        3 11 13 9</rect></_>
    <_>
      <rect>
        3 12 9 4</rect></_>
    <_>
      <rect>
        3 29 11 3</rect></_>
    <_>
      <rect>
        4 25 13 4</rect></_>
    <_>
      <rect>
        5 7 11 6</rect></_>
    <_>
      <rect>
        5 9 10 10</rect></_>
    <_>
      <rect>
        5 15 5 4</rect></_>
    <_>
      <rect>
        5 18 25 7</rect></_>
    <_>
      <rect>
        6 7 6 10</rect></_>
    <_>
      <rect>
        7 7 10 7</rect></_>
    <_>
      <rect>
        7 9 10 9</rect></_>
    <_>
      <rect>
        8 3 7 10</rect></_>
    <_>
      <rect>
        8 19 8 5</rect></_>
    <_>
      <rect>
        8 19 11 6</rect></_>
    <_>
      <rect>
        8 21 13 5</rect></_>
    <_>
      <rect>
        9 6 6 11</rect></_>
    <_>
      <rect>
        9 6 13 5</rect></_>
    <_>
      <rect>
        9 22 6 3</rect></_>
    <_>
      <rect>
        12 9 8 4</rect></_>
    <_>
      <rect>
        15 3 10 8</rect></_>
    <_>
      <rect>
        15 15 12 4</rect></_>
    <_>
      <rect>
        16 16 13 3</rect></_>
    <_>
      <rect>
        16 17 11 5</rect></_>
    <_>
      <rect>
        16 25 20 5</rect></_>
    <_>
      <rect>
        17 6 9 5</rect></_>
    <_>
      <rect>
        18 12 13 4</rect></_>
    <_>
      <rect>
        18 19 12 3</rect></_>
    <_>
      <rect>
        19 6 14 6</rect></_>
    <_>
      <rect>
        19 17 10 3</rect></_>
    <_>
      <rect>
        19 22 9 3</rect></_>
    <_>
      <rect>
        20 12 11 4</rect></_>
    <_>
      <rect>
        20 19 9 6</rect></_>
    <_>
      <rect>
        20 20 10 4</rect></_>
    <_>
      <rect>
        21 6 10 9</rect></_>
    <_>
      <rect>
        21 13 9 4</rect></_>
    <_>
      <rect>
        21 18 10 4</rect></_>
    <_>
      <rect>
        21 18 11 3</rect></_>
    <_>
      <rect>
        22 9 12 6</rect></_>
    <_>
      <rect>
        22 16 11 5</rect></_>
    <_>
      <rect>
        22 17 15 6</rect></_>
    <_>
      <rect>
        23 15 12 7</rect></_>
    <_>
      <rect>
        23 25 2 1</rect></_>
    <_>
      <rect>
        24 4 14 7</rect></_>
    <_>
      <rect>
        24 12 6 3</rect></_>
    <_>
      <rect>
        24 13 11 7</rect></_>
    <_>
      <rect>
        25 12 10 4</rect></_>
    <_>
      <rect>
        25 15 8 4</rect></_>
    <_>
      <rect>
        25 15 12 3</rect></_>
    <_>
      <rect>
        25 16 7 3</rect></_>
    <_>
      <rect>
        25 19 8 4</rect></_>
    <_>
      <rect>
        25 21 16 6</rect></_>
    <_>
      <rect>
        26 11 10 5</rect></_>
    <_>
      <rect>
        26 13 10 9</rect></_>
    <_>
      <rect>
        26 28 11 4</rect></_>
    <_>
      <rect>
        27 8 10 7</rect></_>
    <_>
      <rect>
        27 9 9 6</rect></_>
    <_>
      <rect>
        27 15 9 3</rect></_>
    <_>
      <rect>
        27 16 10 3</rect></_>
    <_>
      <rect>
        27 17 8 4</rect></_>
    <_>
      <rect>
        27 28 4 1</rect></_>
    <_>
      <rect>
        27 29 2 1</rect></_>
    <_>
      <rect>
        28 10 6 3</rect></_>
    <_>
      <rect>
        28 16 12 4</rect></_>
    <_>
      <rect>
        28 22 15 6</rect></_>
    <_>
      <rect>
        28 30 5 3</rect></_>
    <_>
      <rect>
        29 7 7 5</rect></_>
    <_>
      <rect>
        29 14 9 4</rect></_>
    <_>
      <rect>
        29 16 8 4</rect></_>
    <_>
      <rect>
        29 21 17 6</rect></_>
    <_>
      <rect>
        29 27 14 4</rect></_>
    <_>
      <rect>
        30 2 11 5</rect></_>
    <_>
      <rect>
        30 13 7 4</rect></_>
    <_>
      <rect>
        30 15 6 3</rect></_>
    <_>
      <rect>
        30 18 12 6</rect></_>
    <_>
      <rect>
        31 6 5 5</rect></_>
    <_>
      <rect>
        31 7 7 4</rect></_>
    <_>
      <rect>
        31 13 7 4</rect></_>
    <_>
      <rect>
        31 16 4 1</rect></_>
    <_>
      <rect>
        31 16 7 2</rect></_>
    <_>
      <rect>
        31 17 6 2</rect></_>
    <_>
      <rect>
        31 18 9 3</rect></_>
    <_>
      <rect>
        31 20 5 2</rect></_>
    <_>
      <rect>
        31 20 6 3</rect></_>
    <_>
      <rect>
        32 10 7 5</rect></_>
    <_>
      <rect>
        32 15 8 4</rect></_>
    <_>
      <rect>
        32 15 8 5</rect></_>
    <_>
      <rect>
        32 16 6 4</rect></_>
    <_>
      <rect>
        32 16 10 4</rect></_>
    <_>
      <rect>
        32 17 6 2</rect></_>
    <_>
      <rect>
        32 18 6 2</rect></_>
    <_>
      <rect>
        32 18 10 3</rect></_>
    <_>
      <rect>
        33 11 6 4</rect></_>
    <_>
      <rect>
        33 15 7 4</rect></_>
    <_>
      <rect>
        33 17 5 3</rect></_>
    <_>
      <rect>
        33 17 5 4</rect></_>
    <_>
      <rect>
        33 19 6 2</rect></_>
    <_>
      <rect>
        33 23 6 4</rect></_>
    <_>
      <rect>
        33 26 9 4</rect></_>
    <_>
      <rect>
        34 15 14 7</rect></_>
    <_>
      <rect>
        34 16 8 3</rect></_>
    <_>
      <rect>
        34 17 5 2</rect></_>
    <_>
      <rect>
        34 17 8 3</rect></_>
    <_>
      <rect>
        34 23 4 1</rect></_>
    <_>
      <rect>
        34 27 3 1</rect></_>
    <_>
      <rect>
        34 28 2 1</rect></_>
    <_>
      <rect>
        34 28 4 2</rect></_>
    <_>
      <rect>
        35 18 4 1</rect></_>
    <_>
      <rect>
        35 18 4 2</rect></_>
    <_>
      <rect>
        35 20 2 1</rect></_>
    <_>
      <rect>
        35 21 5 2</rect></_>
    <_>
      <rect>
        35 22 13 3</rect></_>
    <_>
      <rect>
        35 24 2 1</rect></_>
    <_>
      <rect>
        36 16 7 4</rect></_>
    <_>
      <rect>
        36 18 2 1</rect></_>
    <_>
      <rect>
        36 19 3 1</rect></_>
    <_>
      <rect>
        36 21 3 1</rect></_>
    <_>
      <rect>
        36 26 2 1</rect></_>
    <_>
      <rect>
        37 7 14 11</rect></_>
    <_>
      <rect>
        37 18 2 1</rect></_>
    <_>
      <rect>
        37 18 3 1</rect></_>
    <_>
      <rect>
        37 24 2 1</rect></_>
    <_>
      <rect>
        38 3 14 10</rect></_>
    <_>
      <rect>
        38 6 4 2</rect></_>
    <_>
      <rect>
        38 23 4 1</rect></_>
    <_>
      <rect>
        38 26 3 1</rect></_>
    <_>
      <rect>
        38 29 3 1</rect></_>
    <_>
      <rect>
        39 19 1 1</rect></_>
    <_>
      <rect>
        39 25 3 1</rect></_>
    <_>
      <rect>
        39 28 6 2</rect></_>
    <_>
      <rect>
        40 26 6 3</rect></_>
    <_>
      <rect>
        40 27 3 1</rect></_>
    <_>
      <rect>
        40 30 3 1</rect></_>
    <_>
      <rect>
        41 26 2 1</rect></_>
    <_>
      <rect>
        42 7 11 11</rect></_>
    <_>
      <rect>
        42 21 11 5</rect></_>
    <_>
      <rect>
        43 19 2 1</rect></_>
    <_>
      <rect>
        43 27 2 1</rect></_>
    <_>
      <rect>
        44 2 11 11</rect></_>
    <_>
      <rect>
        45 26 2 1</rect></_>
    <_>
      <rect>
        46 7 5 6</rect></_>
    <_>
      <rect>
        48 9 10 7</rect></_>
    <_>
      <rect>
        49 0 9 8</rect></_>
    <_>
      <rect>
        55 4 5 11</rect></_>
    <_>
      <rect>
        55 12 6 7</rect></_>
    <_>
      <rect>
        57 8 7 10</rect></_>
    <_>
      <rect>
        58 14 5 5</rect></_>
    <_>
      <rect>
        59 11 5 4</rect></_>
    <_>
      <rect>
        61 8 4 5</rect></_></features></cascade>
</opencv_storage>
