<?xml version="1.0"?>
<opencv_storage>
<cascade>
  <stageType>BOOST</stageType>
  <featureType>LBP</featureType>
  <height>40</height>
  <width>80</width>
  <stageParams>
    <boostType>GAB</boostType>
    <minHitRate>9.9900001287460327e-01</minHitRate>
    <maxFalseAlarm>5.0000000000000000e-01</maxFalseAlarm>
    <weightTrimRate>9.4999999999999996e-01</weightTrimRate>
    <maxDepth>1</maxDepth>
    <maxWeakCount>100</maxWeakCount></stageParams>
  <featureParams>
    <maxCatCount>256</maxCatCount>
    <featSize>1</featSize></featureParams>
  <stageNum>20</stageNum>
  <stages>
    <!-- stage 0 -->
    <_>
      <maxWeakCount>5</maxWeakCount>
      <stageThreshold>-4.7867158055305481e-01</stageThreshold>
      <weakClassifiers>
        <_>
          <internalNodes>
            0 -1 51 -788475688 1493270528 1342177560 419430416
            -1736406872 -1971322880 -2147448646 453509256</internalNodes>
          <leafValues>
            -7.5053763389587402e-01 6.5991187095642090e-01</leafValues></_>
        <_>
          <internalNodes>
            0 -1 18 -56034070 -613631000 -2004824701 1531048121
            -807535366 1795052016 -732240662 -2093338565</internalNodes>
          <leafValues>
            -5.2554619312286377e-01 6.8318545818328857e-01</leafValues></_>
        <_>
          <internalNodes>
            0 -1 63 -68270054 436014152 2128484605 -1622123008
            -281802546 -1725686700 520361209 -1909826455</internalNodes>
          <leafValues>
            -5.8954346179962158e-01 6.6894131898880005e-01</leafValues></_>
        <_>
          <internalNodes>
            0 -1 130 -1759504736 1395322914 854738065 1896955680
            -751040376 -1908382008 -1810472241 -1692989813</internalNodes>
          <leafValues>
            -4.9807295203208923e-01 7.6308381557464600e-01</leafValues></_>
        <_>
          <internalNodes>
            0 -1 137 -724915288 -205329760 630914488 1393119352
            1073414120 -170173098 60875935 -1759627914</internalNodes>
          <leafValues>
            -5.5500084161758423e-01 6.7629700899124146e-01</leafValues></_></weakClassifiers></_>
    <!-- stage 1 -->
    <_>
      <maxWeakCount>6</maxWeakCount>
      <stageThreshold>-5.7544100284576416e-01</stageThreshold>
      <weakClassifiers>
        <_>
          <internalNodes>
            0 -1 159 504402064 -82814472 117070453 286856213 791300762
            -1109328694 100963898 453708921</internalNodes>
          <leafValues>
            -4.1434845328330994e-01 7.4482005834579468e-01</leafValues></_>
        <_>
          <internalNodes>
            0 -1 97 -653208368 -784199680 280 293802049 -1878914900
            411041921 134365322 285933707</internalNodes>
          <leafValues>
            -5.7370972633361816e-01 6.3856393098831177e-01</leafValues></_>
        <_>
          <internalNodes>
            0 -1 129 -775366592 -652208088 817373673 -785169223
            -2060674168 8414793 116051151 -1693252449</internalNodes>
          <leafValues>
            -4.5078071951866150e-01 7.7053952217102051e-01</leafValues></_>
        <_>
          <internalNodes>
            0 -1 173 -1736408896 -651670496 1852572561 2039682400
            -1642924399 -1440452750 275828938 -1962209145</internalNodes>
          <leafValues>
            -4.3103453516960144e-01 8.0189287662506104e-01</leafValues></_>
        <_>
          <internalNodes>
            0 -1 29 -196149508 455093760 1322835569 189738549 -833683990
            161672773 -1643919441 -808743573</internalNodes>
          <leafValues>
            -5.2320754528045654e-01 6.8482899665832520e-01</leafValues></_>
        <_>
          <internalNodes>
            0 -1 91 -1113499440 1471093996 981341877 1063861593
            -1753695607 -1667279272 443606267 252920875</internalNodes>
          <leafValues>
            -5.4956501722335815e-01 7.1274310350418091e-01</leafValues></_></weakClassifiers></_>
    <!-- stage 2 -->
    <_>
      <maxWeakCount>7</maxWeakCount>
      <stageThreshold>-7.2274714708328247e-01</stageThreshold>
      <weakClassifiers>
        <_>
          <internalNodes>
            0 -1 32 -205465388 -11210624 -2145088284 -77916144
            -801571080 226410434 2109911276 2067517658</internalNodes>
          <leafValues>
            -4.9012568593025208e-01 6.4525407552719116e-01</leafValues></_>
        <_>
          <internalNodes>
            0 -1 14 -895431186 -670941156 1091616836 -482193406 12632202
            -134119388 -805142301 1898012899</internalNodes>
          <leafValues>
            -5.8050459623336792e-01 4.6072992682456970e-01</leafValues></_>
        <_>
          <internalNodes>
            0 -1 89 -268316470 -770568079 47 1897078912 -2004303110
            -2080227192 1090552567 1529563609</internalNodes>
          <leafValues>
            -5.1979887485504150e-01 5.0744360685348511e-01</leafValues></_>
        <_>
          <internalNodes>
            0 -1 110 -644232964 1360068736 -1342173119 805322895
            1619232928 -232205823 809534088 1224985050</internalNodes>
          <leafValues>
            -5.6473606824874878e-01 4.8965293169021606e-01</leafValues></_>
        <_>
          <internalNodes>
            0 -1 104 -1868427152 -224171402 854504919 354653841
            -1875456317 -1431382136 7260352 -1303756459</internalNodes>
          <leafValues>
            -4.8143237829208374e-01 5.6597816944122314e-01</leafValues></_>
        <_>
          <internalNodes>
            0 -1 94 -509961464 1476984960 1619071058 -117108408
            -1542864738 -1711112184 142752395 -99891199</internalNodes>
          <leafValues>
            -5.5088549852371216e-01 5.4627555608749390e-01</leafValues></_>
        <_>
          <internalNodes>
            0 -1 35 -933704230 -1201651184 289411160 453071376
            -1744305976 -931135326 16794331 604120746</internalNodes>
          <leafValues>
            -6.5813010931015015e-01 4.3928417563438416e-01</leafValues></_></weakClassifiers></_>
    <!-- stage 3 -->
    <_>
      <maxWeakCount>8</maxWeakCount>
      <stageThreshold>-7.1629667282104492e-01</stageThreshold>
      <weakClassifiers>
        <_>
          <internalNodes>
            0 -1 27 -586350918 487193800 2130476472 498732088 2124684792
            -1076068867 -591872040 -1952275042</internalNodes>
          <leafValues>
            -4.1219961643218994e-01 5.8829087018966675e-01</leafValues></_>
        <_>
          <internalNodes>
            0 -1 108 -714555246 2037902756 1961724539 1361037383
            277467274 202322704 83289311 -1710811149</internalNodes>
          <leafValues>
            -3.6664685606956482e-01 6.3997787237167358e-01</leafValues></_>
        <_>
          <internalNodes>
            0 -1 56 -176047306 1945315768 -18419711 1566161257
            -1410003254 -1162675466 1467891341 -1739650214</internalNodes>
          <leafValues>
            -4.5148733258247375e-01 5.6590098142623901e-01</leafValues></_>
        <_>
          <internalNodes>
            0 -1 98 -154549030 301007104 378468199 -742173571
            -1906571636 -2088206156 235069183 1535873199</internalNodes>
          <leafValues>
            -4.5211875438690186e-01 5.7363247871398926e-01</leafValues></_>
        <_>
          <internalNodes>
            0 -1 76 -611396904 496967914 -54592869 1433297846 -48725302
            -5808418 430496475 -1961159474</internalNodes>
          <leafValues>
            -4.4982999563217163e-01 6.4168417453765869e-01</leafValues></_>
        <_>
          <internalNodes>
            0 -1 47 -97390351 -117503672 -872973359 354917392
            -1817281108 -121653251 259395039 -827697656</internalNodes>
          <leafValues>
            -4.4000330567359924e-01 6.8612384796142578e-01</leafValues></_>
        <_>
          <internalNodes>
            0 -1 147 -1861959590 -1793449840 1140916593 1565627221
            -1840623064 -100663160 536906424 185206960</internalNodes>
          <leafValues>
            -6.5402150154113770e-01 4.5450660586357117e-01</leafValues></_>
        <_>
          <internalNodes>
            0 -1 55 -1321075742 1360114056 1157648389 486539521
            402686122 -2088075136 402671619 124461448</internalNodes>
          <leafValues>
            -5.9938228130340576e-01 5.1178872585296631e-01</leafValues></_></weakClassifiers></_>
    <!-- stage 4 -->
    <_>
      <maxWeakCount>8</maxWeakCount>
      <stageThreshold>-1.3244490623474121e+00</stageThreshold>
      <weakClassifiers>
        <_>
          <internalNodes>
            0 -1 133 -769269748 -725005054 1877758908 298714409
            -543117662 -569720152 -1481065730 -678755685</internalNodes>
          <leafValues>
            -1.8932038545608521e-01 7.1649485826492310e-01</leafValues></_>
        <_>
          <internalNodes>
            0 -1 74 -17831798 2139803306 2139683920 1463851811
            -1084668790 -336070702 1863869752 -652583029</internalNodes>
          <leafValues>
            -4.7046813368797302e-01 5.2539974451065063e-01</leafValues></_>
        <_>
          <internalNodes>
            0 -1 170 1547432976 1604996368 1179583993 1563556901
            -270095464 -859253424 83911854 -1962226661</internalNodes>
          <leafValues>
            -4.2781707644462585e-01 5.6428849697113037e-01</leafValues></_>
        <_>
          <internalNodes>
            0 -1 54 -896576292 1403657546 -348468998 285805822
            -1932402516 -1395559404 342382042 -1693006611</internalNodes>
          <leafValues>
            -4.3001672625541687e-01 5.7088184356689453e-01</leafValues></_>
        <_>
          <internalNodes>
            0 -1 158 -73600558 -8922624 641276474 -235191562 -300228437
            -1572577496 1227010234 -1617194513</internalNodes>
          <leafValues>
            -3.2988134026527405e-01 7.7726173400878906e-01</leafValues></_>
        <_>
          <internalNodes>
            0 -1 8 -1056543798 1964179586 1049055 -549088979 -2004827456
            -1988091902 1476956911 1126648323</internalNodes>
          <leafValues>
            -5.2751982212066650e-01 5.3500169515609741e-01</leafValues></_>
        <_>
          <internalNodes>
            0 -1 30 1627574686 -1157201792 268435469 268451918
            -2147188322 -268238664 1100525763 -1962310964</internalNodes>
          <leafValues>
            -5.9309732913970947e-01 4.7763133049011230e-01</leafValues></_>
        <_>
          <internalNodes>
            0 -1 135 -563483998 -1092487384 -2108612536 1961599487
            -1080683378 -2082805939 133461484 -768633973</internalNodes>
          <leafValues>
            -4.6436989307403564e-01 6.1087614297866821e-01</leafValues></_></weakClassifiers></_>
    <!-- stage 5 -->
    <_>
      <maxWeakCount>9</maxWeakCount>
      <stageThreshold>-6.8149131536483765e-01</stageThreshold>
      <weakClassifiers>
        <_>
          <internalNodes>
            0 -1 144 -525358033 -773767219 905324039 1935892593
            -1560365041 1388733063 -616656949 1395234463</internalNodes>
          <leafValues>
            -2.1324503421783447e-01 6.6390532255172729e-01</leafValues></_>
        <_>
          <internalNodes>
            0 -1 5 -523847782 -784138237 269488192 151570438 -1317003039
            -1961352880 -1872633292 -210633901</internalNodes>
          <leafValues>
            -4.9887281656265259e-01 4.4771364331245422e-01</leafValues></_>
        <_>
          <internalNodes>
            0 -1 138 2065797338 -766762335 1825496697 1399540841
            -2032810824 -1068598956 -966939777 -886893169</internalNodes>
          <leafValues>
            -3.6296617984771729e-01 6.0499596595764160e-01</leafValues></_>
        <_>
          <internalNodes>
            0 -1 77 -244321662 -737177600 1293173012 6504849 -532535654
            1619673092 -804401637 1909967247</internalNodes>
          <leafValues>
            -4.9940282106399536e-01 4.6637964248657227e-01</leafValues></_>
        <_>
          <internalNodes>
            0 -1 69 -347360556 1363384922 33758357 1570284050
            -2101113844 -175193983 -1828710212 2014197868</internalNodes>
          <leafValues>
            -5.8849549293518066e-01 3.9070844650268555e-01</leafValues></_>
        <_>
          <internalNodes>
            0 -1 84 -606316336 -712828892 34185 420054105 -2004776757
            436862976 1124313259 303763611</internalNodes>
          <leafValues>
            -5.0607579946517944e-01 4.9323019385337830e-01</leafValues></_>
        <_>
          <internalNodes>
            0 -1 166 -781757692 1343197195 -1870323036 1344017 430006449
            269101440 -1341447927 1347940671</internalNodes>
          <leafValues>
            -6.2186807394027710e-01 3.8276207447052002e-01</leafValues></_>
        <_>
          <internalNodes>
            0 -1 102 423645432 -115326784 201413717 1929969680 272690316
            -918421304 407405323 1263157275</internalNodes>
          <leafValues>
            -5.4419225454330444e-01 4.8918852210044861e-01</leafValues></_>
        <_>
          <internalNodes>
            0 -1 12 -805260726 -771375097 1342263456 1481236505
            -766697255 276926592 -1870275390 1892999374</internalNodes>
          <leafValues>
            -6.3737773895263672e-01 3.9688491821289062e-01</leafValues></_></weakClassifiers></_>
    <!-- stage 6 -->
    <_>
      <maxWeakCount>9</maxWeakCount>
      <stageThreshold>-5.7821345329284668e-01</stageThreshold>
      <weakClassifiers>
        <_>
          <internalNodes>
            0 -1 151 -795289464 1533375785 1530346497 1465334540
            384167818 1618949499 1440536354 1392958696</internalNodes>
          <leafValues>
            -3.8610038161277771e-01 5.5452865362167358e-01</leafValues></_>
        <_>
          <internalNodes>
            0 -1 113 -547793872 1561575958 -788514501 -1424274685
            -838086420 -1870125040 281678096 1100474847</internalNodes>
          <leafValues>
            -4.8908478021621704e-01 4.4979545474052429e-01</leafValues></_>
        <_>
          <internalNodes>
            0 -1 15 -984694378 -1726881445 1074348117 -2062465930
            -528445262 -351756536 -2128297476 1847746993</internalNodes>
          <leafValues>
            -5.4692941904067993e-01 3.8713401556015015e-01</leafValues></_>
        <_>
          <internalNodes>
            0 -1 121 -1191671342 -80790406 -1056992653 -213453709
            934190720 -884361458 1224123871 2069862780</internalNodes>
          <leafValues>
            -3.8528388738632202e-01 5.9190207719802856e-01</leafValues></_>
        <_>
          <internalNodes>
            0 -1 114 433211786 1392608021 286722174 876019848 683452495
            -669843228 -2088196965 1275043615</internalNodes>
          <leafValues>
            -5.2025902271270752e-01 4.6727639436721802e-01</leafValues></_>
        <_>
          <internalNodes>
            0 -1 86 1352679908 -1727200924 -805268965 -2062658284
            -2147433943 -1163231227 2237195 521749800</internalNodes>
          <leafValues>
            -5.4401284456253052e-01 4.4656276702880859e-01</leafValues></_>
        <_>
          <internalNodes>
            0 -1 31 1394527826 -1001848190 -787442491 303644694
            -2139059832 -1195276267 679774636 -1358622488</internalNodes>
          <leafValues>
            -5.0647717714309692e-01 4.9336850643157959e-01</leafValues></_>
        <_>
          <internalNodes>
            0 -1 10 -939145521 -1219731382 -1862270446 1663893506
            -662402403 -641072896 1151451360 1194811764</internalNodes>
          <leafValues>
            -5.1377290487289429e-01 4.7059026360511780e-01</leafValues></_>
        <_>
          <internalNodes>
            0 -1 48 -1071909677 -754945919 541137023 -1543503843
            -1727430428 -477323095 977420355 1279804057</internalNodes>
          <leafValues>
            -4.9971145391464233e-01 5.1940423250198364e-01</leafValues></_></weakClassifiers></_>
    <!-- stage 7 -->
    <_>
      <maxWeakCount>8</maxWeakCount>
      <stageThreshold>-7.5536298751831055e-01</stageThreshold>
      <weakClassifiers>
        <_>
          <internalNodes>
            0 -1 44 -557450533 1381092386 1854558109 1157959117
            -1065222725 1983538849 -2073504089 1196156032</internalNodes>
          <leafValues>
            -2.0109438896179199e-01 6.2945914268493652e-01</leafValues></_>
        <_>
          <internalNodes>
            0 -1 6 -582234034 -645067502 -1855698974 -1082103550
            176742400 1112245376 291108819 -147479773</internalNodes>
          <leafValues>
            -4.7080761194229126e-01 4.3944853544235229e-01</leafValues></_>
        <_>
          <internalNodes>
            0 -1 122 -1308094256 -620748664 -1727885033 -1252849379
            -1742061399 -1412857848 -2130255634 -1820292967</internalNodes>
          <leafValues>
            -4.6756976842880249e-01 4.5142418146133423e-01</leafValues></_>
        <_>
          <internalNodes>
            0 -1 81 -216926093 -1734152191 1157695760 -1251229184
            -1046269446 -1937580023 8472877 1088154097</internalNodes>
          <leafValues>
            -4.6628338098526001e-01 4.5751002430915833e-01</leafValues></_>
        <_>
          <internalNodes>
            0 -1 141 -811695464 2147310116 -1671183367 1504796145
            -1294333792 -1670302720 473322811 -811868967</internalNodes>
          <leafValues>
            -4.0986347198486328e-01 5.8375054597854614e-01</leafValues></_>
        <_>
          <internalNodes>
            0 -1 79 -591332882 -623148766 1224822977 571756802
            1107398846 285245698 -1031740993 324683013</internalNodes>
          <leafValues>
            -6.6328454017639160e-01 3.7695056200027466e-01</leafValues></_>
        <_>
          <internalNodes>
            0 -1 20 -1464321793 1340194802 -275899145 -1346502928
            -1024894471 527794164 -168698644 1064559199</internalNodes>
          <leafValues>
            -4.6362346410751343e-01 5.1694089174270630e-01</leafValues></_>
        <_>
          <internalNodes>
            0 -1 53 -822187533 291114174 586849379 -652788115 -144986714
            -1085654540 1518130836 -653060179</internalNodes>
          <leafValues>
            -3.6079737544059753e-01 6.6656613349914551e-01</leafValues></_></weakClassifiers></_>
    <!-- stage 8 -->
    <_>
      <maxWeakCount>9</maxWeakCount>
      <stageThreshold>-7.4521040916442871e-01</stageThreshold>
      <weakClassifiers>
        <_>
          <internalNodes>
            0 -1 115 -661478238 -759651916 -1544482966 2138380466
            -1094778716 303070517 914085372 35888583</internalNodes>
          <leafValues>
            -2.9622980952262878e-01 5.4170662164688110e-01</leafValues></_>
        <_>
          <internalNodes>
            0 -1 171 435931355 -743801216 -1679661423 1575420482
            -590492454 -2008443203 384130266 -1626635121</internalNodes>
          <leafValues>
            -2.1910673379898071e-01 7.6209795475006104e-01</leafValues></_>
        <_>
          <internalNodes>
            0 -1 99 1806291674 -768137728 2010299963 1367069843
            -150708336 -669527985 32640459 -1625606713</internalNodes>
          <leafValues>
            -2.9251873493194580e-01 6.0311001539230347e-01</leafValues></_>
        <_>
          <internalNodes>
            0 -1 71 -989000484 -774291264 8472765 857540753 -402634600
            939528328 -2008887157 490255257</internalNodes>
          <leafValues>
            -5.0037193298339844e-01 4.1960468888282776e-01</leafValues></_>
        <_>
          <internalNodes>
            0 -1 87 1660019435 2136110561 -539492929 1599288813
            1320916462 -1078001666 396490235 -1655507529</internalNodes>
          <leafValues>
            -4.1154074668884277e-01 5.4834973812103271e-01</leafValues></_>
        <_>
          <internalNodes>
            0 -1 34 -2007989352 1954697231 67262628 -1492512624
            -800489338 -1474231295 101245153 2142870376</internalNodes>
          <leafValues>
            -5.9512054920196533e-01 3.8162094354629517e-01</leafValues></_>
        <_>
          <internalNodes>
            0 -1 107 2079142925 -45909318 1417428145 857340373
            -369246978 -1323403324 -200502065 -350693570</internalNodes>
          <leafValues>
            -3.4286418557167053e-01 6.7516422271728516e-01</leafValues></_>
        <_>
          <internalNodes>
            0 -1 88 -1213206313 1399040484 1660883947 455831145
            -563301948 -1642922386 1014260939 -1659694736</internalNodes>
          <leafValues>
            -3.0019220709800720e-01 7.2923117876052856e-01</leafValues></_>
        <_>
          <internalNodes>
            0 -1 17 -22320428 -102389768 -91296273 -247207047 -554696839
            922729334 -186931857 -254691304</internalNodes>
          <leafValues>
            -4.4080731272697449e-01 5.3162467479705811e-01</leafValues></_></weakClassifiers></_>
    <!-- stage 9 -->
    <_>
      <maxWeakCount>10</maxWeakCount>
      <stageThreshold>-7.5015997886657715e-01</stageThreshold>
      <weakClassifiers>
        <_>
          <internalNodes>
            0 -1 151 -762734400 -81431256 456514562 1394047792 920973066
            594949465 1338957731 1494188249</internalNodes>
          <leafValues>
            -3.2737031579017639e-01 5.6003844738006592e-01</leafValues></_>
        <_>
          <internalNodes>
            0 -1 152 -1649747304 2070437496 -1166084271 1362840697
            -1714165077 -2082189736 509886859 1531663464</internalNodes>
          <leafValues>
            -4.1508957743644714e-01 4.8252105712890625e-01</leafValues></_>
        <_>
          <internalNodes>
            0 -1 169 -556807909 -750688154 1529855273 1372388219
            -1063540170 -1118142580 -1531773446 -96828237</internalNodes>
          <leafValues>
            -3.1719151139259338e-01 6.1406737565994263e-01</leafValues></_>
        <_>
          <internalNodes>
            0 -1 167 -159942858 1549664021 800948189 -382244748
            2041675694 -134809740 -386820326 -215745033</internalNodes>
          <leafValues>
            -3.9642941951751709e-01 5.3694790601730347e-01</leafValues></_>
        <_>
          <internalNodes>
            0 -1 28 -192323450 830472281 84983992 -2126248942 283410873
            -1299705754 -1859642895 -280326114</internalNodes>
          <leafValues>
            -4.8984664678573608e-01 4.5906516909599304e-01</leafValues></_>
        <_>
          <internalNodes>
            0 -1 131 -1743768464 285544466 285299717 1429295317
            -1979541366 -1728020468 956603 1527281817</internalNodes>
          <leafValues>
            -5.1754605770111084e-01 4.2447754740715027e-01</leafValues></_>
        <_>
          <internalNodes>
            0 -1 95 -1584729088 1426161744 838877457 1445220483
            -1585446469 -821559160 27295883 -620211485</internalNodes>
          <leafValues>
            -4.8914545774459839e-01 4.8266825079917908e-01</leafValues></_>
        <_>
          <internalNodes>
            0 -1 19 -1039934948 -214694823 16842818 793088266 1109475880
            1124336898 1094877225 1461875587</internalNodes>
          <leafValues>
            -5.6524759531021118e-01 4.5229610800743103e-01</leafValues></_>
        <_>
          <internalNodes>
            0 -1 126 1188484329 2046019273 -690755631 481453124
            1049161487 -620769364 -2074228277 -1601466421</internalNodes>
          <leafValues>
            -4.6093243360519409e-01 5.5192196369171143e-01</leafValues></_>
        <_>
          <internalNodes>
            0 -1 72 25314446 -707768161 1073840283 -511110509 -473943909
            50520161 1184919793 -1181757939</internalNodes>
          <leafValues>
            -5.0564342737197876e-01 4.7180587053298950e-01</leafValues></_></weakClassifiers></_>
    <!-- stage 10 -->
    <_>
      <maxWeakCount>10</maxWeakCount>
      <stageThreshold>-6.6694223880767822e-01</stageThreshold>
      <weakClassifiers>
        <_>
          <internalNodes>
            0 -1 61 298712536 -445440492 1072343898 -821663994
            -1495732504 7615216 1226739709 1863195545</internalNodes>
          <leafValues>
            -3.7044969201087952e-01 5.0573700666427612e-01</leafValues></_>
        <_>
          <internalNodes>
            0 -1 44 2007475931 -232010178 -300261489 1867885773
            1099623603 -190296406 -1661373257 1340316818</internalNodes>
          <leafValues>
            -3.2823488116264343e-01 5.4745662212371826e-01</leafValues></_>
        <_>
          <internalNodes>
            0 -1 144 -1045764051 -250535872 419823903 1963262025
            -2125807352 -1697628031 2015543753 1399626383</internalNodes>
          <leafValues>
            -4.4913685321807861e-01 4.1185119748115540e-01</leafValues></_>
        <_>
          <internalNodes>
            0 -1 16 -39655699 -9359581 -1499060563 -1080498243
            2136745025 -581599618 1331043343 -7715305</internalNodes>
          <leafValues>
            -3.5893800854682922e-01 5.4971820116043091e-01</leafValues></_>
        <_>
          <internalNodes>
            0 -1 142 -105882920 -68981184 1920685331 -1723454432
            -1079382566 -1951506716 326870163 -1726317416</internalNodes>
          <leafValues>
            -4.4675642251968384e-01 4.7504627704620361e-01</leafValues></_>
        <_>
          <internalNodes>
            0 -1 26 -1702312161 -1851793337 70557719 168165416 190484620
            -2107113447 1245893199 -550370402</internalNodes>
          <leafValues>
            -4.9557706713676453e-01 4.3160334229469299e-01</leafValues></_>
        <_>
          <internalNodes>
            0 -1 116 -796989 -95895184 918463541 -76546601 297194823
            -2114748607 37265947 -1764025378</internalNodes>
          <leafValues>
            -3.9407357573509216e-01 5.6907153129577637e-01</leafValues></_>
        <_>
          <internalNodes>
            0 -1 92 -394140568 1225951507 -1845428079 -1321770349
            -1824079182 -1115662198 974000619 318917108</internalNodes>
          <leafValues>
            -5.3072351217269897e-01 4.5704573392868042e-01</leafValues></_>
        <_>
          <internalNodes>
            0 -1 43 -1132068897 48357114 1727907187 401898495
            -1325861400 -673218620 1568556129 -807756836</internalNodes>
          <leafValues>
            -4.2555528879165649e-01 5.5657088756561279e-01</leafValues></_>
        <_>
          <internalNodes>
            0 -1 21 -436824341 959473730 -234981841 -1531315114
            1177820407 -428444041 1584562038 1396143969</internalNodes>
          <leafValues>
            -4.5365473628044128e-01 5.0562590360641479e-01</leafValues></_></weakClassifiers></_>
    <!-- stage 11 -->
    <_>
      <maxWeakCount>9</maxWeakCount>
      <stageThreshold>-7.5120824575424194e-01</stageThreshold>
      <weakClassifiers>
        <_>
          <internalNodes>
            0 -1 7 -135272214 -590420232 -273282434 253406962 -42642222
            -996769968 1869843452 1309827955</internalNodes>
          <leafValues>
            -3.1782945990562439e-01 5.2029520273208618e-01</leafValues></_>
        <_>
          <internalNodes>
            0 -1 128 -217070880 1241495213 2062528842 -179439723
            -1344432768 -1913205482 2011681236 -720742551</internalNodes>
          <leafValues>
            -4.0203133225440979e-01 4.5007836818695068e-01</leafValues></_>
        <_>
          <internalNodes>
            0 -1 82 1759035594 -138989368 1074307594 286513316
            -818239220 50610432 8554571 462134712</internalNodes>
          <leafValues>
            -4.8703798651695251e-01 3.9018276333808899e-01</leafValues></_>
        <_>
          <internalNodes>
            0 -1 85 939790424 390209874 16632 1358958676 -1866465267
            -2029846518 1754370562 405418077</internalNodes>
          <leafValues>
            -6.1036407947540283e-01 3.0912426114082336e-01</leafValues></_>
        <_>
          <internalNodes>
            0 -1 42 1982574137 -722222347 -2016257581 489111877
            746250228 -234931080 805197055 -545194640</internalNodes>
          <leafValues>
            -3.6117410659790039e-01 5.5456697940826416e-01</leafValues></_>
        <_>
          <internalNodes>
            0 -1 1 1820828310 -1068314349 20990209 -125759189 271091027
            -1033895712 -536700031 1187203659</internalNodes>
          <leafValues>
            -5.7964438199996948e-01 3.5374554991722107e-01</leafValues></_>
        <_>
          <internalNodes>
            0 -1 57 -1844750895 1393574017 16861151 179423250 272669330
            -2113724261 273373976 318722390</internalNodes>
          <leafValues>
            -4.9112722277641296e-01 4.3528530001640320e-01</leafValues></_>
        <_>
          <internalNodes>
            0 -1 58 -349977367 -1076930091 1045991571 -679504778
            -2089103770 -423149709 -952466698 -1626123027</internalNodes>
          <leafValues>
            -3.8635277748107910e-01 5.8547693490982056e-01</leafValues></_>
        <_>
          <internalNodes>
            0 -1 145 -419299102 -2051473063 69148721 278085636
            -670466036 -1333264119 596849648 406569177</internalNodes>
          <leafValues>
            -6.0259026288986206e-01 3.9070108532905579e-01</leafValues></_></weakClassifiers></_>
    <!-- stage 12 -->
    <_>
      <maxWeakCount>10</maxWeakCount>
      <stageThreshold>-7.4946206808090210e-01</stageThreshold>
      <weakClassifiers>
        <_>
          <internalNodes>
            0 -1 78 -2133768635 -756519712 -1326944257 911637815
            -2037975328 -1082175113 1718662108 -668315471</internalNodes>
          <leafValues>
            -2.1364985406398773e-01 5.8747297525405884e-01</leafValues></_>
        <_>
          <internalNodes>
            0 -1 119 -1694389032 1514093592 -285710089 -1348941104
            -483737970 -790223605 1066135393 -1727072279</internalNodes>
          <leafValues>
            -3.9126732945442200e-01 4.6953231096267700e-01</leafValues></_>
        <_>
          <internalNodes>
            0 -1 75 -620656446 -99510911 -738070245 1477807947
            -1257180793 1346504336 1074831813 1595843593</internalNodes>
          <leafValues>
            -5.0144261121749878e-01 3.7188589572906494e-01</leafValues></_>
        <_>
          <internalNodes>
            0 -1 9 -791541537 -875944434 -1593737187 1678772758 16842936
            -478014976 545227 1600544855</internalNodes>
          <leafValues>
            -5.1991611719131470e-01 3.5413753986358643e-01</leafValues></_>
        <_>
          <internalNodes>
            0 -1 175 -1775068073 1957427960 -553715431 2078475795
            -1116742498 -1145625218 988911582 654675189</internalNodes>
          <leafValues>
            -4.2623251676559448e-01 4.7534087300300598e-01</leafValues></_>
        <_>
          <internalNodes>
            0 -1 45 1828805462 1527169054 -2012033001 1197065617
            1487204773 146870792 -1818999928 2024325405</internalNodes>
          <leafValues>
            -4.9694833159446716e-01 4.0486785769462585e-01</leafValues></_>
        <_>
          <internalNodes>
            0 -1 120 -1708529288 1536416384 1937594003 253722309
            -96831772 -100860206 1060906411 -615068193</internalNodes>
          <leafValues>
            -3.9924728870391846e-01 5.5437374114990234e-01</leafValues></_>
        <_>
          <internalNodes>
            0 -1 33 -275813773 419130915 -949044099 -369148923 -59770894
            734715511 1588192900 -817901718</internalNodes>
          <leafValues>
            -3.3542513847351074e-01 5.9603857994079590e-01</leafValues></_>
        <_>
          <internalNodes>
            0 -1 25 -610343354 -1628233518 -803045248 457417091
            -1061154650 -1338277880 675317946 1983022991</internalNodes>
          <leafValues>
            -5.1270151138305664e-01 4.2588108777999878e-01</leafValues></_>
        <_>
          <internalNodes>
            0 -1 66 1851831423 402387046 -20997691 1503493535
            -1350914746 -1024102658 750045599 -116134883</internalNodes>
          <leafValues>
            -3.9018091559410095e-01 5.7325541973114014e-01</leafValues></_></weakClassifiers></_>
    <!-- stage 13 -->
    <_>
      <maxWeakCount>10</maxWeakCount>
      <stageThreshold>-6.6889834403991699e-01</stageThreshold>
      <weakClassifiers>
        <_>
          <internalNodes>
            0 -1 64 -98022976 -1608904512 316000 -1625259886 683778248
            144990336 -1586356180 985174016</internalNodes>
          <leafValues>
            -5.9154927730560303e-01 4.3161094188690186e-01</leafValues></_>
        <_>
          <internalNodes>
            0 -1 103 -666305464 -35724864 -1486844931 2005087873
            956870906 -2038429184 335972394 597909704</internalNodes>
          <leafValues>
            -4.7508853673934937e-01 3.4441694617271423e-01</leafValues></_>
        <_>
          <internalNodes>
            0 -1 73 2014300135 -1154756217 468910079 813649905
            1519441629 -1078468617 590510004 -477210918</internalNodes>
          <leafValues>
            -3.1529259681701660e-01 5.4878258705139160e-01</leafValues></_>
        <_>
          <internalNodes>
            0 -1 127 -777809475 1638776297 -706298468 -711716867
            -1209160519 -1980304128 -1491102583 -539257015</internalNodes>
          <leafValues>
            -2.5811961293220520e-01 7.0009166002273560e-01</leafValues></_>
        <_>
          <internalNodes>
            0 -1 153 -901870882 -855644162 -1376196623 1635077786
            -1417693186 385629118 -948672933 -915166837</internalNodes>
          <leafValues>
            -3.4375044703483582e-01 5.5843013525009155e-01</leafValues></_>
        <_>
          <internalNodes>
            0 -1 157 -989108163 2001583848 -1309770372 365505791
            -303702642 -1176830537 127188075 -652573348</internalNodes>
          <leafValues>
            -3.6286422610282898e-01 5.5658006668090820e-01</leafValues></_>
        <_>
          <internalNodes>
            0 -1 140 -1996299832 -771157992 -788508613 386359308
            -1005682520 1132528032 9536201 17433763</internalNodes>
          <leafValues>
            -5.5532664060592651e-01 4.0688043832778931e-01</leafValues></_>
        <_>
          <internalNodes>
            0 -1 164 293787889 -1021771680 268767489 1556287497 18525658
            -803037055 1644172211 151164032</internalNodes>
          <leafValues>
            -5.0266796350479126e-01 4.3013751506805420e-01</leafValues></_>
        <_>
          <internalNodes>
            0 -1 80 -901717790 -102071680 269781826 1548025937
            -1600610131 1092632616 -1878933297 -1222094088</internalNodes>
          <leafValues>
            -4.8023819923400879e-01 4.5794796943664551e-01</leafValues></_>
        <_>
          <internalNodes>
            0 -1 100 803311871 -8482639 -1627432788 1534450919 792204378
            -310445004 1022819355 -1828156995</internalNodes>
          <leafValues>
            -3.6797469854354858e-01 5.8716517686843872e-01</leafValues></_></weakClassifiers></_>
    <!-- stage 14 -->
    <_>
      <maxWeakCount>11</maxWeakCount>
      <stageThreshold>-5.7111608982086182e-01</stageThreshold>
      <weakClassifiers>
        <_>
          <internalNodes>
            0 -1 143 448332049 -1624421284 1219301349 1391942736
            804011166 -1234337842 137655325 520751052</internalNodes>
          <leafValues>
            -2.8491619229316711e-01 5.2022576332092285e-01</leafValues></_>
        <_>
          <internalNodes>
            0 -1 124 -23404040 1191819339 16967420 209911845 -217791252
            -2111274483 -28615515 -1600106315</internalNodes>
          <leafValues>
            -5.1005828380584717e-01 3.3721476793289185e-01</leafValues></_>
        <_>
          <internalNodes>
            0 -1 178 -76436182 -1645445241 -1073872992 -1179504652
            81944421 1039881919 769959727 -2064401558</internalNodes>
          <leafValues>
            -3.9841625094413757e-01 4.5031681656837463e-01</leafValues></_>
        <_>
          <internalNodes>
            0 -1 134 1610319519 -84214833 967486019 -267762240
            -585655661 -1075593 1965988251 -645267689</internalNodes>
          <leafValues>
            -2.9150795936584473e-01 6.4366197586059570e-01</leafValues></_>
        <_>
          <internalNodes>
            0 -1 70 -1659589118 -1251947904 1073889803 -250261440
            -1584791153 -1845329253 541180833 320128505</internalNodes>
          <leafValues>
            -5.1079374551773071e-01 3.8131344318389893e-01</leafValues></_>
        <_>
          <internalNodes>
            0 -1 106 -548138544 1980047939 1074544978 1377632644
            1476930187 454066181 -1057320741 -1088892261</internalNodes>
          <leafValues>
            -4.7561261057853699e-01 4.1812130808830261e-01</leafValues></_>
        <_>
          <internalNodes>
            0 -1 38 -129764680 -762589941 -1828633024 -1002634752
            -1576854867 1377435915 1658221268 -892354290</internalNodes>
          <leafValues>
            -4.5379942655563354e-01 4.5226377248764038e-01</leafValues></_>
        <_>
          <internalNodes>
            0 -1 2 1075111114 22086405 1073826066 -813346535 -2137437110
            -1861484510 1948951551 1172603484</internalNodes>
          <leafValues>
            -5.4238373041152954e-01 4.1083166003227234e-01</leafValues></_>
        <_>
          <internalNodes>
            0 -1 160 -780267911 -729218978 302190937 1158025232
            -1828579176 -370540538 -1996355106 581882072</internalNodes>
          <leafValues>
            -4.9566605687141418e-01 4.4863966107368469e-01</leafValues></_>
        <_>
          <internalNodes>
            0 -1 59 1252608490 823365784 -796303019 1494782151 436242622
            -385084632 285268000 397590740</internalNodes>
          <leafValues>
            -6.5516120195388794e-01 3.5902583599090576e-01</leafValues></_>
        <_>
          <internalNodes>
            0 -1 125 2107096793 -1679884444 518747846 -1282412693
            1333515913 -348128016 792678367 -1925460352</internalNodes>
          <leafValues>
            -3.5660147666931152e-01 6.2377196550369263e-01</leafValues></_></weakClassifiers></_>
    <!-- stage 15 -->
    <_>
      <maxWeakCount>10</maxWeakCount>
      <stageThreshold>-5.6758499145507812e-01</stageThreshold>
      <weakClassifiers>
        <_>
          <internalNodes>
            0 -1 23 -655415604 -137841084 -23426302 -552936385
            -335790388 -470417410 181028620 1581752750</internalNodes>
          <leafValues>
            -3.7246048450469971e-01 4.8833188414573669e-01</leafValues></_>
        <_>
          <internalNodes>
            0 -1 118 356139194 334696595 1091572768 957172696 285251719
            -1994776531 1477576099 -1084552849</internalNodes>
          <leafValues>
            -3.8213351368904114e-01 4.3394795060157776e-01</leafValues></_>
        <_>
          <internalNodes>
            0 -1 139 -1140111117 -808457592 -1960885325 20699401
            2143213194 1692393192 169590263 -547620612</internalNodes>
          <leafValues>
            -2.8975120186805725e-01 5.8029139041900635e-01</leafValues></_>
        <_>
          <internalNodes>
            0 -1 13 -407642161 1214774636 1866434859 -70517663 -77083066
            1197325941 -419530832 -747680761</internalNodes>
          <leafValues>
            -3.1307345628738403e-01 5.5914676189422607e-01</leafValues></_>
        <_>
          <internalNodes>
            0 -1 93 -645147478 -1846476569 -1861775333 -662503279
            -732819229 -1584921184 23277815 1484950317</internalNodes>
          <leafValues>
            -4.3873912096023560e-01 4.4671013951301575e-01</leafValues></_>
        <_>
          <internalNodes>
            0 -1 168 -841721727 -1667216539 1113843681 1471739244
            -37568943 -396530735 -1712045061 -1891977089</internalNodes>
          <leafValues>
            -3.7576425075531006e-01 5.5992460250854492e-01</leafValues></_>
        <_>
          <internalNodes>
            0 -1 101 18759417 -1249456100 273041629 269948982 713032903
            -1106640596 212371866 2092632329</internalNodes>
          <leafValues>
            -4.6738973259925842e-01 4.4872567057609558e-01</leafValues></_>
        <_>
          <internalNodes>
            0 -1 41 -1224193560 457355544 554160150 1116274823
            -2113195550 -902815453 276832565 783106578</internalNodes>
          <leafValues>
            -6.0112828016281128e-01 3.6545795202255249e-01</leafValues></_>
        <_>
          <internalNodes>
            0 -1 176 -272778261 -1722122371 1879048109 -1979711575
            1683854821 118873596 627018895 -928514129</internalNodes>
          <leafValues>
            -3.5457101464271545e-01 6.2481856346130371e-01</leafValues></_>
        <_>
          <internalNodes>
            0 -1 40 -1142439110 -227642132 230647543 -899844392
            746345534 -811636868 835491495 523062619</internalNodes>
          <leafValues>
            -4.5101237297058105e-01 4.8799926042556763e-01</leafValues></_></weakClassifiers></_>
    <!-- stage 16 -->
    <_>
      <maxWeakCount>11</maxWeakCount>
      <stageThreshold>-7.9749149084091187e-01</stageThreshold>
      <weakClassifiers>
        <_>
          <internalNodes>
            0 -1 154 -129107634 -1947755042 -17236036 1135206190
            1813756743 259628828 1505725475 -204738773</internalNodes>
          <leafValues>
            -9.4161955639719963e-03 7.6208180189132690e-01</leafValues></_>
        <_>
          <internalNodes>
            0 -1 24 -719743844 -1690148513 1371820676 -1322626943
            189236906 85594710 -1744781149 -764704626</internalNodes>
          <leafValues>
            -4.0422406792640686e-01 3.9095976948738098e-01</leafValues></_>
        <_>
          <internalNodes>
            0 -1 83 169640154 1764769794 -2080353983 998455301
            -1320431587 -1426038720 1224787475 2069004369</internalNodes>
          <leafValues>
            -5.1762920618057251e-01 3.2720160484313965e-01</leafValues></_>
        <_>
          <internalNodes>
            0 -1 68 1874448625 925549873 1064280442 379951849
            -1083921214 -409010362 37803743 -1693463889</internalNodes>
          <leafValues>
            -3.2033798098564148e-01 5.5312108993530273e-01</leafValues></_>
        <_>
          <internalNodes>
            0 -1 132 1545188644 1123721220 -265584205 1703516811
            546809012 1555678337 -771689565 -1702252412</internalNodes>
          <leafValues>
            -4.9242290854454041e-01 3.9700236916542053e-01</leafValues></_>
        <_>
          <internalNodes>
            0 -1 3 -1627711521 -152113157 -102776 -1430372673 2138326348
            -1082204844 2139514462 -872950018</internalNodes>
          <leafValues>
            -3.6767220497131348e-01 5.5864405632019043e-01</leafValues></_>
        <_>
          <internalNodes>
            0 -1 146 -1397579845 -440406149 -1922171091 -1990623460
            -1342198032 -43515944 328351647 -1153444466</internalNodes>
          <leafValues>
            -2.9565176367759705e-01 6.5710216760635376e-01</leafValues></_>
        <_>
          <internalNodes>
            0 -1 11 -1105280158 380043265 -788398074 -191233088
            1644891331 -520060392 -1333751680 1904734423</internalNodes>
          <leafValues>
            -5.1578408479690552e-01 4.1079172492027283e-01</leafValues></_>
        <_>
          <internalNodes>
            0 -1 37 2082830284 -648677169 -169918995 -1855074871
            2073611503 2029307518 2110205324 1221508454</internalNodes>
          <leafValues>
            -4.3019440770149231e-01 4.9423700571060181e-01</leafValues></_>
        <_>
          <internalNodes>
            0 -1 52 -206701526 2076129061 1654913213 -743803331
            -271713165 634215634 1451021522 -1143716616</internalNodes>
          <leafValues>
            -4.1972464323043823e-01 5.1317071914672852e-01</leafValues></_>
        <_>
          <internalNodes>
            0 -1 90 -1047464788 2035106212 1980096550 758055306
            -1017084392 268507716 1711293706 -544499408</internalNodes>
          <leafValues>
            -4.8676931858062744e-01 4.4598817825317383e-01</leafValues></_></weakClassifiers></_>
    <!-- stage 17 -->
    <_>
      <maxWeakCount>10</maxWeakCount>
      <stageThreshold>-8.9759361743927002e-01</stageThreshold>
      <weakClassifiers>
        <_>
          <internalNodes>
            0 -1 165 285294672 -1799331984 -286370825 -722401795
            242844927 -1361424153 1460688123 520781981</internalNodes>
          <leafValues>
            -2.3444975912570953e-01 5.6217885017395020e-01</leafValues></_>
        <_>
          <internalNodes>
            0 -1 50 1521329 -253530512 1526792097 -735602469 -1267274808
            -620826744 -1336254471 -284237985</internalNodes>
          <leafValues>
            -3.0044507980346680e-01 5.2865070104598999e-01</leafValues></_>
        <_>
          <internalNodes>
            0 -1 123 1378874594 428388353 -2147359581 631947651
            1493211936 293978284 352443572 211471301</internalNodes>
          <leafValues>
            -5.4448235034942627e-01 3.2145157456398010e-01</leafValues></_>
        <_>
          <internalNodes>
            0 -1 172 1454632186 -55694800 182417925 1598625117
            -1342244660 -1564148924 -1002495057 -879774261</internalNodes>
          <leafValues>
            -2.8117844462394714e-01 6.3683480024337769e-01</leafValues></_>
        <_>
          <internalNodes>
            0 -1 162 -770187209 -69469039 1044315131 -374281193
            -537203390 -1074864769 901330427 -326852349</internalNodes>
          <leafValues>
            -3.0692398548126221e-01 6.2172013521194458e-01</leafValues></_>
        <_>
          <internalNodes>
            0 -1 177 -1039490898 60875566 67113064 -2134093806 34464498
            -1006533551 -930947013 -437138837</internalNodes>
          <leafValues>
            -4.6131917834281921e-01 4.4044524431228638e-01</leafValues></_>
        <_>
          <internalNodes>
            0 -1 150 -2087451766 355034688 1207959664 1931866262 191324
            -1609887744 1342294019 1375843490</internalNodes>
          <leafValues>
            -5.7887190580368042e-01 3.9032003283500671e-01</leafValues></_>
        <_>
          <internalNodes>
            0 -1 112 -171416664 -784887676 277025950 1417732619
            -796751736 1358987272 643975595 270535566</internalNodes>
          <leafValues>
            -6.1639815568923950e-01 3.6600384116172791e-01</leafValues></_>
        <_>
          <internalNodes>
            0 -1 161 679608340 18469152 1344389533 1587167432
            -1467330390 -1842900980 34244788 457066748</internalNodes>
          <leafValues>
            -6.6841000318527222e-01 3.1465598940849304e-01</leafValues></_>
        <_>
          <internalNodes>
            0 -1 155 -336008481 916395800 -325326714 1120636329
            -1288231017 2120105527 1109165699 -1081314276</internalNodes>
          <leafValues>
            -4.3191835284233093e-01 5.4628992080688477e-01</leafValues></_></weakClassifiers></_>
    <!-- stage 18 -->
    <_>
      <maxWeakCount>12</maxWeakCount>
      <stageThreshold>-8.1909966468811035e-01</stageThreshold>
      <weakClassifiers>
        <_>
          <internalNodes>
            0 -1 174 364386544 1031364222 -33589509 1900682613
            -1364178500 2147483198 -1887903815 503586228</internalNodes>
          <leafValues>
            -3.3477321267127991e-01 4.8812663555145264e-01</leafValues></_>
        <_>
          <internalNodes>
            0 -1 148 1603295411 -1123991480 -1191175375 461837569
            134899779 -72318560 302154387 523438515</internalNodes>
          <leafValues>
            -3.5896924138069153e-01 4.4182181358337402e-01</leafValues></_>
        <_>
          <internalNodes>
            0 -1 39 1307807075 -1625678823 -152422599 300056529
            -19447267 -138861032 -538022193 -79505494</internalNodes>
          <leafValues>
            -3.2543188333511353e-01 5.4541754722595215e-01</leafValues></_>
        <_>
          <internalNodes>
            0 -1 163 -80051125 -823415048 528410289 1660685413
            1082101358 -76062868 -20553349 -1155322744</internalNodes>
          <leafValues>
            -3.7589830160140991e-01 4.7227385640144348e-01</leafValues></_>
        <_>
          <internalNodes>
            0 -1 96 -631922502 554041669 1360093428 1091110061
            -1744680464 839517184 1074454645 1570437146</internalNodes>
          <leafValues>
            -5.0549083948135376e-01 3.8557663559913635e-01</leafValues></_>
        <_>
          <internalNodes>
            0 -1 65 1917342422 823333254 -268124017 521339522 1259217579
            1583644752 822151851 -73875299</internalNodes>
          <leafValues>
            -5.2654349803924561e-01 3.8560262322425842e-01</leafValues></_>
        <_>
          <internalNodes>
            0 -1 111 -1354824644 -2017294208 1107510097 85827793
            721477660 135929992 1376302487 756174914</internalNodes>
          <leafValues>
            -6.2084990739822388e-01 3.0561792850494385e-01</leafValues></_>
        <_>
          <internalNodes>
            0 -1 46 951839632 -1633462780 1878327099 -1784504548
            -1900070962 -1095223489 238419867 -322331063</internalNodes>
          <leafValues>
            -3.9536988735198975e-01 5.2653461694717407e-01</leafValues></_>
        <_>
          <internalNodes>
            0 -1 4 -968063940 1544575016 1073792115 -1574829225
            805310993 -2010115773 138942492 1992540263</internalNodes>
          <leafValues>
            -5.6174331903457642e-01 3.9240953326225281e-01</leafValues></_>
        <_>
          <internalNodes>
            0 -1 0 -1731276417 1292141073 269877517 -950172670
            -1072889703 -31874944 -1600476154 -416202430</internalNodes>
          <leafValues>
            -4.4215840101242065e-01 5.2750682830810547e-01</leafValues></_>
        <_>
          <internalNodes>
            0 -1 136 1991088855 -7588772 872387963 401521643 1336581800
            1789042056 -1778551445 -537176849</internalNodes>
          <leafValues>
            -3.3495491743087769e-01 7.0962119102478027e-01</leafValues></_>
        <_>
          <internalNodes>
            0 -1 105 -1230057230 -999269922 938864451 1456721899
            -1174512665 -685249722 946959733 -1433469036</internalNodes>
          <leafValues>
            -4.5354869961738586e-01 4.8879805207252502e-01</leafValues></_></weakClassifiers></_>
    <!-- stage 19 -->
    <_>
      <maxWeakCount>10</maxWeakCount>
      <stageThreshold>-8.3867758512496948e-01</stageThreshold>
      <weakClassifiers>
        <_>
          <internalNodes>
            0 -1 156 -1064328054 -656122902 1522335550 1344632573
            -1958258692 94571901 1600618302 1430933770</internalNodes>
          <leafValues>
            -3.2149901986122131e-01 5.1509606838226318e-01</leafValues></_>
        <_>
          <internalNodes>
            0 -1 62 -35919557 2029051571 511696787 1559756763
            -1065620050 15645653 1422822740 -778068929</internalNodes>
          <leafValues>
            -3.5049226880073547e-01 4.6453505754470825e-01</leafValues></_>
        <_>
          <internalNodes>
            0 -1 49 -885342031 -592875488 686893243 1342447092 -10822414
            -566313091 -31928087 -1693841364</internalNodes>
          <leafValues>
            -3.6395311355590820e-01 4.7180745005607605e-01</leafValues></_>
        <_>
          <internalNodes>
            0 -1 67 1440551128 -12447488 1880097809 429478064
            -1862034701 16875681 -2063559590 1132466328</internalNodes>
          <leafValues>
            -4.5418474078178406e-01 3.8161405920982361e-01</leafValues></_>
        <_>
          <internalNodes>
            0 -1 36 -788299110 386073037 -1052768940 555259781
            -665058998 49185 -2105392915 -1865742317</internalNodes>
          <leafValues>
            -5.2175372838973999e-01 3.6999663710594177e-01</leafValues></_>
        <_>
          <internalNodes>
            0 -1 109 -1341050223 -1304297465 1300337055 1594364672
            -1205549071 -494399198 1711344062 505090062</internalNodes>
          <leafValues>
            -4.6571719646453857e-01 4.3153893947601318e-01</leafValues></_>
        <_>
          <internalNodes>
            0 -1 60 -514475118 273367346 -2147154685 -1047468208
            287946283 1948795143 2068428930 49267553</internalNodes>
          <leafValues>
            -5.0137245655059814e-01 4.1130828857421875e-01</leafValues></_>
        <_>
          <internalNodes>
            0 -1 117 -739519469 -27112592 263160796 -1716285905
            -876875280 -226568860 -1310146577 -9747569</internalNodes>
          <leafValues>
            -2.9686954617500305e-01 6.8111455440521240e-01</leafValues></_>
        <_>
          <internalNodes>
            0 -1 149 -272101705 -50419908 -4227 -625259668 -402993883
            -4559107 -1011585096 1336443283</internalNodes>
          <leafValues>
            -4.1562771797180176e-01 5.0076311826705933e-01</leafValues></_>
        <_>
          <internalNodes>
            0 -1 22 -1733279244 -847015632 538640892 974618840
            -2013099378 1484849419 541081792 1910795457</internalNodes>
          <leafValues>
            -6.0246503353118896e-01 3.6235955357551575e-01</leafValues></_></weakClassifiers></_></stages>
  <features>
    <_>
      <rect>
        0 1 19 12</rect></_>
    <_>
      <rect>
        1 6 16 7</rect></_>
    <_>
      <rect>
        1 17 24 7</rect></_>
    <_>
      <rect>
        1 19 9 7</rect></_>
    <_>
      <rect>
        1 22 12 5</rect></_>
    <_>
      <rect>
        2 3 20 11</rect></_>
    <_>
      <rect>
        2 9 22 7</rect></_>
    <_>
      <rect>
        2 10 16 10</rect></_>
    <_>
      <rect>
        3 2 22 7</rect></_>
    <_>
      <rect>
        3 17 13 7</rect></_>
    <_>
      <rect>
        4 2 9 6</rect></_>
    <_>
      <rect>
        5 6 8 6</rect></_>
    <_>
      <rect>
        6 6 22 11</rect></_>
    <_>
      <rect>
        6 11 5 4</rect></_>
    <_>
      <rect>
        7 0 14 12</rect></_>
    <_>
      <rect>
        7 2 18 12</rect></_>
    <_>
      <rect>
        7 24 7 5</rect></_>
    <_>
      <rect>
        8 8 22 9</rect></_>
    <_>
      <rect>
        9 5 22 11</rect></_>
    <_>
      <rect>
        9 18 12 6</rect></_>
    <_>
      <rect>
        10 3 8 11</rect></_>
    <_>
      <rect>
        11 14 6 4</rect></_>
    <_>
      <rect>
        12 22 19 6</rect></_>
    <_>
      <rect>
        13 15 19 5</rect></_>
    <_>
      <rect>
        14 10 18 9</rect></_>
    <_>
      <rect>
        14 11 11 7</rect></_>
    <_>
      <rect>
        15 2 12 12</rect></_>
    <_>
      <rect>
        15 5 12 11</rect></_>
    <_>
      <rect>
        16 8 14 6</rect></_>
    <_>
      <rect>
        16 15 12 4</rect></_>
    <_>
      <rect>
        17 10 13 6</rect></_>
    <_>
      <rect>
        17 23 12 3</rect></_>
    <_>
      <rect>
        18 8 15 10</rect></_>
    <_>
      <rect>
        18 14 10 4</rect></_>
    <_>
      <rect>
        18 17 13 4</rect></_>
    <_>
      <rect>
        18 19 7 6</rect></_>
    <_>
      <rect>
        19 10 16 10</rect></_>
    <_>
      <rect>
        20 13 6 5</rect></_>
    <_>
      <rect>
        20 15 9 3</rect></_>
    <_>
      <rect>
        20 18 9 5</rect></_>
    <_>
      <rect>
        21 8 10 3</rect></_>
    <_>
      <rect>
        22 5 14 6</rect></_>
    <_>
      <rect>
        22 11 9 4</rect></_>
    <_>
      <rect>
        22 15 10 2</rect></_>
    <_>
      <rect>
        22 16 10 3</rect></_>
    <_>
      <rect>
        23 5 10 10</rect></_>
    <_>
      <rect>
        23 12 6 3</rect></_>
    <_>
      <rect>
        23 12 8 4</rect></_>
    <_>
      <rect>
        23 13 9 3</rect></_>
    <_>
      <rect>
        23 28 7 3</rect></_>
    <_>
      <rect>
        24 9 8 4</rect></_>
    <_>
      <rect>
        24 10 11 9</rect></_>
    <_>
      <rect>
        24 20 5 1</rect></_>
    <_>
      <rect>
        24 20 6 2</rect></_>
    <_>
      <rect>
        24 24 4 2</rect></_>
    <_>
      <rect>
        25 13 11 4</rect></_>
    <_>
      <rect>
        25 13 13 6</rect></_>
    <_>
      <rect>
        25 16 17 8</rect></_>
    <_>
      <rect>
        25 20 5 2</rect></_>
    <_>
      <rect>
        26 12 9 4</rect></_>
    <_>
      <rect>
        26 13 8 4</rect></_>
    <_>
      <rect>
        26 15 10 5</rect></_>
    <_>
      <rect>
        26 15 18 7</rect></_>
    <_>
      <rect>
        26 19 7 4</rect></_>
    <_>
      <rect>
        27 8 13 8</rect></_>
    <_>
      <rect>
        27 18 8 5</rect></_>
    <_>
      <rect>
        27 20 4 2</rect></_>
    <_>
      <rect>
        27 20 8 2</rect></_>
    <_>
      <rect>
        27 26 9 2</rect></_>
    <_>
      <rect>
        28 11 13 7</rect></_>
    <_>
      <rect>
        28 17 3 2</rect></_>
    <_>
      <rect>
        28 27 2 1</rect></_>
    <_>
      <rect>
        29 6 10 7</rect></_>
    <_>
      <rect>
        29 8 7 6</rect></_>
    <_>
      <rect>
        29 14 12 4</rect></_>
    <_>
      <rect>
        29 18 6 2</rect></_>
    <_>
      <rect>
        29 24 5 2</rect></_>
    <_>
      <rect>
        30 5 14 8</rect></_>
    <_>
      <rect>
        30 8 6 4</rect></_>
    <_>
      <rect>
        30 15 6 3</rect></_>
    <_>
      <rect>
        30 18 2 1</rect></_>
    <_>
      <rect>
        30 19 16 5</rect></_>
    <_>
      <rect>
        30 20 2 2</rect></_>
    <_>
      <rect>
        30 20 5 2</rect></_>
    <_>
      <rect>
        30 20 8 3</rect></_>
    <_>
      <rect>
        30 27 3 1</rect></_>
    <_>
      <rect>
        31 7 6 3</rect></_>
    <_>
      <rect>
        31 9 6 5</rect></_>
    <_>
      <rect>
        31 13 5 1</rect></_>
    <_>
      <rect>
        31 15 7 3</rect></_>
    <_>
      <rect>
        31 16 5 4</rect></_>
    <_>
      <rect>
        31 28 5 2</rect></_>
    <_>
      <rect>
        32 11 4 4</rect></_>
    <_>
      <rect>
        32 14 8 4</rect></_>
    <_>
      <rect>
        32 14 9 3</rect></_>
    <_>
      <rect>
        32 15 2 1</rect></_>
    <_>
      <rect>
        32 16 8 3</rect></_>
    <_>
      <rect>
        32 18 3 2</rect></_>
    <_>
      <rect>
        32 20 4 2</rect></_>
    <_>
      <rect>
        32 23 4 1</rect></_>
    <_>
      <rect>
        32 25 6 3</rect></_>
    <_>
      <rect>
        32 27 3 1</rect></_>
    <_>
      <rect>
        32 28 5 1</rect></_>
    <_>
      <rect>
        33 13 4 3</rect></_>
    <_>
      <rect>
        33 15 4 1</rect></_>
    <_>
      <rect>
        33 15 5 2</rect></_>
    <_>
      <rect>
        33 19 4 2</rect></_>
    <_>
      <rect>
        33 20 8 2</rect></_>
    <_>
      <rect>
        33 21 5 1</rect></_>
    <_>
      <rect>
        33 29 2 1</rect></_>
    <_>
      <rect>
        34 4 14 11</rect></_>
    <_>
      <rect>
        34 13 6 2</rect></_>
    <_>
      <rect>
        34 16 2 2</rect></_>
    <_>
      <rect>
        34 16 15 7</rect></_>
    <_>
      <rect>
        34 17 4 4</rect></_>
    <_>
      <rect>
        34 18 2 3</rect></_>
    <_>
      <rect>
        34 18 3 1</rect></_>
    <_>
      <rect>
        34 18 4 2</rect></_>
    <_>
      <rect>
        34 19 4 3</rect></_>
    <_>
      <rect>
        34 19 6 3</rect></_>
    <_>
      <rect>
        34 23 7 2</rect></_>
    <_>
      <rect>
        34 29 5 1</rect></_>
    <_>
      <rect>
        35 10 2 2</rect></_>
    <_>
      <rect>
        35 10 14 10</rect></_>
    <_>
      <rect>
        35 13 8 8</rect></_>
    <_>
      <rect>
        35 14 9 3</rect></_>
    <_>
      <rect>
        35 15 3 2</rect></_>
    <_>
      <rect>
        35 19 1 1</rect></_>
    <_>
      <rect>
        35 19 2 1</rect></_>
    <_>
      <rect>
        35 23 2 1</rect></_>
    <_>
      <rect>
        35 24 4 1</rect></_>
    <_>
      <rect>
        35 27 4 1</rect></_>
    <_>
      <rect>
        36 11 6 5</rect></_>
    <_>
      <rect>
        36 16 2 2</rect></_>
    <_>
      <rect>
        36 16 8 3</rect></_>
    <_>
      <rect>
        36 17 2 1</rect></_>
    <_>
      <rect>
        36 17 3 1</rect></_>
    <_>
      <rect>
        36 18 2 1</rect></_>
    <_>
      <rect>
        36 21 3 1</rect></_>
    <_>
      <rect>
        36 22 7 2</rect></_>
    <_>
      <rect>
        36 23 2 1</rect></_>
    <_>
      <rect>
        36 24 3 1</rect></_>
    <_>
      <rect>
        36 24 6 2</rect></_>
    <_>
      <rect>
        36 28 2 1</rect></_>
    <_>
      <rect>
        37 17 2 2</rect></_>
    <_>
      <rect>
        37 18 3 2</rect></_>
    <_>
      <rect>
        37 18 8 3</rect></_>
    <_>
      <rect>
        37 24 5 2</rect></_>
    <_>
      <rect>
        37 25 6 2</rect></_>
    <_>
      <rect>
        38 12 4 4</rect></_>
    <_>
      <rect>
        38 15 1 2</rect></_>
    <_>
      <rect>
        38 18 1 1</rect></_>
    <_>
      <rect>
        38 25 3 1</rect></_>
    <_>
      <rect>
        39 16 1 2</rect></_>
    <_>
      <rect>
        39 17 1 3</rect></_>
    <_>
      <rect>
        39 17 5 2</rect></_>
    <_>
      <rect>
        39 19 1 1</rect></_>
    <_>
      <rect>
        39 19 4 2</rect></_>
    <_>
      <rect>
        39 23 2 1</rect></_>
    <_>
      <rect>
        39 26 5 2</rect></_>
    <_>
      <rect>
        39 26 5 3</rect></_>
    <_>
      <rect>
        39 32 5 2</rect></_>
    <_>
      <rect>
        40 14 5 3</rect></_>
    <_>
      <rect>
        40 17 2 1</rect></_>
    <_>
      <rect>
        40 27 6 2</rect></_>
    <_>
      <rect>
        40 29 2 1</rect></_>
    <_>
      <rect>
        41 7 12 6</rect></_>
    <_>
      <rect>
        41 9 9 6</rect></_>
    <_>
      <rect>
        41 15 3 1</rect></_>
    <_>
      <rect>
        41 18 4 2</rect></_>
    <_>
      <rect>
        41 20 4 2</rect></_>
    <_>
      <rect>
        41 26 5 1</rect></_>
    <_>
      <rect>
        42 23 4 1</rect></_>
    <_>
      <rect>
        43 24 2 1</rect></_>
    <_>
      <rect>
        43 30 3 2</rect></_>
    <_>
      <rect>
        45 11 4 2</rect></_>
    <_>
      <rect>
        49 16 10 7</rect></_>
    <_>
      <rect>
        59 17 6 6</rect></_>
    <_>
      <rect>
        64 12 5 9</rect></_></features></cascade>
</opencv_storage>
