<?xml version="1.0"?>
<opencv_storage>
<cascade>
  <stageType>BOOST</stageType>
  <featureType>LBP</featureType>
  <height>40</height>
  <width>80</width>
  <stageParams>
    <boostType>GAB</boostType>
    <minHitRate>9.9900001287460327e-01</minHitRate>
    <maxFalseAlarm>5.0000000000000000e-01</maxFalseAlarm>
    <weightTrimRate>9.4999999999999996e-01</weightTrimRate>
    <maxDepth>1</maxDepth>
    <maxWeakCount>100</maxWeakCount></stageParams>
  <featureParams>
    <maxCatCount>256</maxCatCount>
    <featSize>1</featSize></featureParams>
  <stageNum>20</stageNum>
  <stages>
    <!-- stage 0 -->
    <_>
      <maxWeakCount>4</maxWeakCount>
      <stageThreshold>-1.3143602609634399e+00</stageThreshold>
      <weakClassifiers>
        <_>
          <internalNodes>
            0 -1 20 -83298088 -16126134 -939463548 2130840584
            -1708200246 1595899900 -1925018482 -1693449846</internalNodes>
          <leafValues>
            -6.9944339990615845e-01 7.3232799768447876e-01</leafValues></_>
        <_>
          <internalNodes>
            0 -1 53 -779026982 -216956920 1611137297 1426133073
            -1870626054 -1442283518 -1073690469 436797711</internalNodes>
          <leafValues>
            -6.4408427476882935e-01 7.0173275470733643e-01</leafValues></_>
        <_>
          <internalNodes>
            0 -1 35 -1013399336 419430408 1073742169 285347840
            -2147249990 -1442840576 -1744828245 -1711275862</internalNodes>
          <leafValues>
            -7.3912346363067627e-01 5.9324747323989868e-01</leafValues></_>
        <_>
          <internalNodes>
            0 -1 113 -3864356 2074090244 226586611 1025056001
            -1725240338 994668286 20489215 -1145336402</internalNodes>
          <leafValues>
            -5.7752615213394165e-01 7.5789034366607666e-01</leafValues></_></weakClassifiers></_>
    <!-- stage 1 -->
    <_>
      <maxWeakCount>5</maxWeakCount>
      <stageThreshold>-3.7799525260925293e-01</stageThreshold>
      <weakClassifiers>
        <_>
          <internalNodes>
            0 -1 138 -529693536 -781763123 1979000391 862432291
            -1330734968 1380115399 524201455 397096331</internalNodes>
          <leafValues>
            -5.8458960056304932e-01 7.4675971269607544e-01</leafValues></_>
        <_>
          <internalNodes>
            0 -1 116 2046988420 -1257242440 76052488 421468405 53387146
            318833479 86558379 -1693776305</internalNodes>
          <leafValues>
            -5.1672738790512085e-01 6.7968535423278809e-01</leafValues></_>
        <_>
          <internalNodes>
            0 -1 124 -1247548772 -585088973 43846044 388042741
            -2131696142 -1877828495 455011231 -1692463713</internalNodes>
          <leafValues>
            -4.9675679206848145e-01 7.6056319475173950e-01</leafValues></_>
        <_>
          <internalNodes>
            0 -1 86 -539372348 -646149448 308328961 1498529641
            -1907502952 -17940966 1178110603 940284939</internalNodes>
          <leafValues>
            -6.0610026121139526e-01 7.1169185638427734e-01</leafValues></_>
        <_>
          <internalNodes>
            0 -1 37 1933885612 -251101052 289407123 1494228992
            -2145336438 -1979154304 53467 170860778</internalNodes>
          <leafValues>
            -6.4273548126220703e-01 6.2976604700088501e-01</leafValues></_></weakClassifiers></_>
    <!-- stage 2 -->
    <_>
      <maxWeakCount>5</maxWeakCount>
      <stageThreshold>-5.0899463891983032e-01</stageThreshold>
      <weakClassifiers>
        <_>
          <internalNodes>
            0 -1 22 -15679344 -45089112 543880 2115612720 -637604614
            2080374782 -2063432470 -774650630</internalNodes>
          <leafValues>
            -5.0091075897216797e-01 6.4224547147750854e-01</leafValues></_>
        <_>
          <internalNodes>
            0 -1 2 -22483974 -955797778 -25819393 -2127454604 -870253830
            -225382925 -295513613 1597211635</internalNodes>
          <leafValues>
            -5.0108516216278076e-01 5.7462990283966064e-01</leafValues></_>
        <_>
          <internalNodes>
            0 -1 28 -769196326 -685562866 732721737 1124798012 618069224
            -1673116506 1146042047 -347350033</internalNodes>
          <leafValues>
            -5.2239423990249634e-01 6.0819578170776367e-01</leafValues></_>
        <_>
          <internalNodes>
            0 -1 70 -787291698 294993987 419450963 1090736403
            -1876272981 -1669300223 64491 51544193</internalNodes>
          <leafValues>
            -6.7116463184356689e-01 4.5558238029479980e-01</leafValues></_>
        <_>
          <internalNodes>
            0 -1 46 -308225800 -68207376 -1098318123 1932732537
            784268488 -574849838 -943739673 -635534963</internalNodes>
          <leafValues>
            -4.9645057320594788e-01 6.1084514856338501e-01</leafValues></_></weakClassifiers></_>
    <!-- stage 3 -->
    <_>
      <maxWeakCount>7</maxWeakCount>
      <stageThreshold>-4.2701110243797302e-01</stageThreshold>
      <weakClassifiers>
        <_>
          <internalNodes>
            0 -1 49 -720855844 -4895686 -1825636867 2065841208
            1026305256 -4826096 264028155 -1155004272</internalNodes>
          <leafValues>
            -5.0965249538421631e-01 6.1367839574813843e-01</leafValues></_>
        <_>
          <internalNodes>
            0 -1 131 -558988640 -139778115 586752082 1364424179
            -1082675320 -1966938163 53510634 -1423306614</internalNodes>
          <leafValues>
            -4.0823513269424438e-01 6.9766825437545776e-01</leafValues></_>
        <_>
          <internalNodes>
            0 -1 143 -686505768 -619380736 285217165 1562181657
            -1728020350 -922222424 167939227 461574346</internalNodes>
          <leafValues>
            -5.1751548051834106e-01 5.7747089862823486e-01</leafValues></_>
        <_>
          <internalNodes>
            0 -1 18 1965750008 1469006872 -1325350463 989872128
            -2142691170 -89128829 -2140633444 -370566479</internalNodes>
          <leafValues>
            -6.3617742061614990e-01 4.9636536836624146e-01</leafValues></_>
        <_>
          <internalNodes>
            0 -1 42 -94381415 1425000474 -1980798701 522521632 255293630
            -612368673 -2013599315 -846349180</internalNodes>
          <leafValues>
            -5.2929639816284180e-01 6.0936123132705688e-01</leafValues></_>
        <_>
          <internalNodes>
            0 -1 137 -601454592 -290532320 1258271329 -1443129988
            524672251 -318808994 224941555 -1843449453</internalNodes>
          <leafValues>
            -5.4620987176895142e-01 6.0700869560241699e-01</leafValues></_>
        <_>
          <internalNodes>
            0 -1 72 1895825628 -1110966144 268473371 1028685825 32907
            -1416986492 -1610610165 -1685452656</internalNodes>
          <leafValues>
            -6.1050903797149658e-01 5.1918596029281616e-01</leafValues></_></weakClassifiers></_>
    <!-- stage 4 -->
    <_>
      <maxWeakCount>8</maxWeakCount>
      <stageThreshold>-8.2585555315017700e-01</stageThreshold>
      <weakClassifiers>
        <_>
          <internalNodes>
            0 -1 39 1585432584 -59449640 -1915367655 1566297163
            -1118363752 -1896165649 494521484 -789579521</internalNodes>
          <leafValues>
            -3.5919055342674255e-01 6.0873883962631226e-01</leafValues></_>
        <_>
          <internalNodes>
            0 -1 133 -681848862 -674273789 1188751024 -653803049
            -2016505889 -145797163 916714238 -787746305</internalNodes>
          <leafValues>
            -3.5587984323501587e-01 6.7418795824050903e-01</leafValues></_>
        <_>
          <internalNodes>
            0 -1 104 -47759205 -263778048 328964339 506015727
            -1251678008 873468118 -1783198977 -1958508305</internalNodes>
          <leafValues>
            -3.9990895986557007e-01 6.4428365230560303e-01</leafValues></_>
        <_>
          <internalNodes>
            0 -1 17 -707863714 1396932742 -2013232882 -1723792586
            -2071879270 1753219610 1317181577 -81677838</internalNodes>
          <leafValues>
            -6.1489439010620117e-01 4.5186883211135864e-01</leafValues></_>
        <_>
          <internalNodes>
            0 -1 93 -1713299304 1595605024 134348952 -653057023
            1344968842 1753939968 -1862163537 961278232</internalNodes>
          <leafValues>
            -6.5117478370666504e-01 4.3014639616012573e-01</leafValues></_>
        <_>
          <internalNodes>
            0 -1 107 -542524774 -1146005652 1253714908 -613856615
            -1392321814 454041396 1060951226 -74189173</internalNodes>
          <leafValues>
            -4.4089367985725403e-01 6.6425883769989014e-01</leafValues></_>
        <_>
          <internalNodes>
            0 -1 135 1060690609 2101435592 1592680049 536681556
            261789850 -1611882898 101834235 -1693741813</internalNodes>
          <leafValues>
            -4.0786981582641602e-01 6.7212301492691040e-01</leafValues></_>
        <_>
          <internalNodes>
            0 -1 100 77086856 -648396598 50335746 -733786096 -704554341
            -1677623264 134299819 286824475</internalNodes>
          <leafValues>
            -7.7678775787353516e-01 4.0595927834510803e-01</leafValues></_></weakClassifiers></_>
    <!-- stage 5 -->
    <_>
      <maxWeakCount>9</maxWeakCount>
      <stageThreshold>-8.8666367530822754e-01</stageThreshold>
      <weakClassifiers>
        <_>
          <internalNodes>
            0 -1 119 287854744 -750190448 303038597 486883352
            -1711243032 -1710620640 136364378 219152465</internalNodes>
          <leafValues>
            -5.7834756374359131e-01 4.8278623819351196e-01</leafValues></_>
        <_>
          <internalNodes>
            0 -1 6 -753930230 -616230898 -1761537694 -242146693
            -938747204 1363738627 -1113225205 916051099</internalNodes>
          <leafValues>
            -5.2508789300918579e-01 4.3956398963928223e-01</leafValues></_>
        <_>
          <internalNodes>
            0 -1 136 -772423125 -780812293 1929165803 1403193659
            -305022558 1607461374 -1822441489 400466525</internalNodes>
          <leafValues>
            -4.8324090242385864e-01 5.2525955438613892e-01</leafValues></_>
        <_>
          <internalNodes>
            0 -1 84 1917276700 -129787200 -745013213 -1849682419
            -511633188 -1190068151 1266712973 -267685373</internalNodes>
          <leafValues>
            -5.3327846527099609e-01 4.5994129776954651e-01</leafValues></_>
        <_>
          <internalNodes>
            0 -1 75 1342432495 1502004993 1896067073 1904350309
            151171214 4325971 33590003 1430178460</internalNodes>
          <leafValues>
            -5.2524548768997192e-01 4.6249496936798096e-01</leafValues></_>
        <_>
          <internalNodes>
            0 -1 61 1372640744 -719503343 -1827665448 923287764
            -1981701902 68173824 270418787 1783251403</internalNodes>
          <leafValues>
            -6.5867120027542114e-01 3.6369365453720093e-01</leafValues></_>
        <_>
          <internalNodes>
            0 -1 45 2080143740 2045567974 157243129 316303343
            -1261111826 -1116471411 1841582563 -855060851</internalNodes>
          <leafValues>
            -4.6474927663803101e-01 5.4528844356536865e-01</leafValues></_>
        <_>
          <internalNodes>
            0 -1 159 -912846548 -1799241627 1074402345 1543618563
            -2004314871 -2004246391 436488714 1147112239</internalNodes>
          <leafValues>
            -5.2931421995162964e-01 4.9249330163002014e-01</leafValues></_>
        <_>
          <internalNodes>
            0 -1 14 -2122079354 -746388416 1359021514 1543537010
            -402079940 -1862270684 204062940 -612914757</internalNodes>
          <leafValues>
            -5.9547454118728638e-01 4.6527931094169617e-01</leafValues></_></weakClassifiers></_>
    <!-- stage 6 -->
    <_>
      <maxWeakCount>9</maxWeakCount>
      <stageThreshold>-1.4927631616592407e+00</stageThreshold>
      <weakClassifiers>
        <_>
          <internalNodes>
            0 -1 73 1110380 1739670016 176155 28576848 268746762
            672137600 674255059 321155316</internalNodes>
          <leafValues>
            -7.5732219219207764e-01 4.2689198255538940e-01</leafValues></_>
        <_>
          <internalNodes>
            0 -1 43 -170011153 2030436243 1342296535 -821198391
            -1675494965 -1615356942 -822945803 -1616012351</internalNodes>
          <leafValues>
            -3.1404033303260803e-01 6.6900300979614258e-01</leafValues></_>
        <_>
          <internalNodes>
            0 -1 83 -1634676527 -47745592 -1235583879 1583314299
            -1145389846 -814841628 186267551 -1693970219</internalNodes>
          <leafValues>
            -3.7328857183456421e-01 6.0098713636398315e-01</leafValues></_>
        <_>
          <internalNodes>
            0 -1 5 1564496586 -686595887 16778314 1695580249 -830307957
            1527914516 2025883942 1996611679</internalNodes>
          <leafValues>
            -6.2523877620697021e-01 3.7951952219009399e-01</leafValues></_>
        <_>
          <internalNodes>
            0 -1 92 1264971918 -505001345 1102308287 1457212366
            -1166429518 -2006983892 707511973 -956103573</internalNodes>
          <leafValues>
            -4.4084537029266357e-01 5.2064043283462524e-01</leafValues></_>
        <_>
          <internalNodes>
            0 -1 149 -134184240 -909962975 8634564 -2147286999 19128675
            134415363 1108541586 354366366</internalNodes>
          <leafValues>
            -6.7948043346405029e-01 3.6115494370460510e-01</leafValues></_>
        <_>
          <internalNodes>
            0 -1 34 -147318374 -1625227268 452900991 128739568
            -1214153313 -824410378 -1951408130 -2085677569</internalNodes>
          <leafValues>
            -4.5377987623214722e-01 5.6431174278259277e-01</leafValues></_>
        <_>
          <internalNodes>
            0 -1 60 -523914762 1947296248 1074856341 -1757834239
            1079083713 -1038909278 1074495983 864026829</internalNodes>
          <leafValues>
            -5.4639977216720581e-01 4.6847811341285706e-01</leafValues></_>
        <_>
          <internalNodes>
            0 -1 69 554725056 -1047330432 -2129444719 -172916461
            -1761378144 -1432141694 1220576703 -1356381471</internalNodes>
          <leafValues>
            -5.3197562694549561e-01 4.8716253042221069e-01</leafValues></_></weakClassifiers></_>
    <!-- stage 7 -->
    <_>
      <maxWeakCount>8</maxWeakCount>
      <stageThreshold>-8.3238691091537476e-01</stageThreshold>
      <weakClassifiers>
        <_>
          <internalNodes>
            0 -1 99 1514524194 -619097880 -11280643 -717282855
            -1160058166 -1392789562 279637754 58876876</internalNodes>
          <leafValues>
            -3.5849055647850037e-01 5.5140185356140137e-01</leafValues></_>
        <_>
          <internalNodes>
            0 -1 118 -15544936 -282256143 1266483071 1493916981
            -1237677830 -1079823158 412792283 -1894116183</internalNodes>
          <leafValues>
            -3.9700305461883545e-01 5.4703199863433838e-01</leafValues></_>
        <_>
          <internalNodes>
            0 -1 103 -952411958 -4445069 -1463965227 1903530097
            -1085292352 -783414563 -845700992 -913338117</internalNodes>
          <leafValues>
            -3.7489053606987000e-01 5.9054774045944214e-01</leafValues></_>
        <_>
          <internalNodes>
            0 -1 7 -1023168866 -244678456 366018903 1344406213
            1477410891 707035922 -1709728985 1713568406</internalNodes>
          <leafValues>
            -5.9553253650665283e-01 3.8484308123588562e-01</leafValues></_>
        <_>
          <internalNodes>
            0 -1 56 -620629958 -150321919 541065 1368203264 -14643040
            -939523552 569485 -1186001071</internalNodes>
          <leafValues>
            -4.6940955519676208e-01 5.4192429780960083e-01</leafValues></_>
        <_>
          <internalNodes>
            0 -1 31 2051193482 1497564224 16875796 629376346 -2143643221
            285802634 1258859603 -1937127157</internalNodes>
          <leafValues>
            -6.0562372207641602e-01 4.1935712099075317e-01</leafValues></_>
        <_>
          <internalNodes>
            0 -1 115 -555567868 1365311019 -671459954 -786334082
            -1905639796 367517542 2004326824 -1705261569</internalNodes>
          <leafValues>
            -4.6496167778968811e-01 5.7472771406173706e-01</leafValues></_>
        <_>
          <internalNodes>
            0 -1 58 -1245866855 -1276167452 535314865 1353931425
            -749545854 -434208815 102262163 -854880820</internalNodes>
          <leafValues>
            -3.8584104180335999e-01 6.7286938428878784e-01</leafValues></_></weakClassifiers></_>
    <!-- stage 8 -->
    <_>
      <maxWeakCount>8</maxWeakCount>
      <stageThreshold>-8.7927496433258057e-01</stageThreshold>
      <weakClassifiers>
        <_>
          <internalNodes>
            0 -1 121 -16872312 2095224875 77620288 154779375 444481027
            976961067 1444093150 389258895</internalNodes>
          <leafValues>
            -4.6004319190979004e-01 5.3913807868957520e-01</leafValues></_>
        <_>
          <internalNodes>
            0 -1 67 -74329648 -247300015 -259964836 -578221040
            -1573947206 -999587830 1509953552 -1193766660</internalNodes>
          <leafValues>
            -6.3415920734405518e-01 3.5872370004653931e-01</leafValues></_>
        <_>
          <internalNodes>
            0 -1 150 -1064585490 -1035773272 448688051 1370387455
            -339140678 -1918070980 1599173503 -677969125</internalNodes>
          <leafValues>
            -3.9104095101356506e-01 6.0808813571929932e-01</leafValues></_>
        <_>
          <internalNodes>
            0 -1 105 -1814325038 -793378219 -1307885907 1376201367
            -1863189526 420941861 -1312941009 -614471681</internalNodes>
          <leafValues>
            -4.3382665514945984e-01 5.2832639217376709e-01</leafValues></_>
        <_>
          <internalNodes>
            0 -1 68 -41497627 1400357397 271859807 -1614671743
            -1600929725 1627455697 -2003259213 -39665528</internalNodes>
          <leafValues>
            -5.1107561588287354e-01 5.1038700342178345e-01</leafValues></_>
        <_>
          <internalNodes>
            0 -1 141 -619847672 2097283072 272634287 352948737
            -799006504 -2013265784 1610861079 496722379</internalNodes>
          <leafValues>
            -5.3742784261703491e-01 4.8522245883941650e-01</leafValues></_>
        <_>
          <internalNodes>
            0 -1 147 -807143200 -135398778 241694707 -503547977
            2117197546 2054585798 628614847 -1691932691</internalNodes>
          <leafValues>
            -4.5707052946090698e-01 5.8261173963546753e-01</leafValues></_>
        <_>
          <internalNodes>
            0 -1 82 -1720164879 1600141285 2143092731 1945721440
            -1213309240 1340076784 108837336 2021304284</internalNodes>
          <leafValues>
            -4.4582426548004150e-01 6.2379276752471924e-01</leafValues></_></weakClassifiers></_>
    <!-- stage 9 -->
    <_>
      <maxWeakCount>10</maxWeakCount>
      <stageThreshold>-8.3839714527130127e-01</stageThreshold>
      <weakClassifiers>
        <_>
          <internalNodes>
            0 -1 134 2112339104 1979653640 839612987 66793179 487837608
            352417597 328899965 79663031</internalNodes>
          <leafValues>
            -3.7051793932914734e-01 5.3369760513305664e-01</leafValues></_>
        <_>
          <internalNodes>
            0 -1 110 -652357128 -134116448 -1879028477 355553320
            1208017715 143368198 -787933808 1346096555</internalNodes>
          <leafValues>
            -5.0827074050903320e-01 4.1179808974266052e-01</leafValues></_>
        <_>
          <internalNodes>
            0 -1 50 -34349873 -935662000 336840535 1460213469 1177079294
            167615211 375828219 -1494889339</internalNodes>
          <leafValues>
            -3.8231605291366577e-01 5.7842570543289185e-01</leafValues></_>
        <_>
          <internalNodes>
            0 -1 123 498870202 826642465 1091493948 1410203668
            -1879000558 671656576 151564578 1596680667</internalNodes>
          <leafValues>
            -6.2336683273315430e-01 3.5744780302047729e-01</leafValues></_>
        <_>
          <internalNodes>
            0 -1 33 -1283602977 -552295858 -1930768925 -648946266
            939458014 -82675825 -1802875145 -1008809537</internalNodes>
          <leafValues>
            -3.3868402242660522e-01 6.5849894285202026e-01</leafValues></_>
        <_>
          <internalNodes>
            0 -1 142 1597559673 1696775200 -1930650497 1541102901
            -1078742390 -1080111667 -165819457 454215131</internalNodes>
          <leafValues>
            -4.1326901316642761e-01 5.4718166589736938e-01</leafValues></_>
        <_>
          <internalNodes>
            0 -1 85 -715009143 1401995336 1502087120 -182696255
            1544596475 -1717565310 674350 -1219698448</internalNodes>
          <leafValues>
            -4.5553642511367798e-01 5.4070687294006348e-01</leafValues></_>
        <_>
          <internalNodes>
            0 -1 112 -784082786 188743880 319095192 -1878925312
            -794459856 -2020974591 813696704 -783335255</internalNodes>
          <leafValues>
            -5.5155563354492188e-01 4.4699758291244507e-01</leafValues></_>
        <_>
          <internalNodes>
            0 -1 54 -233570823 820246568 1850703747 320955941
            -1695503112 -1098907652 -1637165081 -53602764</internalNodes>
          <leafValues>
            -4.3914014101028442e-01 5.7034987211227417e-01</leafValues></_>
        <_>
          <internalNodes>
            0 -1 38 1776419222 -811974358 285212690 1570972344
            -536837178 -1475304446 -2134368165 673360766</internalNodes>
          <leafValues>
            -6.1454856395721436e-01 4.0755927562713623e-01</leafValues></_></weakClassifiers></_>
    <!-- stage 10 -->
    <_>
      <maxWeakCount>9</maxWeakCount>
      <stageThreshold>-7.5057631731033325e-01</stageThreshold>
      <weakClassifiers>
        <_>
          <internalNodes>
            0 -1 109 665470192 1031428248 955810239 2108193916 238968236
            -1231258024 145419706 252320856</internalNodes>
          <leafValues>
            -4.3040683865547180e-01 5.3045010566711426e-01</leafValues></_>
        <_>
          <internalNodes>
            0 -1 71 572481706 -115502004 -1476120237 288427429 295764387
            -1333591667 185074623 1111146736</internalNodes>
          <leafValues>
            -6.1616057157516479e-01 3.4023281931877136e-01</leafValues></_>
        <_>
          <internalNodes>
            0 -1 10 -292650330 1409417233 131073 -585727996 -939351933
            -2146369534 169213967 1460785347</internalNodes>
          <leafValues>
            -5.7161289453506470e-01 3.8614168763160706e-01</leafValues></_>
        <_>
          <internalNodes>
            0 -1 125 -743901479 -1686256948 786423799 353850449
            1198408906 -635718462 284950781 -1622259381</internalNodes>
          <leafValues>
            -3.6348018050193787e-01 6.6839367151260376e-01</leafValues></_>
        <_>
          <internalNodes>
            0 -1 136 -146431741 1427615747 28385435 536940545 1321374085
            1078067200 474075787 332079437</internalNodes>
          <leafValues>
            -5.8143401145935059e-01 3.8937562704086304e-01</leafValues></_>
        <_>
          <internalNodes>
            0 -1 129 1179631738 1978659458 2147411718 1367332327
            -1623201217 -1081411137 -10503282 -746340114</internalNodes>
          <leafValues>
            -4.7090306878089905e-01 5.4429292678833008e-01</leafValues></_>
        <_>
          <internalNodes>
            0 -1 81 -1518071336 1409913808 17851227 1532387460
            -1878337368 -2012676060 163998 457916813</internalNodes>
          <leafValues>
            -5.2806454896926880e-01 4.5490971207618713e-01</leafValues></_>
        <_>
          <internalNodes>
            0 -1 4 -768618289 -134676542 -1410363487 -1314177384
            -2055870477 -1639606716 1693959919 1733252349</internalNodes>
          <leafValues>
            -4.4409555196762085e-01 5.7209140062332153e-01</leafValues></_>
        <_>
          <internalNodes>
            0 -1 40 2116731074 -2001485815 -1728024376 1493303873
            297894038 998844434 -1340060974 -1819506558</internalNodes>
          <leafValues>
            -6.0239785909652710e-01 4.4900631904602051e-01</leafValues></_></weakClassifiers></_>
    <!-- stage 11 -->
    <_>
      <maxWeakCount>9</maxWeakCount>
      <stageThreshold>-7.5688475370407104e-01</stageThreshold>
      <weakClassifiers>
        <_>
          <internalNodes>
            0 -1 132 -1048502268 -2117987542 1074335808 550060633
            -125814655 -687276032 809713818 856361870</internalNodes>
          <leafValues>
            -5.4682779312133789e-01 4.5784083008766174e-01</leafValues></_>
        <_>
          <internalNodes>
            0 -1 111 -1827530664 -40040104 -771652305 1493659797
            -1593261365 -1618472447 -1978349136 -1743124328</internalNodes>
          <leafValues>
            -4.7020936012268066e-01 4.0955257415771484e-01</leafValues></_>
        <_>
          <internalNodes>
            0 -1 15 -13656050 1521648777 1342242823 -1018937060
            1102512141 1510117392 -1853599485 1901555975</internalNodes>
          <leafValues>
            -4.4220513105392456e-01 4.7708943486213684e-01</leafValues></_>
        <_>
          <internalNodes>
            0 -1 161 -619335480 -786853799 1078133778 462094600
            -1157453182 -1862139703 9159640 2018204657</internalNodes>
          <leafValues>
            -5.1449239253997803e-01 4.2829981446266174e-01</leafValues></_>
        <_>
          <internalNodes>
            0 -1 122 -1827556920 -1067755517 -754777592 1210466393
            333378258 55910417 696762539 -350502417</internalNodes>
          <leafValues>
            -4.8563346266746521e-01 4.5812645554542542e-01</leafValues></_>
        <_>
          <internalNodes>
            0 -1 24 -1718362136 -1405766 502742842 -1057378568 498073519
            -1644267660 1542913982 -719061798</internalNodes>
          <leafValues>
            -4.5460540056228638e-01 5.0576663017272949e-01</leafValues></_>
        <_>
          <internalNodes>
            0 -1 90 -1716895253 -448167040 1074243969 1954906131
            -1994866482 -91676666 1611242439 -1078180856</internalNodes>
          <leafValues>
            -4.8519912362098694e-01 5.0936502218246460e-01</leafValues></_>
        <_>
          <internalNodes>
            0 -1 158 -242469564 -747552053 -1945091595 1367411020
            1367404732 -2113369981 -1366239094 436373137</internalNodes>
          <leafValues>
            -5.4650187492370605e-01 4.2283165454864502e-01</leafValues></_>
        <_>
          <internalNodes>
            0 -1 8 -535854130 274879506 554713504 -1606313966
            -2113223442 393354 -2003727695 1898373603</internalNodes>
          <leafValues>
            -5.9862971305847168e-01 3.9474454522132874e-01</leafValues></_></weakClassifiers></_>
    <!-- stage 12 -->
    <_>
      <maxWeakCount>9</maxWeakCount>
      <stageThreshold>-5.0310587882995605e-01</stageThreshold>
      <weakClassifiers>
        <_>
          <internalNodes>
            0 -1 59 -1632279368 989790104 -37810447 471776752 1565384072
            -100663587 -63351783 1420478650</internalNodes>
          <leafValues>
            -3.7263157963752747e-01 5.1288890838623047e-01</leafValues></_>
        <_>
          <internalNodes>
            0 -1 97 327829644 1488163332 -520009329 1439527189
            -368983622 -167575534 411605970 -666236660</internalNodes>
          <leafValues>
            -4.8179492354393005e-01 3.9765077829360962e-01</leafValues></_>
        <_>
          <internalNodes>
            0 -1 120 -1076533541 -552316783 -84085135 387799677
            1022299342 -1354858962 94040077 1535815004</internalNodes>
          <leafValues>
            -4.0695950388908386e-01 5.0150430202484131e-01</leafValues></_>
        <_>
          <internalNodes>
            0 -1 19 1342812570 -749662078 1091143840 -1559691257
            403374540 546996232 445770621 190784267</internalNodes>
          <leafValues>
            -6.1073261499404907e-01 3.4044733643531799e-01</leafValues></_>
        <_>
          <internalNodes>
            0 -1 44 -1807880431 395840682 1849687981 -35841787
            1235136427 370302658 473625743 -571636042</internalNodes>
          <leafValues>
            -3.5646715760231018e-01 6.1622434854507446e-01</leafValues></_>
        <_>
          <internalNodes>
            0 -1 1 -934818637 2131887734 276824065 729813009 -929912744
            541099528 -2118442869 1845997631</internalNodes>
          <leafValues>
            -5.2469044923782349e-01 4.3602430820465088e-01</leafValues></_>
        <_>
          <internalNodes>
            0 -1 139 298926981 -544234999 339828849 829489293 1074176160
            17558281 -1485733694 567148939</internalNodes>
          <leafValues>
            -5.9407931566238403e-01 4.0942767262458801e-01</leafValues></_>
        <_>
          <internalNodes>
            0 -1 108 -553920392 -634700080 -2022466543 392535856
            1324277415 2092957562 1029377465 -1958060977</internalNodes>
          <leafValues>
            -4.6541032195091248e-01 5.5420804023742676e-01</leafValues></_>
        <_>
          <internalNodes>
            0 -1 51 -1478300831 -646720520 1921661681 -42402059
            -1582062615 -1300501671 388708555 -805348201</internalNodes>
          <leafValues>
            -3.6720091104507446e-01 6.5020042657852173e-01</leafValues></_></weakClassifiers></_>
    <!-- stage 13 -->
    <_>
      <maxWeakCount>10</maxWeakCount>
      <stageThreshold>-7.9029762744903564e-01</stageThreshold>
      <weakClassifiers>
        <_>
          <internalNodes>
            0 -1 106 -483934072 -1858655256 1922402720 1465741832
            -1767372150 825654649 -1237177480 797941759</internalNodes>
          <leafValues>
            -2.7958834171295166e-01 5.5358898639678955e-01</leafValues></_>
        <_>
          <internalNodes>
            0 -1 66 -1157496486 -1646685486 1660980370 1896108096
            2013685943 135823616 -1962366993 2140854464</internalNodes>
          <leafValues>
            -5.1441842317581177e-01 3.7833750247955322e-01</leafValues></_>
        <_>
          <internalNodes>
            0 -1 122 1966080670 1621708826 3277506 1309544517 562082018
            24138803 604848415 -1104455221</internalNodes>
          <leafValues>
            -5.5414050817489624e-01 3.4626442193984985e-01</leafValues></_>
        <_>
          <internalNodes>
            0 -1 117 -216413189 1499669076 1346396887 1400455865
            -1622619447 1293164313 1054383710 -538984035</internalNodes>
          <leafValues>
            -2.5953379273414612e-01 7.4296891689300537e-01</leafValues></_>
        <_>
          <internalNodes>
            0 -1 0 -389364146 -757694430 37962 -65776957 1377009817
            864125059 8409794 77292273</internalNodes>
          <leafValues>
            -5.5989462137222290e-01 3.7615635991096497e-01</leafValues></_>
        <_>
          <internalNodes>
            0 -1 12 -220132150 1315636006 52560896 1725125216
            -1735684094 -1995825133 -1509490421 1364718243</internalNodes>
          <leafValues>
            -5.7757216691970825e-01 3.8862872123718262e-01</leafValues></_>
        <_>
          <internalNodes>
            0 -1 80 447797501 1295862008 50287603 286088265 -1619610918
            801818231 389233395 -552940199</internalNodes>
          <leafValues>
            -3.9846101403236389e-01 6.2671136856079102e-01</leafValues></_>
        <_>
          <internalNodes>
            0 -1 127 521670897 -16785731 2130640221 1096015853
            -1086660710 -542131309 1341716209 -704098120</internalNodes>
          <leafValues>
            -4.3942946195602417e-01 5.2681457996368408e-01</leafValues></_>
        <_>
          <internalNodes>
            0 -1 32 -289678695 -710682968 -1344475447 1944799470
            -1484860803 -856725889 1171220135 -874512657</internalNodes>
          <leafValues>
            -3.3506810665130615e-01 7.2431433200836182e-01</leafValues></_>
        <_>
          <internalNodes>
            0 -1 64 890345446 29540353 562103664 -450887471 -1593730664
            -1295630324 562040503 -182633972</internalNodes>
          <leafValues>
            -5.3821843862533569e-01 4.7641947865486145e-01</leafValues></_></weakClassifiers></_>
    <!-- stage 14 -->
    <_>
      <maxWeakCount>9</maxWeakCount>
      <stageThreshold>-5.1287096738815308e-01</stageThreshold>
      <weakClassifiers>
        <_>
          <internalNodes>
            0 -1 145 -1080336430 2070803874 -1678246143 1400860975
            1991114698 914259291 1474286850 184796319</internalNodes>
          <leafValues>
            -3.0633804202079773e-01 5.5620157718658447e-01</leafValues></_>
        <_>
          <internalNodes>
            0 -1 36 -1814172386 536730632 558038269 648826322 28241727
            1068133292 -1693926125 -658592027</internalNodes>
          <leafValues>
            -3.8887521624565125e-01 4.8286741971969604e-01</leafValues></_>
        <_>
          <internalNodes>
            0 -1 95 1435275412 1927217201 142807065 1577799817
            -1592258350 -650873856 402841783 512398441</internalNodes>
          <leafValues>
            -5.1441228389739990e-01 3.8660824298858643e-01</leafValues></_>
        <_>
          <internalNodes>
            0 -1 98 -262280529 -33952947 1073707647 -570960273
            -943735217 -491000123 311329790 -639687453</internalNodes>
          <leafValues>
            -2.7009150385856628e-01 7.8642815351486206e-01</leafValues></_>
        <_>
          <internalNodes>
            0 -1 16 -2081726901 -1339353412 -1111536466 2004121508
            1970206035 32923093 358973238 1432975214</internalNodes>
          <leafValues>
            -4.4797685742378235e-01 4.9412730336189270e-01</leafValues></_>
        <_>
          <internalNodes>
            0 -1 62 -546382638 -538112263 -675750759 -391553029
            -1088139121 -47809428 1193295519 -553022231</internalNodes>
          <leafValues>
            -4.2033654451370239e-01 5.3955692052841187e-01</leafValues></_>
        <_>
          <internalNodes>
            0 -1 25 1192423438 1479984395 1077966872 31428880
            -2147347642 136546433 1447133834 1297244323</internalNodes>
          <leafValues>
            -5.9565627574920654e-01 3.9355048537254333e-01</leafValues></_>
        <_>
          <internalNodes>
            0 -1 74 437277924 -942337211 73642741 1125462150 -1325174366
            704647353 -1275031547 -1322626203</internalNodes>
          <leafValues>
            -5.8097481727600098e-01 3.9075979590415955e-01</leafValues></_>
        <_>
          <internalNodes>
            0 -1 65 1914196398 -586477366 3348279 1142378559 17471984
            -1951755135 222853873 1536347180</internalNodes>
          <leafValues>
            -6.5376716852188110e-01 3.1935536861419678e-01</leafValues></_></weakClassifiers></_>
    <!-- stage 15 -->
    <_>
      <maxWeakCount>9</maxWeakCount>
      <stageThreshold>-1.2297749519348145e+00</stageThreshold>
      <weakClassifiers>
        <_>
          <internalNodes>
            0 -1 29 -587212208 1891532536 -555767040 1347085939
            -17113239 2063466367 -176318194 -1873027685</internalNodes>
          <leafValues>
            -3.4808853268623352e-01 5.1949226856231689e-01</leafValues></_>
        <_>
          <internalNodes>
            0 -1 140 -239162129 -109769573 255666117 -8965625
            -2102725564 23019230 -1778952534 -212693349</internalNodes>
          <leafValues>
            -3.3580303192138672e-01 5.7602953910827637e-01</leafValues></_>
        <_>
          <internalNodes>
            0 -1 26 -733032418 1465057295 -1632085419 453714339
            -536632694 973185036 -157980588 -918191277</internalNodes>
          <leafValues>
            -4.6377298235893250e-01 4.5221728086471558e-01</leafValues></_>
        <_>
          <internalNodes>
            0 -1 148 -1747920832 -1651877112 1229105 1226523856
            -1575220692 -126451431 348715419 1043464571</internalNodes>
          <leafValues>
            -5.3339040279388428e-01 3.9533033967018127e-01</leafValues></_>
        <_>
          <internalNodes>
            0 -1 9 -108080802 -1013853934 805310486 -637398761
            -1312511606 -654311296 1627490432 1929875854</internalNodes>
          <leafValues>
            -4.8080313205718994e-01 4.5445585250854492e-01</leafValues></_>
        <_>
          <internalNodes>
            0 -1 76 1610929018 1996357910 411206672 -123616932
            -666728376 1614090889 1527906381 -95795885</internalNodes>
          <leafValues>
            -5.2061057090759277e-01 4.1667255759239197e-01</leafValues></_>
        <_>
          <internalNodes>
            0 -1 126 -1145815335 2133682628 1727527713 1366556029
            -1630265649 -292716706 2042548735 488278015</internalNodes>
          <leafValues>
            -4.4495472311973572e-01 5.3191024065017700e-01</leafValues></_>
        <_>
          <internalNodes>
            0 -1 55 -33841862 -612663585 -1099554615 1433795961
            -1411973607 1417649661 -55264027 -1464673223</internalNodes>
          <leafValues>
            -4.1057628393173218e-01 5.5754089355468750e-01</leafValues></_>
        <_>
          <internalNodes>
            0 -1 23 -243075428 285298714 -1844445182 103514411
            -904739581 1294139919 1078632591 -1734110110</internalNodes>
          <leafValues>
            -5.0460350513458252e-01 4.4152387976646423e-01</leafValues></_></weakClassifiers></_>
    <!-- stage 16 -->
    <_>
      <maxWeakCount>9</maxWeakCount>
      <stageThreshold>-4.6788412332534790e-01</stageThreshold>
      <weakClassifiers>
        <_>
          <internalNodes>
            0 -1 96 478150864 521609472 553656405 1259700497 -2012698984
            -1911911800 -937425494 134219776</internalNodes>
          <leafValues>
            -5.6913185119628906e-01 4.4763383269309998e-01</leafValues></_>
        <_>
          <internalNodes>
            0 -1 13 620958734 -736149180 285415531 -805187567 1077510363
            455082017 -914241448 1355412403</internalNodes>
          <leafValues>
            -4.9452048540115356e-01 3.7110400199890137e-01</leafValues></_>
        <_>
          <internalNodes>
            0 -1 87 1935392223 -785379181 -2106433 -1171833157
            -502009142 -1962192251 615650799 -1219518529</internalNodes>
          <leafValues>
            -2.7483835816383362e-01 7.1867841482162476e-01</leafValues></_>
        <_>
          <internalNodes>
            0 -1 101 -894442302 -1015689149 -1324285819 293933140
            -402546272 -964050815 306669761 -1065349055</internalNodes>
          <leafValues>
            -4.9414697289466858e-01 3.8810122013092041e-01</leafValues></_>
        <_>
          <internalNodes>
            0 -1 144 -1011696935 -1045795216 1516492629 327906874
            -1816287629 -805306369 2001072127 -606447227</internalNodes>
          <leafValues>
            -3.9767324924468994e-01 5.4035079479217529e-01</leafValues></_>
        <_>
          <internalNodes>
            0 -1 94 758336729 -1078199184 -1157728541 1432211196
            1840071116 -336543992 469405167 466115931</internalNodes>
          <leafValues>
            -4.0781787037849426e-01 5.0454491376876831e-01</leafValues></_>
        <_>
          <internalNodes>
            0 -1 48 -573548864 -577681198 1426133565 1312895889
            -1442279255 -1911946104 680018161 999370530</internalNodes>
          <leafValues>
            -5.2295690774917603e-01 4.3484356999397278e-01</leafValues></_>
        <_>
          <internalNodes>
            0 -1 160 -1028077682 -1087803475 -1090828600 -204132402
            -805438732 2140168172 523132891 -544223128</internalNodes>
          <leafValues>
            -3.7998709082603455e-01 6.0070919990539551e-01</leafValues></_>
        <_>
          <internalNodes>
            0 -1 11 -1979446466 -757648819 -1674311368 1209155856
            807665826 2039551008 336306328 -82640429</internalNodes>
          <leafValues>
            -6.0381251573562622e-01 3.8561609387397766e-01</leafValues></_></weakClassifiers></_>
    <!-- stage 17 -->
    <_>
      <maxWeakCount>10</maxWeakCount>
      <stageThreshold>-1.1193579435348511e+00</stageThreshold>
      <weakClassifiers>
        <_>
          <internalNodes>
            0 -1 47 2096318480 2054617688 131337497 -656409000 -46186982
            -596320514 519855356 -1060047137</internalNodes>
          <leafValues>
            -3.6909872293472290e-01 5.0440919399261475e-01</leafValues></_>
        <_>
          <internalNodes>
            0 -1 130 -156425614 1668240631 -206866869 -243305677
            -405821557 -1944402289 -84953655 -888408834</internalNodes>
          <leafValues>
            -3.2650911808013916e-01 5.4234248399734497e-01</leafValues></_>
        <_>
          <internalNodes>
            0 -1 102 1375840922 810786885 1174521036 1818369510
            -1855798791 1657209026 -2127190795 397976764</internalNodes>
          <leafValues>
            -5.6208527088165283e-01 3.4154599905014038e-01</leafValues></_>
        <_>
          <internalNodes>
            0 -1 114 -185739541 -255498013 129648055 -1780744715
            -189376036 -1588628513 819848745 -1634479622</internalNodes>
          <leafValues>
            -3.1052038073539734e-01 6.2811368703842163e-01</leafValues></_>
        <_>
          <internalNodes>
            0 -1 154 -779764348 1476608331 -1878523368 -1056804475
            -1065155860 202550400 147427458 1356667351</internalNodes>
          <leafValues>
            -5.0092953443527222e-01 4.1514563560485840e-01</leafValues></_>
        <_>
          <internalNodes>
            0 -1 78 -16070524 -720759854 -788119262 -678055808 243306531
            1291980970 -1811791227 -242331187</internalNodes>
          <leafValues>
            -4.9615517258644104e-01 4.4577690958976746e-01</leafValues></_>
        <_>
          <internalNodes>
            0 -1 128 335549560 -800456512 269554593 -233164720
            -971404986 -1911947007 234881512 134774928</internalNodes>
          <leafValues>
            -6.4363527297973633e-01 3.4260168671607971e-01</leafValues></_>
        <_>
          <internalNodes>
            0 -1 77 1428182118 20217859 -49934104 2115098645 1395934432
            1275646352 -1576841523 1925415323</internalNodes>
          <leafValues>
            -6.0801702737808228e-01 3.6416611075401306e-01</leafValues></_>
        <_>
          <internalNodes>
            0 -1 88 -2134710060 -2133766060 134353411 1368609282
            671241362 -743833463 505430167 439358552</internalNodes>
          <leafValues>
            -6.2039887905120850e-01 4.0740177035331726e-01</leafValues></_>
        <_>
          <internalNodes>
            0 -1 91 -255939127 -2067299464 -1593818537 64443538
            -2013085558 839090305 1313755299 -33763020</internalNodes>
          <leafValues>
            -4.8097294569015503e-01 4.8819023370742798e-01</leafValues></_></weakClassifiers></_>
    <!-- stage 18 -->
    <_>
      <maxWeakCount>10</maxWeakCount>
      <stageThreshold>-7.4741941690444946e-01</stageThreshold>
      <weakClassifiers>
        <_>
          <internalNodes>
            0 -1 150 -1064587210 -1067296072 -742494664 1521447927
            -2083971141 -2052288644 -545947777 1460093915</internalNodes>
          <leafValues>
            -3.1047618389129639e-01 5.2372092008590698e-01</leafValues></_>
        <_>
          <internalNodes>
            0 -1 41 -912817000 -1650422948 537072028 991563999
            1074402200 -267747192 1078206923 -1179598133</internalNodes>
          <leafValues>
            -5.0451195240020752e-01 3.5702905058860779e-01</leafValues></_>
        <_>
          <internalNodes>
            0 -1 162 -302518457 1438334695 -1367622814 -1997363614
            938985311 1601470455 -1531413161 -390431341</internalNodes>
          <leafValues>
            -3.4392243623733521e-01 5.4253530502319336e-01</leafValues></_>
        <_>
          <internalNodes>
            0 -1 151 -1749659237 1931574792 -2120675388 123983985
            -1347437590 -1761692748 169448696 -607155108</internalNodes>
          <leafValues>
            -3.3657780289649963e-01 5.7461893558502197e-01</leafValues></_>
        <_>
          <internalNodes>
            0 -1 52 466063854 -771565619 -1849093623 325566520 568517508
            1612710080 76579728 -1891036527</internalNodes>
          <leafValues>
            -5.4561108350753784e-01 3.8958886265754700e-01</leafValues></_>
        <_>
          <internalNodes>
            0 -1 146 -553145503 249499611 -688392540 -982040771
            -361944484 360529647 921601895 -861160209</internalNodes>
          <leafValues>
            -3.8116046786308289e-01 5.6529986858367920e-01</leafValues></_>
        <_>
          <internalNodes>
            0 -1 63 1035001163 -774258696 1273895953 -105743768
            -270082902 159299417 -1758028525 -1659124530</internalNodes>
          <leafValues>
            -3.8966026902198792e-01 5.6381803750991821e-01</leafValues></_>
        <_>
          <internalNodes>
            0 -1 21 555901184 -1828421232 272646407 1628570394 8708249
            -1843259391 1208185099 -1815397938</internalNodes>
          <leafValues>
            -5.2160549163818359e-01 4.5538881421089172e-01</leafValues></_>
        <_>
          <internalNodes>
            0 -1 156 -193257370 -399382659 1542356966 1541406577
            1954544778 -1778551461 -17630059 -253765901</internalNodes>
          <leafValues>
            -4.5247685909271240e-01 5.1862424612045288e-01</leafValues></_>
        <_>
          <internalNodes>
            0 -1 157 -989601882 -1609990015 -1961345013 -773844774
            278044832 37584900 10708143 1203980428</internalNodes>
          <leafValues>
            -4.7881263494491577e-01 4.9233859777450562e-01</leafValues></_></weakClassifiers></_>
    <!-- stage 19 -->
    <_>
      <maxWeakCount>9</maxWeakCount>
      <stageThreshold>-4.4331407546997070e-01</stageThreshold>
      <weakClassifiers>
        <_>
          <internalNodes>
            0 -1 79 -1470966254 406848512 2295570 352485418 -1071433024
            414728838 -2137958336 411665281</internalNodes>
          <leafValues>
            -5.2173912525177002e-01 4.4444444775581360e-01</leafValues></_>
        <_>
          <internalNodes>
            0 -1 152 -642003169 -1834067496 510007537 1903801088
            -538969592 -1091178626 -1835747453 -1895123521</internalNodes>
          <leafValues>
            -2.7858570218086243e-01 5.8018338680267334e-01</leafValues></_>
        <_>
          <internalNodes>
            0 -1 3 -1538102157 -1021292390 -2147433897 1996591669
            293639071 536938658 386110029 1468072175</internalNodes>
          <leafValues>
            -4.3775683641433716e-01 4.1179963946342468e-01</leafValues></_>
        <_>
          <internalNodes>
            0 -1 27 -1114617730 -1903751037 -2147477324 -192872302
            -536141824 -1744293728 268624176 453946524</internalNodes>
          <leafValues>
            -5.4703080654144287e-01 3.3634018898010254e-01</leafValues></_>
        <_>
          <internalNodes>
            0 -1 89 189057255 -1160157207 2124381758 1207653613
            -76139790 -1640531074 1951725311 -918629137</internalNodes>
          <leafValues>
            -4.1459313035011292e-01 5.1182705163955688e-01</leafValues></_>
        <_>
          <internalNodes>
            0 -1 155 -1860641232 2072969364 285311043 -83394239
            -863502169 -360183400 34827 989862024</internalNodes>
          <leafValues>
            -5.9113907814025879e-01 3.7607604265213013e-01</leafValues></_>
        <_>
          <internalNodes>
            0 -1 153 489175225 -231736686 1047474995 525329521
            1908337034 -863568054 -2068666581 -1147158645</internalNodes>
          <leafValues>
            -3.0112344026565552e-01 7.1412438154220581e-01</leafValues></_>
        <_>
          <internalNodes>
            0 -1 57 -84747857 2080749228 729712706 1407801701 -141717891
            995139530 1848437931 -160244107</internalNodes>
          <leafValues>
            -3.7657076120376587e-01 5.6410002708435059e-01</leafValues></_>
        <_>
          <internalNodes>
            0 -1 30 -1895410433 1627881730 -1812987840 154358934
            -1323265623 537591817 -532622842 -914554743</internalNodes>
          <leafValues>
            -4.9289190769195557e-01 4.4941008090972900e-01</leafValues></_></weakClassifiers></_></stages>
  <features>
    <_>
      <rect>
        0 1 11 7</rect></_>
    <_>
      <rect>
        0 14 14 7</rect></_>
    <_>
      <rect>
        1 2 19 12</rect></_>
    <_>
      <rect>
        1 6 14 7</rect></_>
    <_>
      <rect>
        3 4 17 5</rect></_>
    <_>
      <rect>
        3 7 16 11</rect></_>
    <_>
      <rect>
        3 8 25 10</rect></_>
    <_>
      <rect>
        3 15 17 7</rect></_>
    <_>
      <rect>
        4 2 24 9</rect></_>
    <_>
      <rect>
        4 3 21 6</rect></_>
    <_>
      <rect>
        4 4 15 10</rect></_>
    <_>
      <rect>
        4 10 19 8</rect></_>
    <_>
      <rect>
        4 12 14 6</rect></_>
    <_>
      <rect>
        5 5 24 11</rect></_>
    <_>
      <rect>
        5 8 21 7</rect></_>
    <_>
      <rect>
        7 11 6 4</rect></_>
    <_>
      <rect>
        8 15 3 2</rect></_>
    <_>
      <rect>
        9 11 17 8</rect></_>
    <_>
      <rect>
        12 6 18 9</rect></_>
    <_>
      <rect>
        12 12 18 6</rect></_>
    <_>
      <rect>
        13 10 17 8</rect></_>
    <_>
      <rect>
        14 3 10 6</rect></_>
    <_>
      <rect>
        14 4 18 11</rect></_>
    <_>
      <rect>
        14 11 13 9</rect></_>
    <_>
      <rect>
        15 5 10 9</rect></_>
    <_>
      <rect>
        15 14 10 5</rect></_>
    <_>
      <rect>
        15 14 14 5</rect></_>
    <_>
      <rect>
        16 3 16 5</rect></_>
    <_>
      <rect>
        16 17 14 3</rect></_>
    <_>
      <rect>
        17 9 21 9</rect></_>
    <_>
      <rect>
        17 12 12 5</rect></_>
    <_>
      <rect>
        17 13 13 4</rect></_>
    <_>
      <rect>
        17 15 7 2</rect></_>
    <_>
      <rect>
        17 15 13 5</rect></_>
    <_>
      <rect>
        18 4 7 5</rect></_>
    <_>
      <rect>
        18 15 11 7</rect></_>
    <_>
      <rect>
        19 10 12 5</rect></_>
    <_>
      <rect>
        19 11 5 4</rect></_>
    <_>
      <rect>
        19 18 6 6</rect></_>
    <_>
      <rect>
        20 2 20 10</rect></_>
    <_>
      <rect>
        20 9 14 6</rect></_>
    <_>
      <rect>
        20 13 8 8</rect></_>
    <_>
      <rect>
        21 12 9 4</rect></_>
    <_>
      <rect>
        21 12 12 5</rect></_>
    <_>
      <rect>
        21 15 9 4</rect></_>
    <_>
      <rect>
        21 15 12 2</rect></_>
    <_>
      <rect>
        21 21 12 5</rect></_>
    <_>
      <rect>
        22 0 19 11</rect></_>
    <_>
      <rect>
        22 13 11 2</rect></_>
    <_>
      <rect>
        22 19 10 6</rect></_>
    <_>
      <rect>
        23 11 12 5</rect></_>
    <_>
      <rect>
        24 7 8 5</rect></_>
    <_>
      <rect>
        24 10 10 6</rect></_>
    <_>
      <rect>
        24 12 11 6</rect></_>
    <_>
      <rect>
        25 11 6 3</rect></_>
    <_>
      <rect>
        25 16 14 7</rect></_>
    <_>
      <rect>
        25 17 5 2</rect></_>
    <_>
      <rect>
        25 18 3 2</rect></_>
    <_>
      <rect>
        25 24 11 3</rect></_>
    <_>
      <rect>
        26 8 16 9</rect></_>
    <_>
      <rect>
        26 15 10 3</rect></_>
    <_>
      <rect>
        26 17 8 4</rect></_>
    <_>
      <rect>
        26 23 7 2</rect></_>
    <_>
      <rect>
        26 23 12 3</rect></_>
    <_>
      <rect>
        27 9 11 6</rect></_>
    <_>
      <rect>
        27 12 9 4</rect></_>
    <_>
      <rect>
        27 19 10 5</rect></_>
    <_>
      <rect>
        28 1 13 12</rect></_>
    <_>
      <rect>
        28 6 8 7</rect></_>
    <_>
      <rect>
        28 7 9 5</rect></_>
    <_>
      <rect>
        28 11 7 5</rect></_>
    <_>
      <rect>
        28 12 7 4</rect></_>
    <_>
      <rect>
        29 0 7 5</rect></_>
    <_>
      <rect>
        29 1 7 11</rect></_>
    <_>
      <rect>
        29 5 10 7</rect></_>
    <_>
      <rect>
        29 8 8 6</rect></_>
    <_>
      <rect>
        30 12 11 5</rect></_>
    <_>
      <rect>
        30 15 8 4</rect></_>
    <_>
      <rect>
        30 16 2 2</rect></_>
    <_>
      <rect>
        30 16 16 7</rect></_>
    <_>
      <rect>
        30 23 6 2</rect></_>
    <_>
      <rect>
        30 27 2 1</rect></_>
    <_>
      <rect>
        30 31 2 1</rect></_>
    <_>
      <rect>
        31 9 5 2</rect></_>
    <_>
      <rect>
        31 12 10 5</rect></_>
    <_>
      <rect>
        31 13 8 3</rect></_>
    <_>
      <rect>
        31 15 10 3</rect></_>
    <_>
      <rect>
        31 18 6 2</rect></_>
    <_>
      <rect>
        31 24 5 2</rect></_>
    <_>
      <rect>
        32 9 6 4</rect></_>
    <_>
      <rect>
        32 9 7 5</rect></_>
    <_>
      <rect>
        32 10 7 4</rect></_>
    <_>
      <rect>
        32 15 6 2</rect></_>
    <_>
      <rect>
        32 17 8 4</rect></_>
    <_>
      <rect>
        32 26 3 1</rect></_>
    <_>
      <rect>
        32 26 4 2</rect></_>
    <_>
      <rect>
        33 8 3 2</rect></_>
    <_>
      <rect>
        33 12 4 2</rect></_>
    <_>
      <rect>
        33 13 3 3</rect></_>
    <_>
      <rect>
        33 13 4 3</rect></_>
    <_>
      <rect>
        33 14 7 4</rect></_>
    <_>
      <rect>
        33 15 4 2</rect></_>
    <_>
      <rect>
        33 15 5 3</rect></_>
    <_>
      <rect>
        33 18 3 1</rect></_>
    <_>
      <rect>
        33 18 4 2</rect></_>
    <_>
      <rect>
        33 18 5 2</rect></_>
    <_>
      <rect>
        33 19 3 2</rect></_>
    <_>
      <rect>
        33 19 4 2</rect></_>
    <_>
      <rect>
        33 22 9 2</rect></_>
    <_>
      <rect>
        33 27 2 1</rect></_>
    <_>
      <rect>
        34 3 15 12</rect></_>
    <_>
      <rect>
        34 10 4 2</rect></_>
    <_>
      <rect>
        34 15 9 5</rect></_>
    <_>
      <rect>
        34 17 3 3</rect></_>
    <_>
      <rect>
        34 18 3 1</rect></_>
    <_>
      <rect>
        34 19 2 1</rect></_>
    <_>
      <rect>
        34 20 3 2</rect></_>
    <_>
      <rect>
        34 21 3 1</rect></_>
    <_>
      <rect>
        34 25 4 2</rect></_>
    <_>
      <rect>
        34 26 3 2</rect></_>
    <_>
      <rect>
        34 27 3 1</rect></_>
    <_>
      <rect>
        35 17 2 3</rect></_>
    <_>
      <rect>
        35 17 4 3</rect></_>
    <_>
      <rect>
        35 17 5 3</rect></_>
    <_>
      <rect>
        35 18 4 2</rect></_>
    <_>
      <rect>
        35 23 4 1</rect></_>
    <_>
      <rect>
        35 27 4 1</rect></_>
    <_>
      <rect>
        36 9 4 2</rect></_>
    <_>
      <rect>
        36 11 4 1</rect></_>
    <_>
      <rect>
        36 14 2 3</rect></_>
    <_>
      <rect>
        36 15 2 2</rect></_>
    <_>
      <rect>
        36 17 2 1</rect></_>
    <_>
      <rect>
        36 17 2 2</rect></_>
    <_>
      <rect>
        36 18 2 1</rect></_>
    <_>
      <rect>
        36 18 2 2</rect></_>
    <_>
      <rect>
        36 25 5 2</rect></_>
    <_>
      <rect>
        37 15 2 3</rect></_>
    <_>
      <rect>
        37 17 1 2</rect></_>
    <_>
      <rect>
        37 17 2 2</rect></_>
    <_>
      <rect>
        37 18 2 2</rect></_>
    <_>
      <rect>
        37 19 2 1</rect></_>
    <_>
      <rect>
        37 20 2 2</rect></_>
    <_>
      <rect>
        37 23 4 2</rect></_>
    <_>
      <rect>
        37 24 3 2</rect></_>
    <_>
      <rect>
        38 17 4 2</rect></_>
    <_>
      <rect>
        38 18 1 1</rect></_>
    <_>
      <rect>
        38 18 1 2</rect></_>
    <_>
      <rect>
        38 18 2 1</rect></_>
    <_>
      <rect>
        38 27 4 2</rect></_>
    <_>
      <rect>
        39 18 1 2</rect></_>
    <_>
      <rect>
        39 19 1 1</rect></_>
    <_>
      <rect>
        39 21 6 2</rect></_>
    <_>
      <rect>
        40 11 5 2</rect></_>
    <_>
      <rect>
        41 23 4 1</rect></_>
    <_>
      <rect>
        43 2 12 9</rect></_>
    <_>
      <rect>
        43 27 3 2</rect></_>
    <_>
      <rect>
        44 11 10 5</rect></_>
    <_>
      <rect>
        44 19 5 2</rect></_>
    <_>
      <rect>
        48 15 2 1</rect></_>
    <_>
      <rect>
        50 7 6 7</rect></_>
    <_>
      <rect>
        52 12 3 4</rect></_>
    <_>
      <rect>
        52 21 3 2</rect></_>
    <_>
      <rect>
        61 0 6 7</rect></_></features></cascade>
</opencv_storage>
