<?xml version="1.0"?>
<opencv_storage>
<cascade>
  <stageType>BOOST</stageType>
  <featureType>LBP</featureType>
  <height>40</height>
  <width>80</width>
  <stageParams>
    <boostType>GAB</boostType>
    <minHitRate>9.9900001287460327e-01</minHitRate>
    <maxFalseAlarm>5.0000000000000000e-01</maxFalseAlarm>
    <weightTrimRate>9.4999999999999996e-01</weightTrimRate>
    <maxDepth>1</maxDepth>
    <maxWeakCount>100</maxWeakCount></stageParams>
  <featureParams>
    <maxCatCount>256</maxCatCount>
    <featSize>1</featSize></featureParams>
  <stageNum>20</stageNum>
  <stages>
    <!-- stage 0 -->
    <_>
      <maxWeakCount>4</maxWeakCount>
      <stageThreshold>-1.3687537908554077e+00</stageThreshold>
      <weakClassifiers>
        <_>
          <internalNodes>
            0 -1 49 -1048522532 -753860416 16779289 1561395204
            -1941921638 201883648 2186 185073678</internalNodes>
          <leafValues>
            -8.0761522054672241e-01 7.2933697700500488e-01</leafValues></_>
        <_>
          <internalNodes>
            0 -1 45 -1862270768 2097807504 4697 1358959617 142606504
            -1987960824 1107820683 -83230005</internalNodes>
          <leafValues>
            -7.0648545026779175e-01 7.1940511465072632e-01</leafValues></_>
        <_>
          <internalNodes>
            0 -1 41 -1073557288 -788000704 168403 -1861152512
            -2012708614 -2004318080 146836176 -1476329472</internalNodes>
          <leafValues>
            -7.3118901252746582e-01 7.0291936397552490e-01</leafValues></_>
        <_>
          <internalNodes>
            0 -1 50 -1878867830 -754909184 1073778752 -1827340287
            -1425495926 -1979711488 -2147186546 -1999388533</internalNodes>
          <leafValues>
            -6.6041624546051025e-01 6.9275879859924316e-01</leafValues></_></weakClassifiers></_>
    <!-- stage 1 -->
    <_>
      <maxWeakCount>5</maxWeakCount>
      <stageThreshold>-4.7650068998336792e-01</stageThreshold>
      <weakClassifiers>
        <_>
          <internalNodes>
            0 -1 97 -787513128 -9036160 1090519802 1400832514 -136401158
            1005579902 98559 253428639</internalNodes>
          <leafValues>
            -7.1375465393066406e-01 7.3822975158691406e-01</leafValues></_>
        <_>
          <internalNodes>
            0 -1 121 -787037990 1495072768 16777245 285409296
            -2130702198 134217731 39051 286736795</internalNodes>
          <leafValues>
            -7.5464618206024170e-01 6.1855047941207886e-01</leafValues></_>
        <_>
          <internalNodes>
            0 -1 88 -1121922832 -4237160 2118843961 -1689166792
            209767560 -1076215888 -1757743206 -1962736503</internalNodes>
          <leafValues>
            -6.2915432453155518e-01 7.5565332174301147e-01</leafValues></_>
        <_>
          <internalNodes>
            0 -1 133 -712059832 -80666844 989653736 1929385065
            -2131968820 -1308308468 -1873894262 -1827782514</internalNodes>
          <leafValues>
            -5.4531317949295044e-01 7.9936718940734863e-01</leafValues></_>
        <_>
          <internalNodes>
            0 -1 85 -3215664 -148153088 -203760187 427011664 -1484917368
            -495459420 91550975 -1995815781</internalNodes>
          <leafValues>
            -5.2008306980133057e-01 8.2168728113174438e-01</leafValues></_></weakClassifiers></_>
    <!-- stage 2 -->
    <_>
      <maxWeakCount>5</maxWeakCount>
      <stageThreshold>-7.7170801162719727e-01</stageThreshold>
      <weakClassifiers>
        <_>
          <internalNodes>
            0 -1 30 -17847158 -536935921 -1342364160 -644939759
            -17825793 -16842360 -70595382 -812711805</internalNodes>
          <leafValues>
            -4.4667696952819824e-01 7.2298008203506470e-01</leafValues></_>
        <_>
          <internalNodes>
            0 -1 63 -103757580 -1258221504 -2080352138 -577863344
            1068416 404291592 -1135425114 -1145434950</internalNodes>
          <leafValues>
            -6.8591243028640747e-01 5.2914613485336304e-01</leafValues></_>
        <_>
          <internalNodes>
            0 -1 74 -679099174 -150388464 85008521 1531138181 285229226
            -1842114391 1075921150 1361035423</internalNodes>
          <leafValues>
            -6.7672896385192871e-01 4.9172374606132507e-01</leafValues></_>
        <_>
          <internalNodes>
            0 -1 17 453148808 50626864 1074905753 1361117257 -1056391010
            412385288 134332602 17532827</internalNodes>
          <leafValues>
            -6.7478495836257935e-01 5.4419106245040894e-01</leafValues></_>
        <_>
          <internalNodes>
            0 -1 2 -124755726 -200048554 -2147462915 -1995243517
            578963611 -1056833343 -1860771701 1527186423</internalNodes>
          <leafValues>
            -6.2937027215957642e-01 5.4394263029098511e-01</leafValues></_></weakClassifiers></_>
    <!-- stage 3 -->
    <_>
      <maxWeakCount>6</maxWeakCount>
      <stageThreshold>-8.1437247991561890e-01</stageThreshold>
      <weakClassifiers>
        <_>
          <internalNodes>
            0 -1 125 -574111744 -483674268 309000902 -1158972704
            -1900369206 -1347806223 -1430259062 -1825336629</internalNodes>
          <leafValues>
            -4.0509915351867676e-01 7.6733779907226562e-01</leafValues></_>
        <_>
          <internalNodes>
            0 -1 25 -782971952 -171761648 152055888 -2053111808
            -2146916102 -627015680 -1599566678 -74153976</internalNodes>
          <leafValues>
            -6.4089179039001465e-01 5.8575260639190674e-01</leafValues></_>
        <_>
          <internalNodes>
            0 -1 102 -653209392 -78577392 1224759673 356778520
            -2055199848 -1475735512 405307640 -1727393768</internalNodes>
          <leafValues>
            -6.1244642734527588e-01 6.1217635869979858e-01</leafValues></_>
        <_>
          <internalNodes>
            0 -1 122 -854933396 -646615522 -713032739 -782536202
            -866194946 -1477365761 368359419 -183793000</internalNodes>
          <leafValues>
            -5.4838401079177856e-01 6.8519735336303711e-01</leafValues></_>
        <_>
          <internalNodes>
            0 -1 46 2059229435 -1083506848 1392390811 -1314666056
            -1518412338 -1149273347 226284782 -1996357381</internalNodes>
          <leafValues>
            -5.2565431594848633e-01 7.4778717756271362e-01</leafValues></_>
        <_>
          <internalNodes>
            0 -1 129 -561281808 -538181912 -286373857 -1454526836
            -1943884638 -1095051466 105555850 -551370230</internalNodes>
          <leafValues>
            -4.7895652055740356e-01 7.5355297327041626e-01</leafValues></_></weakClassifiers></_>
    <!-- stage 4 -->
    <_>
      <maxWeakCount>5</maxWeakCount>
      <stageThreshold>-7.4550974369049072e-01</stageThreshold>
      <weakClassifiers>
        <_>
          <internalNodes>
            0 -1 91 -243023732 -251461632 25247760 1228996616 -804746838
            -703463288 704809614 318965896</internalNodes>
          <leafValues>
            -7.6470589637756348e-01 5.4143202304840088e-01</leafValues></_>
        <_>
          <internalNodes>
            0 -1 1 -14178705 -475501013 1861611040 -202641754 2004156277
            374695767 2003989508 -8390825</internalNodes>
          <leafValues>
            -5.0080007314682007e-01 6.3620823621749878e-01</leafValues></_>
        <_>
          <internalNodes>
            0 -1 126 -254295488 -833650880 -8982840 -1671586 -1330
            -1880162436 -276894001 -91563270</internalNodes>
          <leafValues>
            -5.3278356790542603e-01 6.6794484853744507e-01</leafValues></_>
        <_>
          <internalNodes>
            0 -1 71 -4603750 1599470856 506461597 1565067505 1276965034
            1451634688 1337578998 1527366877</internalNodes>
          <leafValues>
            -5.6727755069732666e-01 5.9881711006164551e-01</leafValues></_>
        <_>
          <internalNodes>
            0 -1 131 1363671600 -1988001435 -1056778149 1225615877
            1292075297 1208223744 8528043 3137799</internalNodes>
          <leafValues>
            -6.8304562568664551e-01 4.8101383447647095e-01</leafValues></_></weakClassifiers></_>
    <!-- stage 5 -->
    <_>
      <maxWeakCount>6</maxWeakCount>
      <stageThreshold>-1.3227308988571167e+00</stageThreshold>
      <weakClassifiers>
        <_>
          <internalNodes>
            0 -1 64 -996093760 -238958328 135665109 -209010159 536870912
            -930349055 403199371 1300908731</internalNodes>
          <leafValues>
            -6.2926828861236572e-01 5.5294120311737061e-01</leafValues></_>
        <_>
          <internalNodes>
            0 -1 99 -135479592 -135041192 1340276220 1929817962
            -1082868052 -1155678580 -2013268743 -611631137</internalNodes>
          <leafValues>
            -4.8584565520286560e-01 6.2590724229812622e-01</leafValues></_>
        <_>
          <internalNodes>
            0 -1 19 -249867304 -1254014662 -401456888 1359372932
            -2126391126 -1988000472 573100238 -2135295868</internalNodes>
          <leafValues>
            -6.7563235759735107e-01 4.5077362656593323e-01</leafValues></_>
        <_>
          <internalNodes>
            0 -1 92 -238299510 756056336 -1862168048 -1689845743
            -938831384 -2120181592 -2146953060 146266251</internalNodes>
          <leafValues>
            -6.8541079759597778e-01 4.7159257531166077e-01</leafValues></_>
        <_>
          <internalNodes>
            0 -1 18 -1274897 -9100600 717885407 1469748315 -656977
            326611835 -1001617782 -653533453</internalNodes>
          <leafValues>
            -4.8641616106033325e-01 6.8133753538131714e-01</leafValues></_>
        <_>
          <internalNodes>
            0 -1 60 1467213040 1417101344 -1593726955 -721084015
            -1073708926 -1475346432 34647966 526073921</internalNodes>
          <leafValues>
            -6.6877311468124390e-01 5.0407940149307251e-01</leafValues></_></weakClassifiers></_>
    <!-- stage 6 -->
    <_>
      <maxWeakCount>6</maxWeakCount>
      <stageThreshold>-1.2815842628479004e+00</stageThreshold>
      <weakClassifiers>
        <_>
          <internalNodes>
            0 -1 73 -1753159428 -754692039 -1877275377 -1043573957
            134279387 807542835 34029579 1359020175</internalNodes>
          <leafValues>
            -7.0689654350280762e-01 5.1597446203231812e-01</leafValues></_>
        <_>
          <internalNodes>
            0 -1 116 -256386865 -1006638401 2142498222 -180900612
            -175920198 -470299396 -407194961 -1023180662</internalNodes>
          <leafValues>
            -4.0389758348464966e-01 7.2769361734390259e-01</leafValues></_>
        <_>
          <internalNodes>
            0 -1 105 277958905 1998066712 273735007 1597397057
            -2139092552 -1174388600 8421608 522715532</internalNodes>
          <leafValues>
            -6.5934795141220093e-01 4.7136920690536499e-01</leafValues></_>
        <_>
          <internalNodes>
            0 -1 0 -305925442 -1048002515 -1610346238 -578714775
            1901256845 727220352 1124272387 1934049347</internalNodes>
          <leafValues>
            -5.1092457771301270e-01 5.7475715875625610e-01</leafValues></_>
        <_>
          <internalNodes>
            0 -1 37 859260078 -577240557 1409539093 -1786736491
            -1207373378 -819984334 -1602061601 311215044</internalNodes>
          <leafValues>
            -7.7223026752471924e-01 3.7983742356300354e-01</leafValues></_>
        <_>
          <internalNodes>
            0 -1 132 -1819411251 97854467 285229384 1494876175
            1476608238 -1333239631 -499034072 1080031739</internalNodes>
          <leafValues>
            -5.8187538385391235e-01 5.4383128881454468e-01</leafValues></_></weakClassifiers></_>
    <!-- stage 7 -->
    <_>
      <maxWeakCount>8</maxWeakCount>
      <stageThreshold>-8.1852126121520996e-01</stageThreshold>
      <weakClassifiers>
        <_>
          <internalNodes>
            0 -1 113 -22949192 2057842760 101454952 -1065473 941595768
            657268602 4199918 1465899435</internalNodes>
          <leafValues>
            -4.1254124045372009e-01 6.5392351150512695e-01</leafValues></_>
        <_>
          <internalNodes>
            0 -1 43 -250095394 1935900680 -1862201343 1372127233
            -385770326 -1702231894 143295177 -1937273725</internalNodes>
          <leafValues>
            -4.9389016628265381e-01 5.6506335735321045e-01</leafValues></_>
        <_>
          <internalNodes>
            0 -1 21 -360993249 -6480565 -301400302 495820052 -5313043
            -277684346 -7422579 -472277623</internalNodes>
          <leafValues>
            -4.2921805381774902e-01 6.6331362724304199e-01</leafValues></_>
        <_>
          <internalNodes>
            0 -1 57 -1140464698 -753987580 549527637 -2054746827
            -1719410966 -2105032446 -2139061569 -222671167</internalNodes>
          <leafValues>
            -5.4504513740539551e-01 5.2732771635055542e-01</leafValues></_>
        <_>
          <internalNodes>
            0 -1 104 1144645008 757170592 -1795128229 389251157
            -1065317490 -1969979253 -1870479140 264217085</internalNodes>
          <leafValues>
            -6.1401939392089844e-01 5.0904887914657593e-01</leafValues></_>
        <_>
          <internalNodes>
            0 -1 53 -4400970 1442788684 64270419 -715586944 -755316504
            1440710104 68610715 -496253857</internalNodes>
          <leafValues>
            -4.8627272248268127e-01 6.4958173036575317e-01</leafValues></_>
        <_>
          <internalNodes>
            0 -1 127 -1560098092 1494319104 1073762699 1533231137
            -1742100338 -1709572057 1128841391 499755368</internalNodes>
          <leafValues>
            -6.2199318408966064e-01 5.4096031188964844e-01</leafValues></_>
        <_>
          <internalNodes>
            0 -1 100 -543242214 -1091851439 1623093930 -135785223
            -731852556 1475277533 -1684649030 -835723362</internalNodes>
          <leafValues>
            -5.1733255386352539e-01 6.7606842517852783e-01</leafValues></_></weakClassifiers></_>
    <!-- stage 8 -->
    <_>
      <maxWeakCount>7</maxWeakCount>
      <stageThreshold>-7.7728885412216187e-01</stageThreshold>
      <weakClassifiers>
        <_>
          <internalNodes>
            0 -1 112 -101646656 -41128 -374 -35651815 -1157695665
            -67150002 -1191469105 -1876981606</internalNodes>
          <leafValues>
            -3.4775888919830322e-01 6.5582370758056641e-01</leafValues></_>
        <_>
          <internalNodes>
            0 -1 66 -1130987343 -363589360 -218014443 1497124873
            -1073680206 -1723654128 2617347 1325205331</internalNodes>
          <leafValues>
            -5.7989007234573364e-01 4.7431123256683350e-01</leafValues></_>
        <_>
          <internalNodes>
            0 -1 7 -733949794 -720371684 25762167 1929531611 449645885
            841095937 165442171 1929602563</internalNodes>
          <leafValues>
            -6.1352050304412842e-01 4.4918853044509888e-01</leafValues></_>
        <_>
          <internalNodes>
            0 -1 48 -801527546 -778152960 278130971 356678109
            -1342129515 -204828519 -1557607719 235837252</internalNodes>
          <leafValues>
            -7.3704797029495239e-01 3.7217143177986145e-01</leafValues></_>
        <_>
          <internalNodes>
            0 -1 124 -138086254 -711225688 1862168042 -219685152
            -1238661350 -720943616 928309247 -607396609</internalNodes>
          <leafValues>
            -4.5576375722885132e-01 6.9203358888626099e-01</leafValues></_>
        <_>
          <internalNodes>
            0 -1 16 -120938225 -669515504 1342758177 1845512030 58726914
            -105218028 -1449462631 -2027883634</internalNodes>
          <leafValues>
            -5.4875081777572632e-01 5.3585088253021240e-01</leafValues></_>
        <_>
          <internalNodes>
            0 -1 58 -1794879308 1561001992 -671084495 2102477080
            -1434314696 -232587197 185173138 446306649</internalNodes>
          <leafValues>
            -6.8441331386566162e-01 4.4765925407409668e-01</leafValues></_></weakClassifiers></_>
    <!-- stage 9 -->
    <_>
      <maxWeakCount>6</maxWeakCount>
      <stageThreshold>-3.7622603774070740e-01</stageThreshold>
      <weakClassifiers>
        <_>
          <internalNodes>
            0 -1 78 2138987964 1064787958 -1913390924 -1153746000
            788323580 -1107296263 -1094976248 -1715957512</internalNodes>
          <leafValues>
            -4.7619047760963440e-01 5.8394157886505127e-01</leafValues></_>
        <_>
          <internalNodes>
            0 -1 69 -2028478498 930940307 1099204925 -988196847
            -1332176215 286662987 269091288 319271185</internalNodes>
          <leafValues>
            -6.7879962921142578e-01 4.0644043684005737e-01</leafValues></_>
        <_>
          <internalNodes>
            0 -1 96 -955070622 -577810304 -1945529555 -627785277
            -1601586290 -372571616 -1861817841 -1749311285</internalNodes>
          <leafValues>
            -5.1433992385864258e-01 5.2423405647277832e-01</leafValues></_>
        <_>
          <internalNodes>
            0 -1 10 -1017420609 -1013430270 142704787 26771858 698222957
            171983619 1902190683 1497857543</internalNodes>
          <leafValues>
            -5.8359491825103760e-01 5.0666046142578125e-01</leafValues></_>
        <_>
          <internalNodes>
            0 -1 110 354702836 -217628656 -263114241 1497960548
            -2147450164 -897539935 -2012943941 520750237</internalNodes>
          <leafValues>
            -6.9964665174484253e-01 4.0620785951614380e-01</leafValues></_>
        <_>
          <internalNodes>
            0 -1 47 1376232469 -1312765752 108833 1563479680 50518958
            -1115471602 -2147259425 -1883874495</internalNodes>
          <leafValues>
            -6.2821501493453979e-01 4.8633128404617310e-01</leafValues></_></weakClassifiers></_>
    <!-- stage 10 -->
    <_>
      <maxWeakCount>8</maxWeakCount>
      <stageThreshold>-1.3618512153625488e+00</stageThreshold>
      <weakClassifiers>
        <_>
          <internalNodes>
            0 -1 117 -791427878 2010847186 2080038899 -1817448450
            -1275085057 1207816190 -738479373 1134282191</internalNodes>
          <leafValues>
            -2.3821656405925751e-01 7.2024542093276978e-01</leafValues></_>
        <_>
          <internalNodes>
            0 -1 12 1330435770 -765787584 -1606401272 2040529160
            -1342117886 -1350564223 -1842688213 -686828726</internalNodes>
          <leafValues>
            -5.0908023118972778e-01 5.0161314010620117e-01</leafValues></_>
        <_>
          <internalNodes>
            0 -1 75 -1856933271 -524089525 25208055 806375889
            -1807646544 839387320 101473653 321568794</internalNodes>
          <leafValues>
            -7.1923923492431641e-01 3.6970052123069763e-01</leafValues></_>
        <_>
          <internalNodes>
            0 -1 79 -82816833 1900544152 318972113 1096894465 134221826
            -883900406 302034108 1260787824</internalNodes>
          <leafValues>
            -6.5547370910644531e-01 4.1422569751739502e-01</leafValues></_>
        <_>
          <internalNodes>
            0 -1 36 1259660672 -150437888 10098065 101975301 -805269718
            -502038143 -1040019561 -213451904</internalNodes>
          <leafValues>
            -7.2374773025512695e-01 3.5644575953483582e-01</leafValues></_>
        <_>
          <internalNodes>
            0 -1 81 -549138226 -979548956 34107991 207278476 -380068728
            471376520 -1023376486 -83695475</internalNodes>
          <leafValues>
            -6.3678580522537231e-01 4.4464191794395447e-01</leafValues></_>
        <_>
          <internalNodes>
            0 -1 98 1873469314 -12910622 -269520946 -1164521937
            -1208488244 -406849554 -1763704866 -1751168529</internalNodes>
          <leafValues>
            -5.3920537233352661e-01 5.9755676984786987e-01</leafValues></_>
        <_>
          <internalNodes>
            0 -1 6 -272699409 2146369530 -289472521 1340342263
            1739745279 -447545481 2134900599 -245932457</internalNodes>
          <leafValues>
            -5.0943505764007568e-01 6.4241337776184082e-01</leafValues></_></weakClassifiers></_>
    <!-- stage 11 -->
    <_>
      <maxWeakCount>9</maxWeakCount>
      <stageThreshold>-6.4088922739028931e-01</stageThreshold>
      <weakClassifiers>
        <_>
          <internalNodes>
            0 -1 84 -18057424 -4251736 2075066316 -132088402 2126509538
            -32856 1370946783 396087038</internalNodes>
          <leafValues>
            -4.3999999761581421e-01 5.8697676658630371e-01</leafValues></_>
        <_>
          <internalNodes>
            0 -1 106 -637668885 -169317493 -437127305 1370175799
            2040902082 -62200957 1438840271 -104218417</internalNodes>
          <leafValues>
            -3.3508601784706116e-01 7.1021246910095215e-01</leafValues></_>
        <_>
          <internalNodes>
            0 -1 8 -448085818 -1327341437 268436930 -205273010
            1090684775 539429214 1881223172 742913907</internalNodes>
          <leafValues>
            -6.2924712896347046e-01 4.2894670367240906e-01</leafValues></_>
        <_>
          <internalNodes>
            0 -1 27 -919397794 -753201152 -2075950670 1058120080
            -804549752 1359020248 -1040150468 -882903073</internalNodes>
          <leafValues>
            -5.3777009248733521e-01 4.8800998926162720e-01</leafValues></_>
        <_>
          <internalNodes>
            0 -1 72 -1889413843 1468236185 -937918372 1292845835
            -131608432 -155252450 1082187951 1443503118</internalNodes>
          <leafValues>
            -6.7160761356353760e-01 4.1806271672248840e-01</leafValues></_>
        <_>
          <internalNodes>
            0 -1 93 -1929248688 1494978560 -518224737 324361353
            1074318056 -2004320239 -1987540033 521896121</internalNodes>
          <leafValues>
            -5.8080494403839111e-01 4.9372091889381409e-01</leafValues></_>
        <_>
          <internalNodes>
            0 -1 32 -419042806 -1051770860 151745 67383445 -1710587157
            -260958187 -2104982895 -213917354</internalNodes>
          <leafValues>
            -5.8651638031005859e-01 5.2248609066009521e-01</leafValues></_>
        <_>
          <internalNodes>
            0 -1 52 2046785117 1173716858 -41454 -839125571 -1109463383
            -318971912 -1088766913 -1732251713</internalNodes>
          <leafValues>
            -4.9785056710243225e-01 6.2585568428039551e-01</leafValues></_>
        <_>
          <internalNodes>
            0 -1 38 -785280536 -217634535 -1609441274 2134966276
            151572592 168001552 -1509284127 -867350517</internalNodes>
          <leafValues>
            -5.6262749433517456e-01 5.3721606731414795e-01</leafValues></_></weakClassifiers></_>
    <!-- stage 12 -->
    <_>
      <maxWeakCount>7</maxWeakCount>
      <stageThreshold>-7.0975732803344727e-01</stageThreshold>
      <weakClassifiers>
        <_>
          <internalNodes>
            0 -1 128 598233256 -1828642479 -1878978368 1091194888
            -1564299109 327287823 46173147 18489855</internalNodes>
          <leafValues>
            -7.0253163576126099e-01 4.8442366719245911e-01</leafValues></_>
        <_>
          <internalNodes>
            0 -1 117 -1068250913 -204380173 -67379213 867420151
            -1140932866 1207955452 -1812269313 -1013201761</internalNodes>
          <leafValues>
            -3.3473429083824158e-01 7.3394674062728882e-01</leafValues></_>
        <_>
          <internalNodes>
            0 -1 80 -370056198 -1151301544 1112805695 -1516830691
            -934633798 -1467510360 25199770 -443919928</internalNodes>
          <leafValues>
            -5.7608211040496826e-01 4.6816185116767883e-01</leafValues></_>
        <_>
          <internalNodes>
            0 -1 15 -118321 -9995086 -1966592059 -184011828 1068934116
            1463506931 1044481603 -276045718</internalNodes>
          <leafValues>
            -4.2929553985595703e-01 6.1857312917709351e-01</leafValues></_>
        <_>
          <internalNodes>
            0 -1 83 -1157400966 462659859 -1879043049 461508994
            713220488 -913604601 1077952937 -591853352</internalNodes>
          <leafValues>
            -6.1943417787551880e-01 4.6588310599327087e-01</leafValues></_>
        <_>
          <internalNodes>
            0 -1 77 -481111848 -574275531 92300311 -117353399 -201158504
            2058469514 164006267 454694397</internalNodes>
          <leafValues>
            -6.1957937479019165e-01 4.5410850644111633e-01</leafValues></_>
        <_>
          <internalNodes>
            0 -1 111 1363924646 -1878999039 17858803 1171211009
            1887535782 -2147450878 -2012561270 3922595</internalNodes>
          <leafValues>
            -6.1471307277679443e-01 4.8999893665313721e-01</leafValues></_></weakClassifiers></_>
    <!-- stage 13 -->
    <_>
      <maxWeakCount>8</maxWeakCount>
      <stageThreshold>-6.3147413730621338e-01</stageThreshold>
      <weakClassifiers>
        <_>
          <internalNodes>
            0 -1 120 -81209720 -917517 21184511 2105538555 1586494462
            929872106 2119607999 105882015</internalNodes>
          <leafValues>
            -4.8631578683853149e-01 5.6088888645172119e-01</leafValues></_>
        <_>
          <internalNodes>
            0 -1 62 1915212025 -532123646 271815641 -32145133
            -2117685038 -267730942 805308209 1598752099</internalNodes>
          <leafValues>
            -6.0871309041976929e-01 3.9401814341545105e-01</leafValues></_>
        <_>
          <internalNodes>
            0 -1 67 -16909135 213641644 1535099347 -1180112945
            -1531269230 -1802174802 -121914327 -792854595</internalNodes>
          <leafValues>
            -4.5391055941581726e-01 5.2567982673645020e-01</leafValues></_>
        <_>
          <internalNodes>
            0 -1 101 -78673432 1599799442 285491200 1360166965
            -1575958396 277348616 -998196839 1099943610</internalNodes>
          <leafValues>
            -5.9583675861358643e-01 4.4904050230979919e-01</leafValues></_>
        <_>
          <internalNodes>
            0 -1 54 -1920313232 268511441 33632497 1938380065
            -1970867792 -399994871 -1929341543 520224904</internalNodes>
          <leafValues>
            -7.0050501823425293e-01 3.5469463467597961e-01</leafValues></_>
        <_>
          <internalNodes>
            0 -1 61 -1590890330 -804612590 -2116730619 994632341
            -106423414 1510604930 -1942413064 -1073026054</internalNodes>
          <leafValues>
            -6.5426248311996460e-01 3.8857147097587585e-01</leafValues></_>
        <_>
          <internalNodes>
            0 -1 65 1377074773 -1397617040 2103130609 724047217
            -1657391398 -17074965 -1827234441 -1417011587</internalNodes>
          <leafValues>
            -4.7918635606765747e-01 5.7406747341156006e-01</leafValues></_>
        <_>
          <internalNodes>
            0 -1 31 -257867558 -1006286764 -2012691144 1208496904
            268961814 -669677380 1504198687 523901387</internalNodes>
          <leafValues>
            -7.2714763879776001e-01 4.0037071704864502e-01</leafValues></_></weakClassifiers></_>
    <!-- stage 14 -->
    <_>
      <maxWeakCount>8</maxWeakCount>
      <stageThreshold>-8.4524494409561157e-01</stageThreshold>
      <weakClassifiers>
        <_>
          <internalNodes>
            0 -1 108 -96880921 -75822840 -30679201 -753926060 1330640619
            -2008531569 -420417062 -1065091649</internalNodes>
          <leafValues>
            -2.0388349890708923e-01 7.3195874691009521e-01</leafValues></_>
        <_>
          <internalNodes>
            0 -1 90 -1256994790 620947617 -1333693143 822133249
            -2122087779 -1865497293 472549392 71168939</internalNodes>
          <leafValues>
            -6.2418675422668457e-01 4.1411370038986206e-01</leafValues></_>
        <_>
          <internalNodes>
            0 -1 103 -642197287 -750728191 1446500345 1540956149
            868111946 -281092454 243271346 -1717922324</internalNodes>
          <leafValues>
            -4.4168749451637268e-01 5.3522783517837524e-01</leafValues></_>
        <_>
          <internalNodes>
            0 -1 118 -318930833 -405281537 -415318089 2146680813
            1039052719 -146865236 1706211047 -480794193</internalNodes>
          <leafValues>
            -3.6053374409675598e-01 7.0902001857757568e-01</leafValues></_>
        <_>
          <internalNodes>
            0 -1 9 -781565299 1292616723 -1073594357 -1928145782
            1078657381 -818802683 -536721365 1986228342</internalNodes>
          <leafValues>
            -6.2088346481323242e-01 4.2361348867416382e-01</leafValues></_>
        <_>
          <internalNodes>
            0 -1 29 -200077182 -1055244272 -787463587 856756241
            726911196 -2089058280 647577 403359940</internalNodes>
          <leafValues>
            -5.9067505598068237e-01 4.4571277499198914e-01</leafValues></_>
        <_>
          <internalNodes>
            0 -1 34 2141674587 -806535308 -2034499845 292541816
            -1896038689 -8423460 100525499 1605027880</internalNodes>
          <leafValues>
            -4.9682295322418213e-01 5.6444358825683594e-01</leafValues></_>
        <_>
          <internalNodes>
            0 -1 22 -1784898829 -1861013490 -1876426542 -2029452984
            -1409252964 -2004877302 -1929117048 -1389530166</internalNodes>
          <leafValues>
            -5.2156740427017212e-01 5.8067035675048828e-01</leafValues></_></weakClassifiers></_>
    <!-- stage 15 -->
    <_>
      <maxWeakCount>8</maxWeakCount>
      <stageThreshold>-1.2201902866363525e+00</stageThreshold>
      <weakClassifiers>
        <_>
          <internalNodes>
            0 -1 107 -1615732624 1367932439 -100929033 1085341663
            566385860 -586407977 -1219240449 -1886484257</internalNodes>
          <leafValues>
            -2.8550511598587036e-01 6.4885497093200684e-01</leafValues></_>
        <_>
          <internalNodes>
            0 -1 59 1494471145 1372131372 406922293 1964607491
            -1608392217 -1866858363 146015 1986263583</internalNodes>
          <leafValues>
            -4.8381173610687256e-01 5.0629609823226929e-01</leafValues></_>
        <_>
          <internalNodes>
            0 -1 4 -716781409 1507016704 -846904237 -473202541 44651050
            128061858 655175842 1315136231</internalNodes>
          <leafValues>
            -5.4194438457489014e-01 4.4309467077255249e-01</leafValues></_>
        <_>
          <internalNodes>
            0 -1 55 337326324 -782823032 -2012790632 1497047189
            -1744293133 -1970716667 12346579 1027214265</internalNodes>
          <leafValues>
            -5.7323646545410156e-01 4.2051827907562256e-01</leafValues></_>
        <_>
          <internalNodes>
            0 -1 134 1980326184 1353785477 4490377 1134947 -795802920
            -2138898405 570534316 1088943579</internalNodes>
          <leafValues>
            -6.1573791503906250e-01 3.9810553193092346e-01</leafValues></_>
        <_>
          <internalNodes>
            0 -1 114 155440068 -1823735605 151100248 1968947217
            273127632 -267382399 2738184 465388952</internalNodes>
          <leafValues>
            -6.9475340843200684e-01 3.6470270156860352e-01</leafValues></_>
        <_>
          <internalNodes>
            0 -1 3 -234228857 -2013110272 1348730954 -103329055 9394727
            855736520 -788297708 -338815481</internalNodes>
          <leafValues>
            -5.5317652225494385e-01 4.9859547615051270e-01</leafValues></_>
        <_>
          <internalNodes>
            0 -1 23 -901084401 848330756 -251395747 1461294544
            -1971156850 75244699 -427287831 -73695120</internalNodes>
          <leafValues>
            -5.3139489889144897e-01 5.4189240932464600e-01</leafValues></_></weakClassifiers></_>
    <!-- stage 16 -->
    <_>
      <maxWeakCount>7</maxWeakCount>
      <stageThreshold>-7.1987336874008179e-01</stageThreshold>
      <weakClassifiers>
        <_>
          <internalNodes>
            0 -1 94 591504890 -1675277554 -469630704 -1694302158
            -2130671130 -1798664060 -1692489506 386007064</internalNodes>
          <leafValues>
            -6.0112357139587402e-01 4.9356913566589355e-01</leafValues></_>
        <_>
          <internalNodes>
            0 -1 125 2106978369 -479217817 309000910 -890570013
            -809764149 -274064399 -356517173 -29745</internalNodes>
          <leafValues>
            -3.7106338143348694e-01 6.6548323631286621e-01</leafValues></_>
        <_>
          <internalNodes>
            0 -1 35 -1157234437 -1513996268 -1877868137 -620488576
            -1844784904 -215252830 995084738 1515146413</internalNodes>
          <leafValues>
            -5.2386152744293213e-01 4.5720541477203369e-01</leafValues></_>
        <_>
          <internalNodes>
            0 -1 28 1058230505 -383449048 741180377 589299797 51145935
            -73654007 409786 419430568</internalNodes>
          <leafValues>
            -5.7767122983932495e-01 4.1218614578247070e-01</leafValues></_>
        <_>
          <internalNodes>
            0 -1 40 -1047146037 -1707991031 167948497 1150114333
            -1580700488 1652622016 -1842819499 -173374967</internalNodes>
          <leafValues>
            -5.0616335868835449e-01 4.9360629916191101e-01</leafValues></_>
        <_>
          <internalNodes>
            0 -1 51 506394771 1603267702 1282255903 -807768134 -16447439
            1529043694 -971985702 -8656945</internalNodes>
          <leafValues>
            -4.3719461560249329e-01 6.1365079879760742e-01</leafValues></_>
        <_>
          <internalNodes>
            0 -1 82 -1206643464 1474642256 -2147024865 1502876112
            -368033654 -1744109536 -384275648 1459927176</internalNodes>
          <leafValues>
            -7.2456538677215576e-01 3.5806584358215332e-01</leafValues></_></weakClassifiers></_>
    <!-- stage 17 -->
    <_>
      <maxWeakCount>7</maxWeakCount>
      <stageThreshold>-7.1743345260620117e-01</stageThreshold>
      <weakClassifiers>
        <_>
          <internalNodes>
            0 -1 95 -225541390 -3156026 -1073809433 -1077100085
            -1081166866 -556862002 -3427377 -141830705</internalNodes>
          <leafValues>
            -1.9454771280288696e-01 7.0239597558975220e-01</leafValues></_>
        <_>
          <internalNodes>
            0 -1 5 -521215250 1610908738 -2147401525 -468024506 68815
            -1375723091 276951716 1198739557</internalNodes>
          <leafValues>
            -5.7755148410797119e-01 4.1569334268569946e-01</leafValues></_>
        <_>
          <internalNodes>
            0 -1 14 218634958 1291915424 1392526234 1432616976 671273642
            -1887084340 547523186 1503854236</internalNodes>
          <leafValues>
            -7.4775469303131104e-01 3.1168249249458313e-01</leafValues></_>
        <_>
          <internalNodes>
            0 -1 115 -200158785 -92431618 276394152 -747276813 285723578
            -1675636922 1019169578 -134369793</internalNodes>
          <leafValues>
            -3.6829349398612976e-01 6.8795478343963623e-01</leafValues></_>
        <_>
          <internalNodes>
            0 -1 33 -351630102 2132344837 -1844668663 496731801
            1346546232 -1475297101 -1457817469 -850673465</internalNodes>
          <leafValues>
            -5.4168015718460083e-01 4.7200134396553040e-01</leafValues></_>
        <_>
          <internalNodes>
            0 -1 70 -1856315192 1152417936 1544130818 1763380275
            302303899 1078460673 -1979157622 1208890505</internalNodes>
          <leafValues>
            -7.1279454231262207e-01 3.7069287896156311e-01</leafValues></_>
        <_>
          <internalNodes>
            0 -1 109 -1206594088 -662699376 -2147466544 1374146673
            -1845194368 -265633782 10654891 -653334495</internalNodes>
          <leafValues>
            -5.2443712949752808e-01 5.0421082973480225e-01</leafValues></_></weakClassifiers></_>
    <!-- stage 18 -->
    <_>
      <maxWeakCount>7</maxWeakCount>
      <stageThreshold>-6.9540786743164062e-01</stageThreshold>
      <weakClassifiers>
        <_>
          <internalNodes>
            0 -1 56 -1074458768 -8962732 -720899 -842604076 233897983
            -270341 -151601153 1607134936</internalNodes>
          <leafValues>
            -4.4946235418319702e-01 5.3656387329101562e-01</leafValues></_>
        <_>
          <internalNodes>
            0 -1 42 -18252033 -611354112 1867512593 429099265 -16777337
            -20062527 1072168393 -823146880</internalNodes>
          <leafValues>
            -3.8234594464302063e-01 5.7497155666351318e-01</leafValues></_>
        <_>
          <internalNodes>
            0 -1 20 -67166564 -1208002339 1050829720 -946127358
            -1367384566 -135281085 -1484813394 -942435157</internalNodes>
          <leafValues>
            -4.3122813105583191e-01 5.4557424783706665e-01</leafValues></_>
        <_>
          <internalNodes>
            0 -1 44 -1449484866 -720283824 1984431885 802897937
            -1446803237 168984994 -666836301 1313801050</internalNodes>
          <leafValues>
            -6.1509132385253906e-01 3.8798582553863525e-01</leafValues></_>
        <_>
          <internalNodes>
            0 -1 13 701794394 -217049461 1095148928 -251128520 813777352
            345506945 -1009275750 1526931682</internalNodes>
          <leafValues>
            -6.7764878273010254e-01 3.4402006864547729e-01</leafValues></_>
        <_>
          <internalNodes>
            0 -1 68 -845544750 -2011705120 -1056903137 1309942275
            -1144999748 -1177845760 17895410 -348519924</internalNodes>
          <leafValues>
            -5.9306186437606812e-01 4.2361637949943542e-01</leafValues></_>
        <_>
          <internalNodes>
            0 -1 24 488669629 1916611057 2083454975 2032738353 536803068
            -8684431 938930174 1964659635</internalNodes>
          <leafValues>
            -4.6671557426452637e-01 5.7470160722732544e-01</leafValues></_></weakClassifiers></_>
    <!-- stage 19 -->
    <_>
      <maxWeakCount>10</maxWeakCount>
      <stageThreshold>-8.6225485801696777e-01</stageThreshold>
      <weakClassifiers>
        <_>
          <internalNodes>
            0 -1 123 -1279684298 -51782 2126314746 -14713542 -1080361032
            -2088885896 373554939 1650430622</internalNodes>
          <leafValues>
            -3.4851139783859253e-01 5.8211857080459595e-01</leafValues></_>
        <_>
          <internalNodes>
            0 -1 87 -1795701281 1549873088 -536927440 -495159051
            -1154879854 252449678 1992095658 -608197211</internalNodes>
          <leafValues>
            -2.9930421710014343e-01 6.6483098268508911e-01</leafValues></_>
        <_>
          <internalNodes>
            0 -1 89 884297951 35717153 -1853828783 1090539889
            -2003793669 -1723989975 12891115 440185288</internalNodes>
          <leafValues>
            -5.3481435775756836e-01 4.2638936638832092e-01</leafValues></_>
        <_>
          <internalNodes>
            0 -1 86 1069506557 1549240561 989503809 1127235642
            -739096199 -750823997 68891329 -540026977</internalNodes>
          <leafValues>
            -3.6061042547225952e-01 6.4891350269317627e-01</leafValues></_>
        <_>
          <internalNodes>
            0 -1 130 -546311288 -2136173411 -2117531005 -1352810347
            67233464 134440992 1670717832 1085336203</internalNodes>
          <leafValues>
            -6.5214544534683228e-01 3.9408388733863831e-01</leafValues></_>
        <_>
          <internalNodes>
            0 -1 26 -195651421 1395106496 23072801 1032868144 1074892253
            -2095930877 -1707962229 -1966546601</internalNodes>
          <leafValues>
            -5.0577098131179810e-01 5.2627491950988770e-01</leafValues></_>
        <_>
          <internalNodes>
            0 -1 11 -1794320534 -754876398 -1064959427 -378141488
            413337075 172558470 63654040 660457699</internalNodes>
          <leafValues>
            -6.4123356342315674e-01 4.1084825992584229e-01</leafValues></_>
        <_>
          <internalNodes>
            0 -1 39 -1858059549 -758546216 268947559 -549056479
            -2139059680 1221296272 -263147879 -497392767</internalNodes>
          <leafValues>
            -4.9023401737213135e-01 5.5503159761428833e-01</leafValues></_>
        <_>
          <internalNodes>
            0 -1 119 -29500379 -18161928 -355807505 1537985514
            -272959506 -282408288 1327759231 -365986069</internalNodes>
          <leafValues>
            -4.0511924028396606e-01 6.6009593009948730e-01</leafValues></_>
        <_>
          <internalNodes>
            0 -1 76 172642552 -698796864 38455445 428360197 -1842735206
            -754941560 42762476 -2008362816</internalNodes>
          <leafValues>
            -5.8659285306930542e-01 4.7413116693496704e-01</leafValues></_></weakClassifiers></_></stages>
  <features>
    <_>
      <rect>
        0 2 10 8</rect></_>
    <_>
      <rect>
        0 11 8 6</rect></_>
    <_>
      <rect>
        1 4 17 12</rect></_>
    <_>
      <rect>
        1 12 7 4</rect></_>
    <_>
      <rect>
        1 15 20 7</rect></_>
    <_>
      <rect>
        2 1 10 8</rect></_>
    <_>
      <rect>
        2 3 13 9</rect></_>
    <_>
      <rect>
        2 19 16 7</rect></_>
    <_>
      <rect>
        3 10 7 5</rect></_>
    <_>
      <rect>
        4 25 10 4</rect></_>
    <_>
      <rect>
        7 9 9 10</rect></_>
    <_>
      <rect>
        12 5 14 6</rect></_>
    <_>
      <rect>
        12 6 18 6</rect></_>
    <_>
      <rect>
        12 11 14 9</rect></_>
    <_>
      <rect>
        13 0 18 11</rect></_>
    <_>
      <rect>
        13 17 14 5</rect></_>
    <_>
      <rect>
        15 7 13 8</rect></_>
    <_>
      <rect>
        16 19 19 7</rect></_>
    <_>
      <rect>
        17 16 12 5</rect></_>
    <_>
      <rect>
        18 2 17 9</rect></_>
    <_>
      <rect>
        18 10 10 7</rect></_>
    <_>
      <rect>
        18 11 11 6</rect></_>
    <_>
      <rect>
        18 12 9 3</rect></_>
    <_>
      <rect>
        18 17 13 5</rect></_>
    <_>
      <rect>
        18 29 8 3</rect></_>
    <_>
      <rect>
        19 11 11 4</rect></_>
    <_>
      <rect>
        19 15 9 5</rect></_>
    <_>
      <rect>
        19 18 13 4</rect></_>
    <_>
      <rect>
        19 28 9 3</rect></_>
    <_>
      <rect>
        20 0 13 5</rect></_>
    <_>
      <rect>
        20 15 9 4</rect></_>
    <_>
      <rect>
        20 23 11 4</rect></_>
    <_>
      <rect>
        21 9 12 5</rect></_>
    <_>
      <rect>
        21 18 7 3</rect></_>
    <_>
      <rect>
        21 25 10 4</rect></_>
    <_>
      <rect>
        22 6 8 4</rect></_>
    <_>
      <rect>
        22 9 11 5</rect></_>
    <_>
      <rect>
        22 12 11 5</rect></_>
    <_>
      <rect>
        23 4 15 6</rect></_>
    <_>
      <rect>
        23 11 10 3</rect></_>
    <_>
      <rect>
        23 11 12 5</rect></_>
    <_>
      <rect>
        23 14 8 3</rect></_>
    <_>
      <rect>
        23 15 7 3</rect></_>
    <_>
      <rect>
        23 16 6 3</rect></_>
    <_>
      <rect>
        23 17 10 4</rect></_>
    <_>
      <rect>
        23 18 9 5</rect></_>
    <_>
      <rect>
        23 27 10 3</rect></_>
    <_>
      <rect>
        24 9 8 7</rect></_>
    <_>
      <rect>
        24 9 10 7</rect></_>
    <_>
      <rect>
        24 15 11 5</rect></_>
    <_>
      <rect>
        25 17 4 3</rect></_>
    <_>
      <rect>
        25 18 8 4</rect></_>
    <_>
      <rect>
        26 6 18 11</rect></_>
    <_>
      <rect>
        26 18 4 3</rect></_>
    <_>
      <rect>
        26 28 8 4</rect></_>
    <_>
      <rect>
        27 0 11 6</rect></_>
    <_>
      <rect>
        27 5 9 10</rect></_>
    <_>
      <rect>
        27 10 9 5</rect></_>
    <_>
      <rect>
        28 9 8 3</rect></_>
    <_>
      <rect>
        28 13 11 4</rect></_>
    <_>
      <rect>
        28 18 4 2</rect></_>
    <_>
      <rect>
        28 18 5 5</rect></_>
    <_>
      <rect>
        28 18 6 2</rect></_>
    <_>
      <rect>
        28 18 8 6</rect></_>
    <_>
      <rect>
        28 19 6 4</rect></_>
    <_>
      <rect>
        29 7 9 4</rect></_>
    <_>
      <rect>
        29 18 6 2</rect></_>
    <_>
      <rect>
        30 12 16 7</rect></_>
    <_>
      <rect>
        30 15 5 2</rect></_>
    <_>
      <rect>
        30 16 10 4</rect></_>
    <_>
      <rect>
        30 19 4 2</rect></_>
    <_>
      <rect>
        30 23 7 2</rect></_>
    <_>
      <rect>
        31 15 9 3</rect></_>
    <_>
      <rect>
        31 16 6 4</rect></_>
    <_>
      <rect>
        31 16 7 4</rect></_>
    <_>
      <rect>
        31 17 7 2</rect></_>
    <_>
      <rect>
        32 5 7 3</rect></_>
    <_>
      <rect>
        32 24 6 3</rect></_>
    <_>
      <rect>
        33 7 11 10</rect></_>
    <_>
      <rect>
        33 8 8 4</rect></_>
    <_>
      <rect>
        33 13 4 3</rect></_>
    <_>
      <rect>
        33 18 5 5</rect></_>
    <_>
      <rect>
        34 8 3 2</rect></_>
    <_>
      <rect>
        34 15 10 7</rect></_>
    <_>
      <rect>
        34 17 3 2</rect></_>
    <_>
      <rect>
        34 18 3 1</rect></_>
    <_>
      <rect>
        34 18 4 2</rect></_>
    <_>
      <rect>
        34 19 2 2</rect></_>
    <_>
      <rect>
        34 26 4 2</rect></_>
    <_>
      <rect>
        34 30 5 2</rect></_>
    <_>
      <rect>
        35 12 15 9</rect></_>
    <_>
      <rect>
        35 15 3 3</rect></_>
    <_>
      <rect>
        35 16 15 8</rect></_>
    <_>
      <rect>
        35 27 2 1</rect></_>
    <_>
      <rect>
        36 14 3 3</rect></_>
    <_>
      <rect>
        36 15 2 2</rect></_>
    <_>
      <rect>
        36 16 2 2</rect></_>
    <_>
      <rect>
        36 17 2 3</rect></_>
    <_>
      <rect>
        36 18 2 1</rect></_>
    <_>
      <rect>
        36 18 3 1</rect></_>
    <_>
      <rect>
        36 20 2 1</rect></_>
    <_>
      <rect>
        36 21 2 1</rect></_>
    <_>
      <rect>
        36 25 5 2</rect></_>
    <_>
      <rect>
        36 25 6 2</rect></_>
    <_>
      <rect>
        36 25 14 5</rect></_>
    <_>
      <rect>
        36 29 4 2</rect></_>
    <_>
      <rect>
        37 17 2 2</rect></_>
    <_>
      <rect>
        37 18 2 1</rect></_>
    <_>
      <rect>
        37 19 2 1</rect></_>
    <_>
      <rect>
        37 24 6 2</rect></_>
    <_>
      <rect>
        37 27 3 2</rect></_>
    <_>
      <rect>
        38 0 14 12</rect></_>
    <_>
      <rect>
        38 16 1 2</rect></_>
    <_>
      <rect>
        38 19 1 3</rect></_>
    <_>
      <rect>
        38 19 2 1</rect></_>
    <_>
      <rect>
        38 19 2 2</rect></_>
    <_>
      <rect>
        39 14 1 3</rect></_>
    <_>
      <rect>
        39 15 1 2</rect></_>
    <_>
      <rect>
        39 16 1 2</rect></_>
    <_>
      <rect>
        39 16 5 3</rect></_>
    <_>
      <rect>
        39 17 1 2</rect></_>
    <_>
      <rect>
        39 17 3 3</rect></_>
    <_>
      <rect>
        39 18 1 1</rect></_>
    <_>
      <rect>
        39 19 1 1</rect></_>
    <_>
      <rect>
        39 20 1 1</rect></_>
    <_>
      <rect>
        40 17 1 2</rect></_>
    <_>
      <rect>
        40 18 1 1</rect></_>
    <_>
      <rect>
        40 26 6 3</rect></_>
    <_>
      <rect>
        41 17 2 2</rect></_>
    <_>
      <rect>
        42 15 6 3</rect></_>
    <_>
      <rect>
        43 17 12 7</rect></_>
    <_>
      <rect>
        45 0 11 11</rect></_>
    <_>
      <rect>
        45 9 10 7</rect></_>
    <_>
      <rect>
        48 16 2 1</rect></_>
    <_>
      <rect>
        50 12 7 5</rect></_></features></cascade>
</opencv_storage>
