<?xml version="1.0"?>
<opencv_storage>
<cascade>
  <stageType>BOOST</stageType>
  <featureType>LBP</featureType>
  <height>40</height>
  <width>80</width>
  <stageParams>
    <boostType>GAB</boostType>
    <minHitRate>9.9900001287460327e-01</minHitRate>
    <maxFalseAlarm>5.0000000000000000e-01</maxFalseAlarm>
    <weightTrimRate>9.4999999999999996e-01</weightTrimRate>
    <maxDepth>1</maxDepth>
    <maxWeakCount>100</maxWeakCount></stageParams>
  <featureParams>
    <maxCatCount>256</maxCatCount>
    <featSize>1</featSize></featureParams>
  <stageNum>20</stageNum>
  <stages>
    <!-- stage 0 -->
    <_>
      <maxWeakCount>5</maxWeakCount>
      <stageThreshold>-1.6632559299468994e+00</stageThreshold>
      <weakClassifiers>
        <_>
          <internalNodes>
            0 -1 37 -595002664 -582089728 -592961583 389557288 -12804870
            -41125902 1276153278 -1962406774</internalNodes>
          <leafValues>
            -5.8688527345657349e-01 7.6565659046173096e-01</leafValues></_>
        <_>
          <internalNodes>
            0 -1 24 -268381056 -545128446 4097 1426128979 -2004713270
            -1970798592 -1073692534 187367442</internalNodes>
          <leafValues>
            -6.8051785230636597e-01 6.3617986440658569e-01</leafValues></_>
        <_>
          <internalNodes>
            0 -1 156 -13919536 -7766400 1040814741 1432030320
            -1879428470 -1977831740 6592 -1689582007</internalNodes>
          <leafValues>
            -5.4146611690521240e-01 6.9552004337310791e-01</leafValues></_>
        <_>
          <internalNodes>
            0 -1 28 -814841648 -4013918 934852281 419505704 -550091014
            -542320092 1849676287 -15564638</internalNodes>
          <leafValues>
            -5.6182163953781128e-01 6.7559564113616943e-01</leafValues></_>
        <_>
          <internalNodes>
            0 -1 117 -650034048 -137756656 268455952 -788463488
            -1073706856 -2004287486 32898 -2146811519</internalNodes>
          <leafValues>
            -6.0926276445388794e-01 6.8330484628677368e-01</leafValues></_></weakClassifiers></_>
    <!-- stage 1 -->
    <_>
      <maxWeakCount>6</maxWeakCount>
      <stageThreshold>-8.5087072849273682e-01</stageThreshold>
      <weakClassifiers>
        <_>
          <internalNodes>
            0 -1 125 -1069383680 1365616800 1447034882 289742589
            -1613648724 921414346 448434363 319492495</internalNodes>
          <leafValues>
            -5.3818827867507935e-01 6.7791706323623657e-01</leafValues></_>
        <_>
          <internalNodes>
            0 -1 155 -1693413168 -15725208 1190808401 319493189
            -1356152696 -1712784182 67536058 525012057</internalNodes>
          <leafValues>
            -5.2305155992507935e-01 6.7690712213516235e-01</leafValues></_>
        <_>
          <internalNodes>
            0 -1 105 -1675620200 -44298244 263471063 491326809
            -1342386045 -1367351366 1152653213 455023903</internalNodes>
          <leafValues>
            -5.4444253444671631e-01 6.4473313093185425e-01</leafValues></_>
        <_>
          <internalNodes>
            0 -1 157 -786382440 -243724292 410800124 527504393 925931680
            383537032 983054527 454763151</internalNodes>
          <leafValues>
            -5.4539328813552856e-01 6.7229807376861572e-01</leafValues></_>
        <_>
          <internalNodes>
            0 -1 100 -543949678 -195186808 -1106612708 -787874548
            -1119187544 -100926008 433751483 -1088702437</internalNodes>
          <leafValues>
            -5.8851605653762817e-01 6.9573467969894409e-01</leafValues></_>
        <_>
          <internalNodes>
            0 -1 102 470347912 -1172676478 1122229353 -748208605 1591736
            -1641791641 -781007656 -1688595249</internalNodes>
          <leafValues>
            -5.0041335821151733e-01 7.7159029245376587e-01</leafValues></_></weakClassifiers></_>
    <!-- stage 2 -->
    <_>
      <maxWeakCount>6</maxWeakCount>
      <stageThreshold>-6.7579990625381470e-01</stageThreshold>
      <weakClassifiers>
        <_>
          <internalNodes>
            0 -1 64 -73336066 -604957696 -1088309496 2136809300
            -1476333670 1055948500 1430302941 1594056088</internalNodes>
          <leafValues>
            -5.4440152645111084e-01 6.3031423091888428e-01</leafValues></_>
        <_>
          <internalNodes>
            0 -1 11 -13632258 -13632550 -1349993907 1561409515
            -1663644774 -185713008 1326116347 -72108355</internalNodes>
          <leafValues>
            -3.6559310555458069e-01 7.2824698686599731e-01</leafValues></_>
        <_>
          <internalNodes>
            0 -1 14 -729627512 -603766783 17567747 1093214272
            -1740504910 1343262736 607147 1110958227</internalNodes>
          <leafValues>
            -5.5479204654693604e-01 5.2453488111495972e-01</leafValues></_>
        <_>
          <internalNodes>
            0 -1 96 -223950118 2041987840 -2106510631 -1811940607
            -2005479254 -1987875444 1681981899 -620567331</internalNodes>
          <leafValues>
            -4.0655821561813354e-01 7.2921818494796753e-01</leafValues></_>
        <_>
          <internalNodes>
            0 -1 160 -1355615078 1473065708 -6781262 1365752961
            -1682795605 144088900 448811514 -1575760773</internalNodes>
          <leafValues>
            -4.4480782747268677e-01 6.4125585556030273e-01</leafValues></_>
        <_>
          <internalNodes>
            0 -1 30 -786640646 -1862074240 1073745933 486670341
            -2147450678 411107458 41978019 -1693609830</internalNodes>
          <leafValues>
            -5.2503776550292969e-01 5.7103282213211060e-01</leafValues></_></weakClassifiers></_>
    <!-- stage 3 -->
    <_>
      <maxWeakCount>8</maxWeakCount>
      <stageThreshold>-8.3522045612335205e-01</stageThreshold>
      <weakClassifiers>
        <_>
          <internalNodes>
            0 -1 83 2133479672 -1657004296 1981567041 358173944
            -1107109688 -816851916 352592590 185077976</internalNodes>
          <leafValues>
            -4.4672897458076477e-01 6.0000002384185791e-01</leafValues></_>
        <_>
          <internalNodes>
            0 -1 93 -721309024 -774897599 1125245779 1563498269
            -1073162102 -133627893 134387883 1596696639</internalNodes>
          <leafValues>
            -4.9306783080101013e-01 5.1173055171966553e-01</leafValues></_>
        <_>
          <internalNodes>
            0 -1 127 -551511872 -38205644 -1562836536 1466114545
            -1097562998 -2084509883 1140303294 -1950379734</internalNodes>
          <leafValues>
            -4.1076961159706116e-01 6.7851430177688599e-01</leafValues></_>
        <_>
          <internalNodes>
            0 -1 146 -558305104 -609952632 842995409 -1656005303
            1605547674 -1688528214 353537466 453738970</internalNodes>
          <leafValues>
            -4.6416559815406799e-01 6.3848161697387695e-01</leafValues></_>
        <_>
          <internalNodes>
            0 -1 10 -326706049 1717761786 -1208025091 -1380196353
            -718080293 -835813890 1583472638 2086925299</internalNodes>
          <leafValues>
            -5.0111603736877441e-01 6.1441296339035034e-01</leafValues></_>
        <_>
          <internalNodes>
            0 -1 55 -750725678 -1819209643 -2130476706 1091004489
            -2129731366 -922582909 688556491 189749899</internalNodes>
          <leafValues>
            -5.3420668840408325e-01 5.3867220878601074e-01</leafValues></_>
        <_>
          <internalNodes>
            0 -1 69 -2102798152 -549684504 -1191188481 1408325057
            649692568 -1902174338 512546511 -1086431860</internalNodes>
          <leafValues>
            -4.5026940107345581e-01 7.2317141294479370e-01</leafValues></_>
        <_>
          <internalNodes>
            0 -1 92 -804204480 -704556784 -1056894963 1090625557
            1090551880 1090732545 -2130591094 36194307</internalNodes>
          <leafValues>
            -6.8907088041305542e-01 4.7523966431617737e-01</leafValues></_></weakClassifiers></_>
    <!-- stage 4 -->
    <_>
      <maxWeakCount>6</maxWeakCount>
      <stageThreshold>-7.6931965351104736e-01</stageThreshold>
      <weakClassifiers>
        <_>
          <internalNodes>
            0 -1 62 -41890632 -1088240006 -15591177 -1683343432
            -1380946708 1044151860 -1624187393 -1373599556</internalNodes>
          <leafValues>
            -5.1999998092651367e-01 6.8195122480392456e-01</leafValues></_>
        <_>
          <internalNodes>
            0 -1 130 -1053982558 -739954834 216932466 862785114
            1968079018 120472744 1549440218 -2145428066</internalNodes>
          <leafValues>
            -4.4571846723556519e-01 6.8362998962402344e-01</leafValues></_>
        <_>
          <internalNodes>
            0 -1 32 -821916456 831507924 135329972 -240902967 1307495583
            -39218748 219086527 -1954362227</internalNodes>
          <leafValues>
            -5.1631194353103638e-01 6.0037732124328613e-01</leafValues></_>
        <_>
          <internalNodes>
            0 -1 161 1572247698 -744677472 265870871 -782664795
            -1707343704 -1970390278 120980879 -1718740654</internalNodes>
          <leafValues>
            -4.4447997212409973e-01 6.8791759014129639e-01</leafValues></_>
        <_>
          <internalNodes>
            0 -1 38 -1073671976 -805301503 218137691 1896022016
            815833278 -1837070311 143296720 -806662973</internalNodes>
          <leafValues>
            -4.7597396373748779e-01 6.5004819631576538e-01</leafValues></_>
        <_>
          <internalNodes>
            0 -1 36 1407275332 1896349961 1493172375 -754909180
            -2013224266 -1584856952 -1996324852 -800417782</internalNodes>
          <leafValues>
            -6.2858128547668457e-01 5.5245035886764526e-01</leafValues></_></weakClassifiers></_>
    <!-- stage 5 -->
    <_>
      <maxWeakCount>10</maxWeakCount>
      <stageThreshold>-8.4526759386062622e-01</stageThreshold>
      <weakClassifiers>
        <_>
          <internalNodes>
            0 -1 141 -771774961 -772685875 905250317 934502881
            -255944498 1384539015 389975786 322144143</internalNodes>
          <leafValues>
            -2.7873563766479492e-01 6.5707963705062866e-01</leafValues></_>
        <_>
          <internalNodes>
            0 -1 59 -743444038 -651706216 67158987 1628655749 1376293018
            1930498048 -670596721 1325628303</internalNodes>
          <leafValues>
            -4.8317953944206238e-01 4.9491006135940552e-01</leafValues></_>
        <_>
          <internalNodes>
            0 -1 53 -80750846 1215241474 -1637677103 -736802893
            -67905919 -86482966 -806595055 -676606009</internalNodes>
          <leafValues>
            -4.4728252291679382e-01 5.0268971920013428e-01</leafValues></_>
        <_>
          <internalNodes>
            0 -1 132 -651110184 -211080184 1649350035 831462416
            -1218395142 -1282509086 1354011 -1625647461</internalNodes>
          <leafValues>
            -4.1158467531204224e-01 5.7840269804000854e-01</leafValues></_>
        <_>
          <internalNodes>
            0 -1 88 1990727874 1393705373 -2063330494 1369162806
            1075888512 1753219072 1107309003 193923371</internalNodes>
          <leafValues>
            -5.6715339422225952e-01 4.3831133842468262e-01</leafValues></_>
        <_>
          <internalNodes>
            0 -1 44 819715262 1499578514 1342198288 1552352665
            -246815304 -2147254232 -1920761751 1502210703</internalNodes>
          <leafValues>
            -5.2837783098220825e-01 5.2465254068374634e-01</leafValues></_>
        <_>
          <internalNodes>
            0 -1 67 -129510926 1883996422 285542741 1409778194
            -1073103534 -108978167 -1610317285 1356590015</internalNodes>
          <leafValues>
            -5.3764176368713379e-01 5.0264990329742432e-01</leafValues></_>
        <_>
          <internalNodes>
            0 -1 108 1881313424 -159879595 -725684437 322373199
            -348474174 -1892369627 1883763835 -1018491461</internalNodes>
          <leafValues>
            -4.5115497708320618e-01 6.0400450229644775e-01</leafValues></_>
        <_>
          <internalNodes>
            0 -1 0 -171513870 -779882479 1090539715 1665229128 306555297
            -1878912240 -935212814 -227376313</internalNodes>
          <leafValues>
            -5.5852538347244263e-01 5.4201561212539673e-01</leafValues></_>
        <_>
          <internalNodes>
            0 -1 19 -1930808945 1480892426 1342226737 957075594
            1310155777 50528258 -1879031784 1631023951</internalNodes>
          <leafValues>
            -5.7031798362731934e-01 5.1710373163223267e-01</leafValues></_></weakClassifiers></_>
    <!-- stage 6 -->
    <_>
      <maxWeakCount>9</maxWeakCount>
      <stageThreshold>-5.2408933639526367e-01</stageThreshold>
      <weakClassifiers>
        <_>
          <internalNodes>
            0 -1 25 -615592242 1374875322 1111391594 -919458196
            2074105016 -1736575427 1591267327 848340979</internalNodes>
          <leafValues>
            -4.2071881890296936e-01 5.3149956464767456e-01</leafValues></_>
        <_>
          <internalNodes>
            0 -1 145 494973640 1440153992 1879081615 -1110326002
            -1341017972 268961920 588497163 866116063</internalNodes>
          <leafValues>
            -4.6150645613670349e-01 4.3989261984825134e-01</leafValues></_>
        <_>
          <internalNodes>
            0 -1 91 -96387064 1540309008 101236867 -645295541 1310441722
            -1198325591 1644304786 -133681135</internalNodes>
          <leafValues>
            -5.6344258785247803e-01 3.8760280609130859e-01</leafValues></_>
        <_>
          <internalNodes>
            0 -1 119 -1612146543 -684439518 -496748099 -1826548853
            -1760022370 -3132322 239161547 -1623206501</internalNodes>
          <leafValues>
            -3.2018762826919556e-01 7.2008496522903442e-01</leafValues></_>
        <_>
          <internalNodes>
            0 -1 135 -1794631521 -73261464 1516555891 1500716151
            -1183133765 -553668070 274363579 453706887</internalNodes>
          <leafValues>
            -4.2378935217857361e-01 5.7266092300415039e-01</leafValues></_>
        <_>
          <internalNodes>
            0 -1 29 -1012582952 1402011660 -2130603452 -1049015679
            -888567316 -1697611591 -670726007 1607442667</internalNodes>
          <leafValues>
            -5.7668471336364746e-01 4.3651843070983887e-01</leafValues></_>
        <_>
          <internalNodes>
            0 -1 89 -1777970999 -595392096 -1047817779 -805191659
            -2105526142 -595390208 1879085717 -132382447</internalNodes>
          <leafValues>
            -5.3860479593276978e-01 4.6100592613220215e-01</leafValues></_>
        <_>
          <internalNodes>
            0 -1 39 1698779476 1528102912 4227103 -1891483381 -662613814
            -1190952807 -972531319 -586766070</internalNodes>
          <leafValues>
            -5.3983074426651001e-01 4.7093191742897034e-01</leafValues></_>
        <_>
          <internalNodes>
            0 -1 166 2140970970 -1779941659 1979579633 1497063413
            -1117674870 539762412 855125944 -2101411284</internalNodes>
          <leafValues>
            -4.9546697735786438e-01 5.1601290702819824e-01</leafValues></_></weakClassifiers></_>
    <!-- stage 7 -->
    <_>
      <maxWeakCount>7</maxWeakCount>
      <stageThreshold>-1.2527172565460205e+00</stageThreshold>
      <weakClassifiers>
        <_>
          <internalNodes>
            0 -1 74 1403115745 490144773 1605369087 1495750883 388029134
            -551157801 1462828783 -1750870068</internalNodes>
          <leafValues>
            -1.6831682622432709e-01 6.7676764726638794e-01</leafValues></_>
        <_>
          <internalNodes>
            0 -1 61 -323040688 -708577502 2137436672 426390067
            -1368735536 -1412690772 1725390129 -1922687176</internalNodes>
          <leafValues>
            -3.7874394655227661e-01 5.2263253927230835e-01</leafValues></_>
        <_>
          <internalNodes>
            0 -1 26 -629015414 -632631032 402657280 2041614464
            -2146641688 369789240 1770181786 1616494744</internalNodes>
          <leafValues>
            -7.3017877340316772e-01 2.9948303103446960e-01</leafValues></_>
        <_>
          <internalNodes>
            0 -1 51 -71707525 1341328450 -1360061451 -1910698753
            -294273262 -1874757805 90228467 -308832351</internalNodes>
          <leafValues>
            -3.8152515888214111e-01 6.0746467113494873e-01</leafValues></_>
        <_>
          <internalNodes>
            0 -1 71 -804194058 -787250730 67731 352440509 -2012159302
            318440072 1351010515 320542081</internalNodes>
          <leafValues>
            -5.5509287118911743e-01 4.4380831718444824e-01</leafValues></_>
        <_>
          <internalNodes>
            0 -1 21 -113121030 -783826636 287806911 834744561
            -1300233532 437260416 705007779 968181762</internalNodes>
          <leafValues>
            -4.5921581983566284e-01 5.2719712257385254e-01</leafValues></_>
        <_>
          <internalNodes>
            0 -1 133 -1148939976 -615038448 329097 1359888645
            -1191051046 -1375528702 134744339 523010233</internalNodes>
          <leafValues>
            -6.0820686817169189e-01 3.8730242848396301e-01</leafValues></_></weakClassifiers></_>
    <!-- stage 8 -->
    <_>
      <maxWeakCount>9</maxWeakCount>
      <stageThreshold>-1.0639348030090332e+00</stageThreshold>
      <weakClassifiers>
        <_>
          <internalNodes>
            0 -1 142 -567817050 -264537395 -1505271589 896337353
            -788728092 17137661 -1210598998 622544075</internalNodes>
          <leafValues>
            -3.0153322219848633e-01 5.6959527730941772e-01</leafValues></_>
        <_>
          <internalNodes>
            0 -1 120 -675639042 -719185804 2062960605 1432559537
            -1068064632 -2103965992 118924255 -1689520691</internalNodes>
          <leafValues>
            -2.7248820662498474e-01 6.5412652492523193e-01</leafValues></_>
        <_>
          <internalNodes>
            0 -1 117 -616315644 1373077657 4280594 1359745405
            -1576803839 -2012184576 805311400 -724680407</internalNodes>
          <leafValues>
            -4.5214149355888367e-01 4.8469755053520203e-01</leafValues></_>
        <_>
          <internalNodes>
            0 -1 139 -1251911744 -559763844 -2097152465 1536532817
            -1354842226 -708389084 1417262235 -1442586581</internalNodes>
          <leafValues>
            -4.0691214799880981e-01 5.6229132413864136e-01</leafValues></_>
        <_>
          <internalNodes>
            0 -1 17 -1943085474 -1142100738 -1879416841 -1653473607
            -2136486146 -1627589002 74907391 -717030390</internalNodes>
          <leafValues>
            -4.2369890213012695e-01 5.1909738779067993e-01</leafValues></_>
        <_>
          <internalNodes>
            0 -1 148 -1574347560 -616611872 1660579955 1127840312
            -1881275207 -540586173 473749403 2065693034</internalNodes>
          <leafValues>
            -4.1252166032791138e-01 5.8851754665374756e-01</leafValues></_>
        <_>
          <internalNodes>
            0 -1 7 -2120761122 -1014890046 16975893 302352657 289570884
            138561546 -2113723864 1326709622</internalNodes>
          <leafValues>
            -5.0658971071243286e-01 4.7774279117584229e-01</leafValues></_>
        <_>
          <internalNodes>
            0 -1 8 -632954150 839533127 151224612 -1580887211 -637295374
            1141905569 -2147440300 -1300372901</internalNodes>
          <leafValues>
            -6.0326707363128662e-01 4.0118873119354248e-01</leafValues></_>
        <_>
          <internalNodes>
            0 -1 99 -788467208 1363525648 16777499 1258405956
            -2147445629 -1870626286 565321882 117571584</internalNodes>
          <leafValues>
            -6.7033326625823975e-01 3.8808882236480713e-01</leafValues></_></weakClassifiers></_>
    <!-- stage 9 -->
    <_>
      <maxWeakCount>10</maxWeakCount>
      <stageThreshold>-8.8696956634521484e-01</stageThreshold>
      <weakClassifiers>
        <_>
          <internalNodes>
            0 -1 152 -594808360 2070242600 463855362 1398739716
            132444040 1350448475 1473173315 1129305311</internalNodes>
          <leafValues>
            -2.9032257199287415e-01 5.6478732824325562e-01</leafValues></_>
        <_>
          <internalNodes>
            0 -1 34 -1014185766 -216887144 291935505 956896092
            -738196774 -1676639608 1703286322 -1080948536</internalNodes>
          <leafValues>
            -4.8096379637718201e-01 4.2160809040069580e-01</leafValues></_>
        <_>
          <internalNodes>
            0 -1 162 -638846444 1831074362 -592665388 1191416832
            -806297618 -667895250 1839902174 -570270406</internalNodes>
          <leafValues>
            -3.8753756880760193e-01 5.2148044109344482e-01</leafValues></_>
        <_>
          <internalNodes>
            0 -1 78 -1867497108 -662545311 -1874800379 1100743829
            -1945501012 -1550704640 43755 323683345</internalNodes>
          <leafValues>
            -6.0284495353698730e-01 3.5428261756896973e-01</leafValues></_>
        <_>
          <internalNodes>
            0 -1 131 -760554286 -141023071 -1141489793 1965409393
            -2014279751 1481533878 1146485339 -1694059257</internalNodes>
          <leafValues>
            -4.4585442543029785e-01 5.3962093591690063e-01</leafValues></_>
        <_>
          <internalNodes>
            0 -1 16 -972285290 -1647754734 -2129637271 -1038151412
            -1609439704 -800909055 1220544136 1411631366</internalNodes>
          <leafValues>
            -6.0151344537734985e-01 3.8675141334533691e-01</leafValues></_>
        <_>
          <internalNodes>
            0 -1 164 2070420728 1475269512 -83985743 1501445240
            -1207407494 1299873151 912670175 195949976</internalNodes>
          <leafValues>
            -4.7248035669326782e-01 5.2074879407882690e-01</leafValues></_>
        <_>
          <internalNodes>
            0 -1 75 -1625796381 -286864304 211707647 -576958667
            -1087710023 -1409836434 842900115 -1652943658</internalNodes>
          <leafValues>
            -4.3657839298248291e-01 5.7359576225280762e-01</leafValues></_>
        <_>
          <internalNodes>
            0 -1 138 -934285280 1009368362 -352784022 -547547777
            -1640374552 -819096745 -1086742686 -589581078</internalNodes>
          <leafValues>
            -4.1060110926628113e-01 6.0229337215423584e-01</leafValues></_>
        <_>
          <internalNodes>
            0 -1 5 -1016365535 -1339429141 -558957340 -207093850
            930598015 -1338507266 1719125108 -253242299</internalNodes>
          <leafValues>
            -4.3898802995681763e-01 5.7502722740173340e-01</leafValues></_></weakClassifiers></_>
    <!-- stage 10 -->
    <_>
      <maxWeakCount>9</maxWeakCount>
      <stageThreshold>-6.7292988300323486e-01</stageThreshold>
      <weakClassifiers>
        <_>
          <internalNodes>
            0 -1 77 -1377026196 -9471920 923410200 -2055852615
            -336057734 7408400 1327422925 192581312</internalNodes>
          <leafValues>
            -4.3689319491386414e-01 4.8821547627449036e-01</leafValues></_>
        <_>
          <internalNodes>
            0 -1 141 -521412603 -754736831 289865815 1737695251 2757379
            323108864 453165257 1083820875</internalNodes>
          <leafValues>
            -4.5527812838554382e-01 3.9784833788871765e-01</leafValues></_>
        <_>
          <internalNodes>
            0 -1 168 -1950394721 233373344 -1342177475 -1913213011
            -588352012 16007125 -1528337238 -1470630097</internalNodes>
          <leafValues>
            -3.9150014519691467e-01 5.2265244722366333e-01</leafValues></_>
        <_>
          <internalNodes>
            0 -1 3 1383454734 -133348081 -803815416 -1726971775
            -1064769523 -1878916959 1128931655 1462050771</internalNodes>
          <leafValues>
            -5.9318214654922485e-01 3.2862985134124756e-01</leafValues></_>
        <_>
          <internalNodes>
            0 -1 49 -421990533 -1602055552 431079771 -1874320240
            -301799243 -1595396095 -769474107 1804305008</internalNodes>
          <leafValues>
            -4.4576013088226318e-01 4.6286246180534363e-01</leafValues></_>
        <_>
          <internalNodes>
            0 -1 73 -714907002 -67444724 1731948712 -78249865
            -1207970104 791693304 -1262735729 -939274852</internalNodes>
          <leafValues>
            -4.3703290820121765e-01 5.1811563968658447e-01</leafValues></_>
        <_>
          <internalNodes>
            0 -1 84 -1859086092 1125615664 402665885 1645551632
            -595156816 -1360392054 33817239 420094200</internalNodes>
          <leafValues>
            -5.9775823354721069e-01 3.9023736119270325e-01</leafValues></_>
        <_>
          <internalNodes>
            0 -1 104 -1145621127 -11765139 1124056571 356341757
            -1628567924 -1890300078 -714021473 -1617996593</internalNodes>
          <leafValues>
            -3.6178678274154663e-01 6.9564205408096313e-01</leafValues></_>
        <_>
          <internalNodes>
            0 -1 20 23775146 822702084 -738131951 1795969666 1912734992
            -1575288271 -627521402 721597051</internalNodes>
          <leafValues>
            -6.2859153747558594e-01 3.8868376612663269e-01</leafValues></_></weakClassifiers></_>
    <!-- stage 11 -->
    <_>
      <maxWeakCount>10</maxWeakCount>
      <stageThreshold>-7.3575150966644287e-01</stageThreshold>
      <weakClassifiers>
        <_>
          <internalNodes>
            0 -1 86 -201474336 1431395060 -961045550 411378811
            -1787443714 404616340 829738498 1066009913</internalNodes>
          <leafValues>
            -3.3962264657020569e-01 5.4205608367919922e-01</leafValues></_>
        <_>
          <internalNodes>
            0 -1 65 356140252 360972334 -2147480682 1363231496
            -2013101844 -1333263872 318769068 488119033</internalNodes>
          <leafValues>
            -5.6760042905807495e-01 3.4411704540252686e-01</leafValues></_>
        <_>
          <internalNodes>
            0 -1 90 -961820561 -223263847 501739511 1947981837
            1068092366 -39972 -1720895489 -1559189300</internalNodes>
          <leafValues>
            -3.7941971421241760e-01 5.3148716688156128e-01</leafValues></_>
        <_>
          <internalNodes>
            0 -1 2 -329595325 -1135083263 -1068382205 1829486735
            1343251129 411566219 1099649093 1126380131</internalNodes>
          <leafValues>
            -4.5832133293151855e-01 4.2343083024024963e-01</leafValues></_>
        <_>
          <internalNodes>
            0 -1 154 -910437393 -288505857 1023393654 -441983489
            -738336805 -1774878914 -750831521 -682114913</internalNodes>
          <leafValues>
            -3.0100950598716736e-01 8.0036181211471558e-01</leafValues></_>
        <_>
          <internalNodes>
            0 -1 41 -1034678055 -1767977960 151196209 261576976
            -477986664 2064782224 -2125781624 -841573495</internalNodes>
          <leafValues>
            -4.6435967087745667e-01 4.8974028229713440e-01</leafValues></_>
        <_>
          <internalNodes>
            0 -1 57 -534644384 -827326203 277185241 91953777 -1824288078
            -2113662558 285215324 -1746341284</internalNodes>
          <leafValues>
            -6.2262219190597534e-01 3.6582291126251221e-01</leafValues></_>
        <_>
          <internalNodes>
            0 -1 97 -1674029936 -558555588 2061229053 -713416710
            -911583176 -545547705 958391131 -1728020073</internalNodes>
          <leafValues>
            -4.5115417242050171e-01 5.1530081033706665e-01</leafValues></_>
        <_>
          <internalNodes>
            0 -1 66 -1729899797 -663803408 1593605849 1618640256
            -1346576323 -1906326259 1052024797 735444317</internalNodes>
          <leafValues>
            -4.5510667562484741e-01 5.0689136981964111e-01</leafValues></_>
        <_>
          <internalNodes>
            0 -1 137 -546742861 -470598047 1919925486 -1698078889
            -25366390 -1210581674 2100463306 -885909827</internalNodes>
          <leafValues>
            -3.5493820905685425e-01 6.4293003082275391e-01</leafValues></_></weakClassifiers></_>
    <!-- stage 12 -->
    <_>
      <maxWeakCount>9</maxWeakCount>
      <stageThreshold>-1.0906096696853638e+00</stageThreshold>
      <weakClassifiers>
        <_>
          <internalNodes>
            0 -1 18 2139782854 1225813722 -879184390 453168506
            2108446450 -1934253 1336997372 -1422696973</internalNodes>
          <leafValues>
            -2.9268291592597961e-01 5.5360621213912964e-01</leafValues></_>
        <_>
          <internalNodes>
            0 -1 113 -490216733 979881706 -808194621 1591821380
            -1315981430 -1737765458 538549379 -1318337309</internalNodes>
          <leafValues>
            -3.0396664142608643e-01 5.7796603441238403e-01</leafValues></_>
        <_>
          <internalNodes>
            0 -1 60 433987058 287543492 -1270873899 236879945 33555233
            -1822490568 1614831643 -578134916</internalNodes>
          <leafValues>
            -4.9900844693183899e-01 3.7690052390098572e-01</leafValues></_>
        <_>
          <internalNodes>
            0 -1 47 -226363149 -802175837 -1896526477 -1213836298
            -1755319583 -1310773764 -1243162639 1609440384</internalNodes>
          <leafValues>
            -3.8639563322067261e-01 5.0648403167724609e-01</leafValues></_>
        <_>
          <internalNodes>
            0 -1 82 -519003424 1707931974 -2129510144 1526829577
            269095165 1145634816 822317520 -1296554344</internalNodes>
          <leafValues>
            -5.3345602750778198e-01 4.3112212419509888e-01</leafValues></_>
        <_>
          <internalNodes>
            0 -1 112 -1792518926 -1182187222 1343409627 -2122116091
            -1441623470 -671023102 2015879391 949501961</internalNodes>
          <leafValues>
            -5.3452181816101074e-01 4.1261932253837585e-01</leafValues></_>
        <_>
          <internalNodes>
            0 -1 58 -712810006 1262487554 1073914385 1011236953 67781506
            176752867 687875029 -846630725</internalNodes>
          <leafValues>
            -4.9450239539146423e-01 4.7143638134002686e-01</leafValues></_>
        <_>
          <internalNodes>
            0 -1 70 1346533438 -1827581948 304193837 -1053882988
            -1071595066 1006764080 1209927839 523952271</internalNodes>
          <leafValues>
            -5.5758482217788696e-01 4.1233208775520325e-01</leafValues></_>
        <_>
          <internalNodes>
            0 -1 134 -16230223 1578500313 2146160419 187940687
            -1883603493 -23716420 -579346438 -611383975</internalNodes>
          <leafValues>
            -4.0436854958534241e-01 6.5405124425888062e-01</leafValues></_></weakClassifiers></_>
    <!-- stage 13 -->
    <_>
      <maxWeakCount>10</maxWeakCount>
      <stageThreshold>-9.5567619800567627e-01</stageThreshold>
      <weakClassifiers>
        <_>
          <internalNodes>
            0 -1 111 264 1889861888 134289477 2072772625 -2117958937
            -1987571680 755552413 824707337</internalNodes>
          <leafValues>
            -6.3218390941619873e-01 4.2195668816566467e-01</leafValues></_>
        <_>
          <internalNodes>
            0 -1 115 -649271352 1952055811 1424064576 504320527
            -2067061887 402722828 1078165512 364595690</internalNodes>
          <leafValues>
            -5.4345846176147461e-01 3.2782560586929321e-01</leafValues></_>
        <_>
          <internalNodes>
            0 -1 48 -268962053 2063781044 126516019 1160474061
            -736035406 2114955181 -1945834847 1465487944</internalNodes>
          <leafValues>
            -3.8821762800216675e-01 4.8316627740859985e-01</leafValues></_>
        <_>
          <internalNodes>
            0 -1 31 911588782 -2046105472 67129681 1094901852
            -1986030072 2067595834 -2104802247 -1204106660</internalNodes>
          <leafValues>
            -5.2540898323059082e-01 3.8323789834976196e-01</leafValues></_>
        <_>
          <internalNodes>
            0 -1 114 -260312981 1441301202 -1226384441 1885312621
            179759370 -1191327095 -1775089474 -742655843</internalNodes>
          <leafValues>
            -3.4682559967041016e-01 6.0006743669509888e-01</leafValues></_>
        <_>
          <internalNodes>
            0 -1 147 -999106437 1599683116 1568101847 -1722606443
            2130274696 -1819377672 1983822779 -1081565954</internalNodes>
          <leafValues>
            -3.3537065982818604e-01 6.6011404991149902e-01</leafValues></_>
        <_>
          <internalNodes>
            0 -1 98 -1466661997 -739255302 -16777994 1358126205
            -335617382 -960606703 -1435066441 -817646569</internalNodes>
          <leafValues>
            -3.7654078006744385e-01 5.7963603734970093e-01</leafValues></_>
        <_>
          <internalNodes>
            0 -1 87 722411228 -967720428 -2130666720 323175453
            1837863608 464734797 320965337 155748950</internalNodes>
          <leafValues>
            -6.1763954162597656e-01 3.7184375524520874e-01</leafValues></_>
        <_>
          <internalNodes>
            0 -1 81 1399180775 -1610939615 -559947878 1162010409
            2147337371 -50446340 1345891943 1933141655</internalNodes>
          <leafValues>
            -4.3529409170150757e-01 5.5040311813354492e-01</leafValues></_>
        <_>
          <internalNodes>
            0 -1 23 -560705027 1293432707 -1094713412 1060335346
            2147233019 -449806734 1727929171 1519646423</internalNodes>
          <leafValues>
            -4.4306460022926331e-01 5.1570391654968262e-01</leafValues></_></weakClassifiers></_>
    <!-- stage 14 -->
    <_>
      <maxWeakCount>10</maxWeakCount>
      <stageThreshold>-9.4026994705200195e-01</stageThreshold>
      <weakClassifiers>
        <_>
          <internalNodes>
            0 -1 68 -537264488 444202737 -1092721195 685267985
            2107546872 -1392706059 -564518059 1482658833</internalNodes>
          <leafValues>
            -3.9393940567970276e-01 4.8590949177742004e-01</leafValues></_>
        <_>
          <internalNodes>
            0 -1 6 -435175666 -102322433 -269551930 -101062035
            -1802117719 -1937811969 -1535822446 -483953104</internalNodes>
          <leafValues>
            -3.4197786450386047e-01 4.9599304795265198e-01</leafValues></_>
        <_>
          <internalNodes>
            0 -1 13 -1604368162 2101887249 -2004533246 156907334
            1385760920 998345249 -525137653 928171515</internalNodes>
          <leafValues>
            -4.8443919420242310e-01 3.7710517644882202e-01</leafValues></_>
        <_>
          <internalNodes>
            0 -1 129 -67706481 -67263489 1658744446 -56904559 -537941324
            1517593855 947203835 -1815902071</internalNodes>
          <leafValues>
            -3.4554946422576904e-01 5.6162345409393311e-01</leafValues></_>
        <_>
          <internalNodes>
            0 -1 40 1448020473 1577042049 -1927546232 363822124
            -1573982924 -336663903 1706719151 -1393631271</internalNodes>
          <leafValues>
            -3.9028945565223694e-01 5.3973633050918579e-01</leafValues></_>
        <_>
          <internalNodes>
            0 -1 101 1369179258 -2121039551 -2147281728 321079504
            -1598025521 1635827848 -2112972664 -1163177271</internalNodes>
          <leafValues>
            -4.8459744453430176e-01 4.4475299119949341e-01</leafValues></_>
        <_>
          <internalNodes>
            0 -1 9 -669338416 2104836121 -594503188 -1038515566
            -2012102341 318931224 1368199678 1433203881</internalNodes>
          <leafValues>
            -5.8650946617126465e-01 3.8002651929855347e-01</leafValues></_>
        <_>
          <internalNodes>
            0 -1 124 -1029070272 1502822756 805536003 1785032791
            848003207 -1970667520 1243467915 726176010</internalNodes>
          <leafValues>
            -5.7918763160705566e-01 4.0476670861244202e-01</leafValues></_>
        <_>
          <internalNodes>
            0 -1 85 -163992369 952011173 -1073659611 268436503
            -1438553972 344080745 -1937058883 80707907</internalNodes>
          <leafValues>
            -4.7980049252510071e-01 4.9613016843795776e-01</leafValues></_>
        <_>
          <internalNodes>
            0 -1 169 -926945299 262787069 -1392543921 1388904191
            1421624886 213872631 -857743543 -856238097</internalNodes>
          <leafValues>
            -3.9001819491386414e-01 5.8578407764434814e-01</leafValues></_></weakClassifiers></_>
    <!-- stage 15 -->
    <_>
      <maxWeakCount>11</maxWeakCount>
      <stageThreshold>-6.2165504693984985e-01</stageThreshold>
      <weakClassifiers>
        <_>
          <internalNodes>
            0 -1 136 1623261194 1433291698 1792846763 1391418098
            1945749198 -1409564678 -1157914707 274658008</internalNodes>
          <leafValues>
            -3.8702461123466492e-01 4.9696445465087891e-01</leafValues></_>
        <_>
          <internalNodes>
            0 -1 159 -749996477 -1874853502 4535432 -803536819
            -125810640 1078263952 1887990065 1081722619</internalNodes>
          <leafValues>
            -5.6395184993743896e-01 3.1515467166900635e-01</leafValues></_>
        <_>
          <internalNodes>
            0 -1 116 1864518394 -549365664 993755122 392314645
            -1996572434 -638043254 790267775 973733019</internalNodes>
          <leafValues>
            -4.2902567982673645e-01 4.5875063538551331e-01</leafValues></_>
        <_>
          <internalNodes>
            0 -1 107 -540825978 -156304968 1459299312 -9230213
            -1670258845 77303042 1467697132 -73804489</internalNodes>
          <leafValues>
            -3.4633886814117432e-01 5.9617149829864502e-01</leafValues></_>
        <_>
          <internalNodes>
            0 -1 106 -16785727 -578666805 -1845595950 -725649420
            -1883619077 -1030293608 -471616290 -1668643364</internalNodes>
          <leafValues>
            -4.1456183791160583e-01 5.1457482576370239e-01</leafValues></_>
        <_>
          <internalNodes>
            0 -1 110 -1685014718 -739483367 295147 -1056765876
            -955628897 -1476295286 -1999069056 -1619380103</internalNodes>
          <leafValues>
            -4.8750984668731689e-01 4.3026745319366455e-01</leafValues></_>
        <_>
          <internalNodes>
            0 -1 72 -541442849 1567365625 -1075905160 -2088427521
            -976054321 708142445 -1918647029 -339048961</internalNodes>
          <leafValues>
            -3.5384288430213928e-01 5.7468289136886597e-01</leafValues></_>
        <_>
          <internalNodes>
            0 -1 1 -1878274516 705200132 553779586 1426104712
            -1202076158 320340045 -1828638688 -1785308844</internalNodes>
          <leafValues>
            -5.8185213804244995e-01 3.7958127260208130e-01</leafValues></_>
        <_>
          <internalNodes>
            0 -1 151 -2101468749 -47371736 2065913776 17507444
            -1347030493 -1946288266 59045879 -610294324</internalNodes>
          <leafValues>
            -4.3208265304565430e-01 5.1663225889205933e-01</leafValues></_>
        <_>
          <internalNodes>
            0 -1 46 1880506582 -1656844252 17045526 39598387 193108136
            -1442834176 134443295 823313937</internalNodes>
          <leafValues>
            -5.8039391040802002e-01 3.8910087943077087e-01</leafValues></_>
        <_>
          <internalNodes>
            0 -1 45 -619380438 -1742700518 1526874400 286475733
            -2147372640 -2132679502 142639818 105931265</internalNodes>
          <leafValues>
            -6.2687081098556519e-01 3.5072359442710876e-01</leafValues></_></weakClassifiers></_>
    <!-- stage 16 -->
    <_>
      <maxWeakCount>9</maxWeakCount>
      <stageThreshold>-4.5744243264198303e-01</stageThreshold>
      <weakClassifiers>
        <_>
          <internalNodes>
            0 -1 54 -485211674 1913868512 67551242 152764579 212457905
            1348603906 100663861 50757856</internalNodes>
          <leafValues>
            -5.0769233703613281e-01 4.4313725829124451e-01</leafValues></_>
        <_>
          <internalNodes>
            0 -1 56 1896182098 -214855592 1073746001 -1232141227
            -620523049 -1702166331 1296439539 1263161989</internalNodes>
          <leafValues>
            -4.1165736317634583e-01 4.1830757260322571e-01</leafValues></_>
        <_>
          <internalNodes>
            0 -1 118 -26627434 -1254646159 -940955000 1140135663
            -381927694 -1629164936 499036403 -904156771</internalNodes>
          <leafValues>
            -3.2652083039283752e-01 5.7136785984039307e-01</leafValues></_>
        <_>
          <internalNodes>
            0 -1 52 -675225959 -72406560 -157912869 -885954119
            -1090880341 -1342349700 1501099155 -550628977</internalNodes>
          <leafValues>
            -3.2012861967086792e-01 6.4640426635742188e-01</leafValues></_>
        <_>
          <internalNodes>
            0 -1 4 -788510530 -662776958 -1996488691 -297757349 17856844
            -1189797888 1098942486 1265058501</internalNodes>
          <leafValues>
            -4.9800294637680054e-01 4.0520933270454407e-01</leafValues></_>
        <_>
          <internalNodes>
            0 -1 63 1923436514 1028673609 411374869 1372213256
            -1576972115 -1433364432 1728151670 1963944972</internalNodes>
          <leafValues>
            -5.9777259826660156e-01 3.3616995811462402e-01</leafValues></_>
        <_>
          <internalNodes>
            0 -1 144 -630269859 -185867609 -1618023009 -1611399171
            1659704562 277249509 -304633906 -953320135</internalNodes>
          <leafValues>
            -3.5742118954658508e-01 6.0437572002410889e-01</leafValues></_>
        <_>
          <internalNodes>
            0 -1 43 -281389145 1595854331 -71680215 448470493 -269050691
            -66199576 -814175013 -584157055</internalNodes>
          <leafValues>
            -3.4356185793876648e-01 5.9280365705490112e-01</leafValues></_>
        <_>
          <internalNodes>
            0 -1 150 1153627852 1614877002 294686741 1561117929
            314688003 -1576370040 806002818 144460036</internalNodes>
          <leafValues>
            -6.6211605072021484e-01 3.4842896461486816e-01</leafValues></_></weakClassifiers></_>
    <!-- stage 17 -->
    <_>
      <maxWeakCount>9</maxWeakCount>
      <stageThreshold>-7.4432861804962158e-01</stageThreshold>
      <weakClassifiers>
        <_>
          <internalNodes>
            0 -1 33 -139920212 2138455168 -475071814 -1692844616
            -541275653 2143229620 1513267762 -1525670730</internalNodes>
          <leafValues>
            -3.3333334326744080e-01 5.0448834896087646e-01</leafValues></_>
        <_>
          <internalNodes>
            0 -1 153 200464636 -639417246 1072903827 1900236653
            1854166762 -512753876 896843659 455805407</internalNodes>
          <leafValues>
            -3.5513752698898315e-01 4.7200185060501099e-01</leafValues></_>
        <_>
          <internalNodes>
            0 -1 149 1284228847 -113565800 2004860310 -751068249
            -1614819825 -618939525 1203559379 -750020465</internalNodes>
          <leafValues>
            -2.7644550800323486e-01 6.6505438089370728e-01</leafValues></_>
        <_>
          <internalNodes>
            0 -1 76 -886739253 1801766680 671046647 1917282213
            -1264418074 -307595276 1565811943 -113473677</internalNodes>
          <leafValues>
            -4.0391746163368225e-01 4.9281060695648193e-01</leafValues></_>
        <_>
          <internalNodes>
            0 -1 121 -1442197293 -1657838176 1862269117 100838967
            -1086400538 -751831428 1604883538 -1158941956</internalNodes>
          <leafValues>
            -2.7531069517135620e-01 6.5656888484954834e-01</leafValues></_>
        <_>
          <internalNodes>
            0 -1 123 227365625 -584246052 727062727 -216574541
            -1429049723 -565707835 828043262 -1958057908</internalNodes>
          <leafValues>
            -3.9776876568794250e-01 5.2008557319641113e-01</leafValues></_>
        <_>
          <internalNodes>
            0 -1 42 -37491312 1462968705 -51849987 1193988374 1473936577
            -1603864613 81576394 -2058776903</internalNodes>
          <leafValues>
            -4.4940888881683350e-01 4.7592151165008545e-01</leafValues></_>
        <_>
          <internalNodes>
            0 -1 109 -1874665233 -1781370624 1358978665 286216337
            -1064828504 -1434415054 688195783 690356894</internalNodes>
          <leafValues>
            -4.8261550068855286e-01 4.5006608963012695e-01</leafValues></_>
        <_>
          <internalNodes>
            0 -1 140 -318266868 1848570272 1794093667 1677268188
            -244974350 -25330594 -545983116 -1842350869</internalNodes>
          <leafValues>
            -4.1958874464035034e-01 5.4308092594146729e-01</leafValues></_></weakClassifiers></_>
    <!-- stage 18 -->
    <_>
      <maxWeakCount>10</maxWeakCount>
      <stageThreshold>-1.2010413408279419e+00</stageThreshold>
      <weakClassifiers>
        <_>
          <internalNodes>
            0 -1 143 -185195317 -180898421 254617446 1027801135
            -1552828852 1130118262 -1644841473 1971620557</internalNodes>
          <leafValues>
            -2.5124791264533997e-01 5.5155158042907715e-01</leafValues></_>
        <_>
          <internalNodes>
            0 -1 128 -41899613 -607998048 1725889776 -33435119
            2011103176 -1218809871 380137903 -545262497</internalNodes>
          <leafValues>
            -2.6772049069404602e-01 5.7018911838531494e-01</leafValues></_>
        <_>
          <internalNodes>
            0 -1 167 -1193492549 99543841 -1342194292 -1879453787
            -1984583492 -1833435332 -2056800756 184415534</internalNodes>
          <leafValues>
            -3.7627893686294556e-01 4.8089012503623962e-01</leafValues></_>
        <_>
          <internalNodes>
            0 -1 163 -618078757 -810950990 1874688887 -116442191
            -1092960534 -1030619316 112765403 -1618256386</internalNodes>
          <leafValues>
            -2.9266351461410522e-01 7.1377813816070557e-01</leafValues></_>
        <_>
          <internalNodes>
            0 -1 15 -895063546 -1962753520 236081415 1426346307
            1452015499 -1593835328 536871843 332910647</internalNodes>
          <leafValues>
            -5.0914508104324341e-01 3.9476117491722107e-01</leafValues></_>
        <_>
          <internalNodes>
            0 -1 80 -1886658327 1424969462 1708449525 1121056243
            -1077876537 -1626443921 74512095 -1363135407</internalNodes>
          <leafValues>
            -4.0199443697929382e-01 5.0174200534820557e-01</leafValues></_>
        <_>
          <internalNodes>
            0 -1 103 973342324 879821197 1145169 356712696 -888495191
            989872781 1560807434 723032156</internalNodes>
          <leafValues>
            -6.5536481142044067e-01 3.2300665974617004e-01</leafValues></_>
        <_>
          <internalNodes>
            0 -1 22 1330147418 1895924123 -2130671815 722571292
            -1820274479 1538949137 -396352073 -811280249</internalNodes>
          <leafValues>
            -4.7493949532508850e-01 4.6044775843620300e-01</leafValues></_>
        <_>
          <internalNodes>
            0 -1 50 334654515 -878793953 1853800264 -1485001105
            -1002573839 1543495629 1819382822 -585857819</internalNodes>
          <leafValues>
            -4.2588502168655396e-01 5.1279705762863159e-01</leafValues></_>
        <_>
          <internalNodes>
            0 -1 122 -1799225529 -1858006074 -1445478975 2071723638
            1294333939 1003355883 -142742281 -945118730</internalNodes>
          <leafValues>
            -3.0076488852500916e-01 6.8385702371597290e-01</leafValues></_></weakClassifiers></_>
    <!-- stage 19 -->
    <_>
      <maxWeakCount>10</maxWeakCount>
      <stageThreshold>-7.8097558021545410e-01</stageThreshold>
      <weakClassifiers>
        <_>
          <internalNodes>
            0 -1 27 -838271286 1233632766 1560215036 262717352
            -1796686376 1811315934 1172324349 -1075665480</internalNodes>
          <leafValues>
            -3.6179774999618530e-01 4.8571428656578064e-01</leafValues></_>
        <_>
          <internalNodes>
            0 -1 94 -743068437 2070945022 15826806 1868513133 -547160654
            1025185788 -1552953807 2080085646</internalNodes>
          <leafValues>
            -3.2497957348823547e-01 5.0591278076171875e-01</leafValues></_>
        <_>
          <internalNodes>
            0 -1 158 -207531271 -1113358733 -1854143913 2036686645
            2124652296 -1355909358 484156603 1003115743</internalNodes>
          <leafValues>
            -3.0879986286163330e-01 5.5270630121231079e-01</leafValues></_>
        <_>
          <internalNodes>
            0 -1 12 -1623267322 -1879036903 1006682602 226492702
            386400435 -719256555 -798897822 1986257666</internalNodes>
          <leafValues>
            -5.7404142618179321e-01 3.1080594658851624e-01</leafValues></_>
        <_>
          <internalNodes>
            0 -1 143 -168874017 -638243765 532490215 2046235702
            695318092 56508282 -1250462635 -1769796403</internalNodes>
          <leafValues>
            -3.8220047950744629e-01 5.2369636297225952e-01</leafValues></_>
        <_>
          <internalNodes>
            0 -1 95 -1839793446 2041006089 420142340 826708295 686343415
            303694213 -1727859742 1220397509</internalNodes>
          <leafValues>
            -5.1028144359588623e-01 4.0238821506500244e-01</leafValues></_>
        <_>
          <internalNodes>
            0 -1 79 -2097080345 -636484480 1698811997 1393624805
            429564640 -1979510494 1556124335 -394112623</internalNodes>
          <leafValues>
            -4.7248324751853943e-01 4.5974749326705933e-01</leafValues></_>
        <_>
          <internalNodes>
            0 -1 165 1059683897 -88410622 -1694534351 1983371577
            -1627697921 -1705681038 1534629881 991130842</internalNodes>
          <leafValues>
            -3.8460260629653931e-01 5.5495285987854004e-01</leafValues></_>
        <_>
          <internalNodes>
            0 -1 35 -623409086 -619141728 553779284 -791653886 738754946
            958595585 940085928 1100659179</internalNodes>
          <leafValues>
            -5.4632627964019775e-01 4.1979345679283142e-01</leafValues></_>
        <_>
          <internalNodes>
            0 -1 126 -1934734917 -746775310 1541402975 -572098857
            -2034400125 -681525393 370984443 -1887746901</internalNodes>
          <leafValues>
            -3.4022086858749390e-01 6.8366938829421997e-01</leafValues></_></weakClassifiers></_></stages>
  <features>
    <_>
      <rect>
        0 1 22 12</rect></_>
    <_>
      <rect>
        0 13 6 5</rect></_>
    <_>
      <rect>
        1 0 11 8</rect></_>
    <_>
      <rect>
        1 16 24 4</rect></_>
    <_>
      <rect>
        1 21 13 6</rect></_>
    <_>
      <rect>
        2 8 8 5</rect></_>
    <_>
      <rect>
        3 0 8 8</rect></_>
    <_>
      <rect>
        5 4 8 10</rect></_>
    <_>
      <rect>
        5 10 25 9</rect></_>
    <_>
      <rect>
        5 18 25 7</rect></_>
    <_>
      <rect>
        6 1 11 13</rect></_>
    <_>
      <rect>
        6 2 21 11</rect></_>
    <_>
      <rect>
        6 12 7 4</rect></_>
    <_>
      <rect>
        7 10 13 10</rect></_>
    <_>
      <rect>
        7 13 13 5</rect></_>
    <_>
      <rect>
        8 4 11 7</rect></_>
    <_>
      <rect>
        8 4 13 10</rect></_>
    <_>
      <rect>
        9 0 15 10</rect></_>
    <_>
      <rect>
        9 12 15 8</rect></_>
    <_>
      <rect>
        9 19 7 7</rect></_>
    <_>
      <rect>
        10 1 12 13</rect></_>
    <_>
      <rect>
        10 3 19 7</rect></_>
    <_>
      <rect>
        10 15 17 7</rect></_>
    <_>
      <rect>
        10 20 8 5</rect></_>
    <_>
      <rect>
        12 2 19 12</rect></_>
    <_>
      <rect>
        12 8 12 9</rect></_>
    <_>
      <rect>
        12 14 20 7</rect></_>
    <_>
      <rect>
        14 4 14 10</rect></_>
    <_>
      <rect>
        14 18 14 7</rect></_>
    <_>
      <rect>
        15 14 18 6</rect></_>
    <_>
      <rect>
        16 15 14 4</rect></_>
    <_>
      <rect>
        17 7 13 9</rect></_>
    <_>
      <rect>
        17 8 13 6</rect></_>
    <_>
      <rect>
        17 13 13 9</rect></_>
    <_>
      <rect>
        17 18 12 6</rect></_>
    <_>
      <rect>
        18 7 7 8</rect></_>
    <_>
      <rect>
        19 12 15 6</rect></_>
    <_>
      <rect>
        19 13 11 7</rect></_>
    <_>
      <rect>
        19 15 10 3</rect></_>
    <_>
      <rect>
        19 15 12 5</rect></_>
    <_>
      <rect>
        20 9 10 5</rect></_>
    <_>
      <rect>
        20 11 10 6</rect></_>
    <_>
      <rect>
        20 16 11 4</rect></_>
    <_>
      <rect>
        21 16 9 6</rect></_>
    <_>
      <rect>
        22 14 19 6</rect></_>
    <_>
      <rect>
        22 15 6 3</rect></_>
    <_>
      <rect>
        22 21 5 3</rect></_>
    <_>
      <rect>
        23 13 9 3</rect></_>
    <_>
      <rect>
        23 16 9 3</rect></_>
    <_>
      <rect>
        24 12 8 5</rect></_>
    <_>
      <rect>
        24 15 6 4</rect></_>
    <_>
      <rect>
        24 17 8 3</rect></_>
    <_>
      <rect>
        24 26 10 4</rect></_>
    <_>
      <rect>
        25 8 13 6</rect></_>
    <_>
      <rect>
        25 15 9 3</rect></_>
    <_>
      <rect>
        25 15 10 5</rect></_>
    <_>
      <rect>
        25 20 10 3</rect></_>
    <_>
      <rect>
        26 4 12 9</rect></_>
    <_>
      <rect>
        26 7 11 4</rect></_>
    <_>
      <rect>
        26 14 10 5</rect></_>
    <_>
      <rect>
        26 17 7 5</rect></_>
    <_>
      <rect>
        26 19 4 1</rect></_>
    <_>
      <rect>
        26 19 7 6</rect></_>
    <_>
      <rect>
        27 11 10 4</rect></_>
    <_>
      <rect>
        27 13 10 7</rect></_>
    <_>
      <rect>
        27 26 3 2</rect></_>
    <_>
      <rect>
        28 7 10 4</rect></_>
    <_>
      <rect>
        28 7 17 6</rect></_>
    <_>
      <rect>
        28 11 14 9</rect></_>
    <_>
      <rect>
        28 14 3 1</rect></_>
    <_>
      <rect>
        28 14 9 5</rect></_>
    <_>
      <rect>
        28 15 8 3</rect></_>
    <_>
      <rect>
        28 17 5 4</rect></_>
    <_>
      <rect>
        28 18 3 2</rect></_>
    <_>
      <rect>
        29 6 8 7</rect></_>
    <_>
      <rect>
        29 10 6 2</rect></_>
    <_>
      <rect>
        29 10 9 4</rect></_>
    <_>
      <rect>
        29 18 8 4</rect></_>
    <_>
      <rect>
        30 4 7 5</rect></_>
    <_>
      <rect>
        30 9 8 4</rect></_>
    <_>
      <rect>
        30 10 7 3</rect></_>
    <_>
      <rect>
        30 12 9 4</rect></_>
    <_>
      <rect>
        30 18 2 1</rect></_>
    <_>
      <rect>
        30 25 5 2</rect></_>
    <_>
      <rect>
        30 27 4 2</rect></_>
    <_>
      <rect>
        31 5 16 5</rect></_>
    <_>
      <rect>
        31 15 4 4</rect></_>
    <_>
      <rect>
        31 18 8 5</rect></_>
    <_>
      <rect>
        31 20 3 3</rect></_>
    <_>
      <rect>
        32 10 5 3</rect></_>
    <_>
      <rect>
        32 11 6 4</rect></_>
    <_>
      <rect>
        32 11 9 5</rect></_>
    <_>
      <rect>
        32 14 3 3</rect></_>
    <_>
      <rect>
        32 14 8 4</rect></_>
    <_>
      <rect>
        32 15 4 4</rect></_>
    <_>
      <rect>
        32 17 5 2</rect></_>
    <_>
      <rect>
        32 24 5 1</rect></_>
    <_>
      <rect>
        33 10 4 2</rect></_>
    <_>
      <rect>
        33 14 6 2</rect></_>
    <_>
      <rect>
        33 15 2 2</rect></_>
    <_>
      <rect>
        33 15 8 4</rect></_>
    <_>
      <rect>
        33 19 5 3</rect></_>
    <_>
      <rect>
        33 21 4 1</rect></_>
    <_>
      <rect>
        33 22 4 3</rect></_>
    <_>
      <rect>
        33 27 3 1</rect></_>
    <_>
      <rect>
        34 6 7 4</rect></_>
    <_>
      <rect>
        34 17 3 2</rect></_>
    <_>
      <rect>
        34 19 2 2</rect></_>
    <_>
      <rect>
        34 21 4 1</rect></_>
    <_>
      <rect>
        34 23 4 1</rect></_>
    <_>
      <rect>
        35 1 9 11</rect></_>
    <_>
      <rect>
        35 4 6 7</rect></_>
    <_>
      <rect>
        35 13 5 2</rect></_>
    <_>
      <rect>
        35 15 3 2</rect></_>
    <_>
      <rect>
        35 16 3 2</rect></_>
    <_>
      <rect>
        35 17 2 3</rect></_>
    <_>
      <rect>
        35 18 5 2</rect></_>
    <_>
      <rect>
        35 19 2 1</rect></_>
    <_>
      <rect>
        35 19 4 2</rect></_>
    <_>
      <rect>
        35 24 3 1</rect></_>
    <_>
      <rect>
        35 24 4 1</rect></_>
    <_>
      <rect>
        36 7 6 2</rect></_>
    <_>
      <rect>
        36 13 3 5</rect></_>
    <_>
      <rect>
        36 14 3 1</rect></_>
    <_>
      <rect>
        36 15 2 2</rect></_>
    <_>
      <rect>
        36 15 2 3</rect></_>
    <_>
      <rect>
        36 16 3 1</rect></_>
    <_>
      <rect>
        36 17 2 1</rect></_>
    <_>
      <rect>
        36 18 2 1</rect></_>
    <_>
      <rect>
        36 19 2 1</rect></_>
    <_>
      <rect>
        36 20 2 1</rect></_>
    <_>
      <rect>
        36 21 3 1</rect></_>
    <_>
      <rect>
        36 24 6 2</rect></_>
    <_>
      <rect>
        36 25 3 2</rect></_>
    <_>
      <rect>
        36 25 5 2</rect></_>
    <_>
      <rect>
        36 28 3 1</rect></_>
    <_>
      <rect>
        37 12 2 4</rect></_>
    <_>
      <rect>
        37 14 8 4</rect></_>
    <_>
      <rect>
        37 15 1 3</rect></_>
    <_>
      <rect>
        37 16 2 1</rect></_>
    <_>
      <rect>
        37 17 1 2</rect></_>
    <_>
      <rect>
        37 17 2 2</rect></_>
    <_>
      <rect>
        37 18 2 2</rect></_>
    <_>
      <rect>
        37 19 2 1</rect></_>
    <_>
      <rect>
        37 20 2 1</rect></_>
    <_>
      <rect>
        37 20 2 2</rect></_>
    <_>
      <rect>
        37 23 6 2</rect></_>
    <_>
      <rect>
        37 24 5 2</rect></_>
    <_>
      <rect>
        37 26 5 1</rect></_>
    <_>
      <rect>
        38 14 1 3</rect></_>
    <_>
      <rect>
        38 16 3 2</rect></_>
    <_>
      <rect>
        38 17 4 2</rect></_>
    <_>
      <rect>
        38 18 1 1</rect></_>
    <_>
      <rect>
        38 27 3 1</rect></_>
    <_>
      <rect>
        39 17 1 2</rect></_>
    <_>
      <rect>
        39 26 5 2</rect></_>
    <_>
      <rect>
        40 22 5 2</rect></_>
    <_>
      <rect>
        40 23 2 2</rect></_>
    <_>
      <rect>
        40 28 3 1</rect></_>
    <_>
      <rect>
        41 16 12 4</rect></_>
    <_>
      <rect>
        42 18 3 2</rect></_>
    <_>
      <rect>
        42 25 5 2</rect></_>
    <_>
      <rect>
        43 19 3 3</rect></_>
    <_>
      <rect>
        43 23 3 1</rect></_>
    <_>
      <rect>
        43 28 4 1</rect></_>
    <_>
      <rect>
        45 27 3 1</rect></_>
    <_>
      <rect>
        47 25 4 2</rect></_>
    <_>
      <rect>
        51 20 9 6</rect></_>
    <_>
      <rect>
        53 16 8 8</rect></_>
    <_>
      <rect>
        60 20 5 3</rect></_></features></cascade>
</opencv_storage>
